{"learner":{"attributes":{"best_iteration":"99","best_ntree_limit":"100","scikit_learn":"{\"use_label_encoder\": null, \"n_estimators\": 100, \"objective\": \"binary:logistic\", \"max_depth\": null, \"max_leaves\": null, \"max_bin\": null, \"grow_policy\": null, \"learning_rate\": null, \"verbosity\": null, \"booster\": null, \"tree_method\": null, \"gamma\": null, \"min_child_weight\": null, \"max_delta_step\": null, \"subsample\": null, \"sampling_method\": null, \"colsample_bytree\": null, \"colsample_bylevel\": null, \"colsample_bynode\": null, \"reg_alpha\": null, \"reg_lambda\": null, \"scale_pos_weight\": null, \"base_score\": null, \"missing\": NaN, \"num_parallel_tree\": null, \"random_state\": null, \"n_jobs\": null, \"monotone_constraints\": null, \"interaction_constraints\": null, \"importance_type\": null, \"gpu_id\": null, \"validate_parameters\": null, \"predictor\": null, \"enable_categorical\": false, \"feature_types\": null, \"max_cat_to_onehot\": null, \"max_cat_threshold\": null, \"eval_metric\": null, \"early_stopping_rounds\": null, \"callbacks\": null, \"classes_\": [0, 1], \"n_classes_\": 2, \"_estimator_type\": \"classifier\"}"},"feature_names":["Diabetes status","Smoking status","HDL","Cholesterol","BMI","Age","Ventricular rate","P duration","PP interval","PQ interval","QRS number","QRS duration","QT interval","QTC interval","RR interval","P axis","R axis","T axis","Max carotid IMT 120 deg","Max carotid IMT 150 deg","Max carotid IMT 210 deg","Max carotid IMT 240 deg","Mean carotid IMT 120 deg","Mean carotid IMT 150 deg","Mean carotid IMT 210 deg","Mean carotid IMT 240 deg","Min carotid IMT 120 deg","Min carotid IMT 150 deg","Min carotid IMT 210 deg","Min carotid IMT 240 deg","Position of pulse wave notch","Position of pulse wave peak","Position of the shoulder on the pulse waveform","Pulse rate","Pulse wave Arterial Stiffness index","Pulse wave peak to peak time","Pulse wave reflection index","Average heart rate","Cardiac index","Cardiac output","LV ejection fraction","LV end diastolic volume","LV end systolic volume","LV stroke volume","Augmentation index for PWA","Central augmentation pressure during PWA","Central pulse pressure during PWA","Central systolic blood pressure during PWA","Diastolic blood pressure during PWA","End systolic blood pressure during PWA","End systolic pressure index during PWA","Mean arterial pressure during PWA","Number of beats in waveform average for PWA","Peripheral pulse pressure during PWA","Stroke volume during PWA","Systolic brachial blood pressure during PWA"],"feature_types":["float","float","float","float","float","float","float","float","float","float","float","float","float","float","float","float","float","float","float","float","float","float","float","float","float","float","float","float","float","float","float","float","float","float","float","float","float","float","float","float","float","float","float","float","float","float","float","float","float","float","float","float","float","float","float","float"],"gradient_booster":{"model":{"gbtree_model_param":{"num_parallel_tree":"1","num_trees":"100","size_leaf_vector":"0"},"tree_info":[0,0,0,0,0,0,0,0,0,0,0,0,0,0,0,0,0,0,0,0,0,0,0,0,0,0,0,0,0,0,0,0,0,0,0,0,0,0,0,0,0,0,0,0,0,0,0,0,0,0,0,0,0,0,0,0,0,0,0,0,0,0,0,0,0,0,0,0,0,0,0,0,0,0,0,0,0,0,0,0,0,0,0,0,0,0,0,0,0,0,0,0,0,0,0,0,0,0,0,0],"trees":[{"base_weights":[-0E0,-6.1667633E-1,5.090822E-1,-1.0591673E0,3.208556E-2,1.674696E-1,8.796412E-1,-1.2635336E0,-1.3618158E-1,-5.3642386E-1,4.609619E-1,-4.6984127E-1,4.260393E-1,1.3490123E0,7.095464E-1,-1.5125E0,-9.294606E-1,-4.025157E-1,1.3162394E0,-8.5524863E-1,4.1042346E-1,8.592233E-1,3.841229E-2,-1.034188E0,-1.356784E-1,-1.1282051E-1,6.059304E-1,-1.2E0,1.3680227E0,4.8752835E-1,1.0351759E0,-1.1908396E0,-1.7293497E0,-1.3810889E0,-5.053192E-1,1.1620795E-1,-9.3929714E-1,1.5272727E0,-1.2727273E0,3.125E-1,-1.0422535E0,6.241135E-1,-1.7241379E0,6.939971E-1,1.6137931E0,3.219512E-1,-9.882353E-1,8.9361703E-1,-1.237647E0,-1.114094E0,8.90937E-2,-7.387387E-1,3.503326E-1,2.3980815E-2,7.3145247E-1,-1.1111112E0,1.3840305E0,4.029304E-1,1.5384616E0,5.3731346E-1,1.1741935E0,-1.25E0,1.0909091E0,-1.7617778E0,8.235294E-1,-1.5702479E0,-1.4432989E-1,-2.1359223E-1,-1.120332E0,4.0892193E-1,-1.1612903E0,4E-1,-1.2061069E0,1.6952381E0,-1.1111112E0,-7.3333335E-1,1.1666666E0,-1.1774648E0,2.9333332E-1,2.1105528E-1,1.5402299E0,1.3333334E0,4.2944786E-1,-4E-1,1.7122302E0,-5.590062E-1,6.2882096E-1,-1.21212125E-1,-1.4814814E0,-1.4666667E0,1.7777778E0,-1.4569191E0,6.956522E-1,-0E0,-1.7473685E0,-1.1052631E0,2.4525043E-1,1.1E0,-9.7643095E-1,6.522911E-1,-1E0,2.0212767E-1,-1.4666667E0,6.01227E-1,1.1485587E0,1.2516129E0,1.7295374E0,2.2673436E-1,8.521739E-1,-1E0,1.6507937E0,-1.1818181E0,8.596491E-1,1.2017354E0,-1.3333334E0],"categories":[],"categories_nodes":[],"categories_segments":[],"categories_sizes":[],"default_left":[1,1,1,1,1,1,1,1,1,1,1,1,1,1,1,1,1,1,1,1,1,1,1,1,1,1,1,0,1,1,1,1,1,1,1,1,1,1,0,1,1,1,0,1,1,1,1,1,1,1,1,1,1,1,1,0,1,1,1,1,1,0,0,0,0,0,0,0,0,0,0,0,0,0,0,0,0,0,0,0,0,0,0,0,0,0,0,0,0,0,0,0,0,0,0,0,0,0,0,0,0,0,0,0,0,0,0,0,0,0,0,0,0,0,0],"id":0,"left_children":[1,3,5,7,9,11,13,15,17,19,21,23,25,27,29,31,33,35,37,39,41,43,45,47,49,51,53,-1,55,57,59,61,63,65,67,69,71,73,-1,75,77,79,-1,81,83,85,87,89,91,93,95,97,99,101,103,-1,105,107,109,111,113,-1,-1,-1,-1,-1,-1,-1,-1,-1,-1,-1,-1,-1,-1,-1,-1,-1,-1,-1,-1,-1,-1,-1,-1,-1,-1,-1,-1,-1,-1,-1,-1,-1,-1,-1,-1,-1,-1,-1,-1,-1,-1,-1,-1,-1,-1,-1,-1,-1,-1,-1,-1,-1,-1],"loss_changes":[1.1989329E3,4.9580603E2,2.64674E2,1.9350098E2,1.7122621E2,1.797793E2,7.913989E1,6.85011E1,7.2963585E1,9.151828E1,6.7323135E1,5.9263557E1,7.526651E1,1.4519348E1,5.288565E1,3.142163E1,6.854895E1,4.4381306E1,1.7924786E1,4.9732986E1,3.608438E1,2.4563034E1,5.7154373E1,4.6996826E1,4.386344E1,5.678852E1,4.2477875E1,0E0,1.2024628E1,3.858799E1,2.0028778E1,2.7888947E1,2.5003113E1,4.059665E1,3.3490875E1,3.1044603E1,2.84441E1,1.4070419E1,0E0,2.9441666E1,3.5604874E1,2.6352789E1,0E0,2.8307358E1,7.870804E0,4.1916164E1,1.79958E1,2.7128134E1,4.6054825E1,2.6280895E1,3.0625057E1,3.745881E1,4.6625473E1,2.7980474E1,2.5300537E1,0E0,9.867828E0,3.2220734E1,1.091819E1,3.8143158E1,1.765921E1,0E0,0E0,0E0,0E0,0E0,0E0,0E0,0E0,0E0,0E0,0E0,0E0,0E0,0E0,0E0,0E0,0E0,0E0,0E0,0E0,0E0,0E0,0E0,0E0,0E0,0E0,0E0,0E0,0E0,0E0,0E0,0E0,0E0,0E0,0E0,0E0,0E0,0E0,0E0,0E0,0E0,0E0,0E0,0E0,0E0,0E0,0E0,0E0,0E0,0E0,0E0,0E0,0E0,0E0],"parents":[2147483647,0,0,1,1,2,2,3,3,4,4,5,5,6,6,7,7,8,8,9,9,10,10,11,11,12,12,13,13,14,14,15,15,16,16,17,17,18,18,19,19,20,20,21,21,22,22,23,23,24,24,25,25,26,26,28,28,29,29,30,30,31,31,32,32,33,33,34,34,35,35,36,36,37,37,39,39,40,40,41,41,43,43,44,44,45,45,46,46,47,47,48,48,49,49,50,50,51,51,52,52,53,53,54,54,56,56,57,57,58,58,59,59,60,60],"right_children":[2,4,6,8,10,12,14,16,18,20,22,24,26,28,30,32,34,36,38,40,42,44,46,48,50,52,54,-1,56,58,60,62,64,66,68,70,72,74,-1,76,78,80,-1,82,84,86,88,90,92,94,96,98,100,102,104,-1,106,108,110,112,114,-1,-1,-1,-1,-1,-1,-1,-1,-1,-1,-1,-1,-1,-1,-1,-1,-1,-1,-1,-1,-1,-1,-1,-1,-1,-1,-1,-1,-1,-1,-1,-1,-1,-1,-1,-1,-1,-1,-1,-1,-1,-1,-1,-1,-1,-1,-1,-1,-1,-1,-1,-1,-1,-1],"split_conditions":[1.3716666E2,2.6404701E1,6.75E1,6.95E1,6.05E1,2.44272E1,5.2539997E0,8.975E1,4.565E2,3.304945E1,1.451E0,1.2325E2,1.2225E2,9.15E1,1.3283334E2,3.95E1,6.05E1,1.0525E2,5.35E1,4.05E1,7.75E1,5E-1,4.37E2,8.55E1,5.75E1,2.8119598E1,4.75E2,-3.6E-1,5.085E2,5E-1,2.05E1,1.33E2,5.05E1,7.265E2,5.25E1,5.15E1,4.55E1,2.975E1,-3.818182E-1,1.305E2,6.765E2,9.22E2,-5.172414E-1,4.875E1,5.55E1,1.53E2,4.55E1,5.15E1,2.925E1,5.25E1,2.15E1,5.975E1,1.435E2,5.585E2,7.915E2,-3.3333337E-1,3.02398E1,4.435E2,1.35E2,5.45E1,1.075E2,-3.75E-1,3.2727274E-1,-5.2853334E-1,2.4705884E-1,-4.7107437E-1,-4.3298967E-2,-6.4077675E-2,-3.3609962E-1,1.2267658E-1,-3.483871E-1,1.20000005E-1,-3.6183208E-1,5.0857145E-1,-3.3333337E-1,-2.2000001E-1,3.5E-1,-3.5323948E-1,8.8E-2,6.331658E-2,4.62069E-1,4.0000004E-1,1.2883437E-1,-1.20000005E-1,5.136691E-1,-1.6770187E-1,1.886463E-1,-3.636364E-2,-4.4444445E-1,-4.4000003E-1,5.3333336E-1,-4.3707573E-1,2.0869567E-1,-0E0,-5.242106E-1,-3.3157894E-1,7.357513E-2,3.3E-1,-2.929293E-1,1.9568734E-1,-3E-1,6.06383E-2,-4.4000003E-1,1.803681E-1,3.4456763E-1,3.754839E-1,5.1886123E-1,6.802031E-2,2.556522E-1,-3E-1,4.9523813E-1,-3.5454544E-1,2.5789475E-1,3.6052063E-1,-4.0000004E-1],"split_indices":[47,4,5,5,5,4,3,51,13,4,2,49,49,49,49,16,5,54,16,42,36,0,12,41,5,4,26,0,23,0,32,11,44,23,42,16,36,44,0,47,26,21,0,46,48,9,42,43,45,5,31,46,41,27,23,0,4,13,9,40,17,0,0,0,0,0,0,0,0,0,0,0,0,0,0,0,0,0,0,0,0,0,0,0,0,0,0,0,0,0,0,0,0,0,0,0,0,0,0,0,0,0,0,0,0,0,0,0,0,0,0,0,0,0,0],"split_type":[0,0,0,0,0,0,0,0,0,0,0,0,0,0,0,0,0,0,0,0,0,0,0,0,0,0,0,0,0,0,0,0,0,0,0,0,0,0,0,0,0,0,0,0,0,0,0,0,0,0,0,0,0,0,0,0,0,0,0,0,0,0,0,0,0,0,0,0,0,0,0,0,0,0,0,0,0,0,0,0,0,0,0,0,0,0,0,0,0,0,0,0,0,0,0,0,0,0,0,0,0,0,0,0,0,0,0,0,0,0,0,0,0,0,0],"sum_hessian":[3.817E3,1.726E3,2.091E3,1.02575E3,7.0025E2,1.08875E3,1.00225E3,8.395E2,1.8625E2,3.01E2,3.9925E2,3.14E2,7.7475E2,2.6475E2,7.375E2,4.79E2,3.605E2,1.58E2,2.825E1,2.2525E2,7.575E1,2.05E2,1.9425E2,1.16E2,1.98E2,1.94E2,5.8075E2,1.5E0,2.6325E2,4.4E2,2.975E2,1.955E2,2.835E2,1.735E2,1.87E2,8.075E1,7.725E1,2.65E1,1.75E0,3.1E1,1.9425E2,6.95E1,6.25E0,1.6975E2,3.525E1,1.5275E2,4.15E1,1.075E1,1.0525E2,3.625E1,1.6175E2,8.225E1,1.1175E2,1.0325E2,4.775E2,1.25E0,2.62E2,4.085E2,3.15E1,6.6E1,2.315E2,1.91E2,4.5E0,2.8025E2,3.25E0,1.5025E2,2.325E1,1.2775E2,5.925E1,6.625E1,1.45E1,1.275E1,6.45E1,2.525E1,1.25E0,1.4E1,1.7E1,1.765E2,1.775E1,4.875E1,2.075E1,4.85E1,1.2125E2,1.5E0,3.375E1,3.925E1,1.135E2,1.55E1,2.6E1,2.75E0,8E0,9.475E1,1.05E1,1.35E1,2.275E1,1.8E1,1.4375E2,9E0,7.325E1,9.175E1,2E1,9.3E1,1.025E1,3.6575E2,1.1175E2,1.9275E2,6.925E1,2.945E2,1.14E2,1E0,3.05E1,1E1,5.6E1,2.295E2,2E0],"tree_param":{"num_deleted":"0","num_feature":"56","num_nodes":"115","size_leaf_vector":"0"}},{"base_weights":[-1.3419706E-3,-4.605345E-1,3.5683575E-1,-7.981338E-1,1.7402377E-2,-1.9126523E-1,4.9627548E-1,-1.0661131E0,-3.2300463E-1,-1.4155054E0,1.2269459E-1,-5.626908E-1,2.568375E-1,9.8865247E-1,3.7576047E-1,1.6556114E0,-1.0975952E0,-7.9057956E-1,1.5432264E-1,-1.5956832E0,6.557944E-1,1.1713992E-2,1.1002841E0,-1.0028628E0,-1.7984092E-1,3.2130772E-1,-1.742732E0,-1.4351889E0,1.0058583E0,2.1173982E-1,6.865837E-1,1.8576055E0,6.315378E-1,-9.626579E-1,-1.4505035E0,1.5026236E0,-8.8072604E-1,7.3289126E-1,-2.3830079E-1,8.8740015E-1,-1.6887424E0,-2.0667484E-3,1.1627215E0,-3.8474724E-1,2.878189E-1,-1.2409074E0,1.2032455E0,-1.439621E0,3.865096E-3,-3.94266E-1,1.4490151E0,3.9880136E-1,-1.3405601E0,1.026785E0,-7.367632E-1,7.38122E-2,7.945307E-1,9.925339E-2,7.935859E-1,-7.012361E-1,-1.2457584E0,1.5728946E0,-1.4859332E0,3.5444114E-1,1.9278983E0,1.8292835E-1,-1.0863521E0,9.310915E-1,-1.126987E0,-6.698129E-1,9.686009E-1,-1.790416E0,4.4250798E-1,-8.255516E-1,2.0223953E-2,1.0174191E0,1.5253209E-1,-7.7839226E-1,1.2890935E0,-1.5333353E0,1.1631649E0,1.1726656E0,-7.2982115E-1,-1.4300171E0,-1.6596624E-1,-3.6335252E-2,1.6780959E0,-4.7991744E-1,5.1285285E-1,-1.759166E0,6.507552E-1,6.7292047E-1,1.1546017E0,-1.4606333E0,6.356174E-1,1.6454838E-1,-4.6231338E-1,1.1188191E0,3.8381147E-1,-1.785891E0,2.8590688E-1,-1.8565726E-1,8.469995E-1],"categories":[],"categories_nodes":[],"categories_segments":[],"categories_sizes":[],"default_left":[1,1,1,1,1,1,1,1,1,1,1,1,1,1,1,1,1,1,1,1,1,1,1,1,1,1,0,0,1,1,1,0,0,1,1,1,1,1,1,0,1,0,0,1,1,0,1,1,1,1,1,1,1,1,1,1,1,1,1,0,0,0,0,0,0,0,0,0,0,0,0,0,0,0,0,0,0,0,0,0,0,0,0,0,0,0,0,0,0,0,0,0,0,0,0,0,0,0,0,0,0,0,0],"id":1,"left_children":[1,3,5,7,9,11,13,15,17,19,21,23,25,27,29,31,33,35,37,39,41,43,45,47,49,51,-1,-1,53,55,57,-1,-1,59,61,63,65,67,69,-1,71,-1,-1,73,75,-1,77,79,81,83,85,87,89,91,93,95,97,99,101,-1,-1,-1,-1,-1,-1,-1,-1,-1,-1,-1,-1,-1,-1,-1,-1,-1,-1,-1,-1,-1,-1,-1,-1,-1,-1,-1,-1,-1,-1,-1,-1,-1,-1,-1,-1,-1,-1,-1,-1,-1,-1,-1,-1],"loss_changes":[6.124317E2,2.6329254E2,1.5997256E2,1.2141266E2,1.0223125E2,7.087662E1,9.860095E1,5.416986E1,7.74079E1,1.8356804E1,6.8452896E1,3.903147E1,2.5478127E1,1.5095703E1,6.824951E1,3.5450935E-1,2.739508E1,3.751925E1,3.928967E1,1.1426132E1,1.4766252E0,6.225755E1,1.6999084E1,4.7501724E1,4.4461464E1,2.4759142E1,0E0,0E0,1.2631592E1,7.064676E1,2.9016068E1,0E0,0E0,3.1715576E1,2.0039398E1,2.7308836E0,3.7183533E1,2.6800705E1,5.446465E1,0E0,9.840263E0,0E0,0E0,4.1698814E1,3.2934437E1,0E0,1.157196E1,2.0160141E1,2.973859E1,2.6206503E1,5.107809E0,1.8334885E1,8.321682E0,1.3795624E1,5.3454895E0,3.473024E1,2.1977722E1,2.6017006E1,2.063301E1,0E0,0E0,0E0,0E0,0E0,0E0,0E0,0E0,0E0,0E0,0E0,0E0,0E0,0E0,0E0,0E0,0E0,0E0,0E0,0E0,0E0,0E0,0E0,0E0,0E0,0E0,0E0,0E0,0E0,0E0,0E0,0E0,0E0,0E0,0E0,0E0,0E0,0E0,0E0,0E0,0E0,0E0,0E0,0E0],"parents":[2147483647,0,0,1,1,2,2,3,3,4,4,5,5,6,6,7,7,8,8,9,9,10,10,11,11,12,12,13,13,14,14,15,15,16,16,17,17,18,18,19,19,20,20,21,21,22,22,23,23,24,24,25,25,28,28,29,29,30,30,33,33,34,34,35,35,36,36,37,37,38,38,40,40,43,43,44,44,46,46,47,47,48,48,49,49,50,50,51,51,52,52,53,53,54,54,55,55,56,56,57,57,58,58],"right_children":[2,4,6,8,10,12,14,16,18,20,22,24,26,28,30,32,34,36,38,40,42,44,46,48,50,52,-1,-1,54,56,58,-1,-1,60,62,64,66,68,70,-1,72,-1,-1,74,76,-1,78,80,82,84,86,88,90,92,94,96,98,100,102,-1,-1,-1,-1,-1,-1,-1,-1,-1,-1,-1,-1,-1,-1,-1,-1,-1,-1,-1,-1,-1,-1,-1,-1,-1,-1,-1,-1,-1,-1,-1,-1,-1,-1,-1,-1,-1,-1,-1,-1,-1,-1,-1,-1],"split_conditions":[1.3683334E2,2.63514E1,6.05E1,6.55E1,5.085E2,1.0775E2,1.2774999E0,2.3E1,8.958333E1,1.715E2,5E-1,1.875E1,1.095E2,5.45E1,2.761725E1,5.68E2,2.75E0,-1.4E1,3.25E1,4E0,3.51276E1,6.05E1,5.35E1,8.05E1,1.72E2,5.45E1,-5.2281964E-1,-4.3055668E-1,6.9E1,7.35E1,1.43E2,5.572817E-1,1.8946135E-1,4.23E2,2.25E1,7.15E1,5.849365E0,6.7939997E0,4.515E2,2.6622006E-1,3.15E1,-6.2002457E-4,3.4881645E-1,5.5474997E0,8.4E1,-3.7227225E-1,4.2E1,1.251E3,4.55E1,2.3866798E1,5.15E1,2.28779E1,2.19E2,1.3175E2,1.94E2,6.05E1,6.37E2,5.95E1,1.05E2,-2.1037085E-1,-3.7372753E-1,4.718684E-1,-4.4577998E-1,1.0633235E-1,5.783695E-1,5.4878507E-2,-3.2590565E-1,2.7932745E-1,-3.380961E-1,-2.0094389E-1,2.905803E-1,-5.371248E-1,1.327524E-1,-2.476655E-1,6.067186E-3,3.0522573E-1,4.5759626E-2,-2.3351769E-1,3.8672808E-1,-4.600006E-1,3.4894946E-1,3.517997E-1,-2.1894635E-1,-4.2900515E-1,-4.9789876E-2,-1.0900576E-2,5.034288E-1,-1.4397524E-1,1.5385586E-1,-5.2774984E-1,1.9522658E-1,2.0187615E-1,3.4638053E-1,-4.3819E-1,1.9068523E-1,4.936452E-2,-1.3869402E-1,3.3564574E-1,1.1514345E-1,-5.357673E-1,8.577207E-2,-5.569718E-2,2.5409988E-1],"split_indices":[47,4,5,5,25,51,2,42,51,41,0,45,53,53,4,25,38,15,17,10,4,5,48,33,41,30,0,0,16,5,9,0,0,12,47,5,34,3,13,0,31,0,0,3,49,0,36,20,30,4,40,4,9,54,9,16,26,48,54,0,0,0,0,0,0,0,0,0,0,0,0,0,0,0,0,0,0,0,0,0,0,0,0,0,0,0,0,0,0,0,0,0,0,0,0,0,0,0,0,0,0,0,0],"split_type":[0,0,0,0,0,0,0,0,0,0,0,0,0,0,0,0,0,0,0,0,0,0,0,0,0,0,0,0,0,0,0,0,0,0,0,0,0,0,0,0,0,0,0,0,0,0,0,0,0,0,0,0,0,0,0,0,0,0,0,0,0,0,0,0,0,0,0,0,0,0,0,0,0,0,0,0,0,0,0,0,0,0,0,0,0,0,0,0,0,0,0,0,0,0,0,0,0,0,0,0,0,0,0],"sum_hessian":[3.7216116E3,1.6307126E3,2.090899E3,9.552703E2,6.7544226E2,4.2397867E2,1.6669203E3,6.09986E2,3.452843E2,4.5383305E1,6.3005896E2,2.3168376E2,1.922949E2,3.263557E2,1.3405646E3,6.385102E0,6.036009E2,1.7409247E2,1.7119182E2,4.1962685E1,3.42062E0,5.667328E2,6.3326206E1,1.0702034E2,1.2466342E2,1.8710167E2,5.1932316E0,1.7194403E0,3.2463626E2,8.7860706E2,4.6195755E2,4.653318E0,1.731784E0,4.393425E2,1.6425842E2,5.9921327E0,1.6810034E2,6.885729E1,1.0233453E2,1.2074926E0,4.075519E1,1.9221224E0,1.4984976E0,2.3249619E2,3.3423657E2,2.2020748E0,6.112413E1,7.433912E1,3.2681225E1,1.1083136E2,1.383206E1,1.7949191E2,7.609761E0,3.2118994E2,3.4463196E0,7.113745E2,1.6723253E2,7.148841E1,3.9046915E2,2.3022461E2,2.0911789E2,1.3999356E0,1.6285849E2,2.1150992E0,3.8770335E0,2.7250484E1,1.4084985E2,6.267738E1,6.179912E0,7.5710304E1,2.6624226E1,3.9052094E1,1.7030982E0,1.1082571E2,1.2167048E2,5.1261818E1,2.8297476E2,2.2030826E0,5.8921047E1,7.215214E1,2.1869829E0,1.2372641E1,2.0308584E1,1.9066525E1,9.176483E1,1.960653E0,1.1871407E1,2.0251871E1,1.5924004E2,6.384268E0,1.225493E0,8.689184E1,2.3429811E2,2.214148E0,1.2321715E0,6.089981E2,1.0237637E2,9.248546E1,7.474707E1,5.6686625E0,6.581975E1,2.0068748E1,3.704004E2],"tree_param":{"num_deleted":"0","num_feature":"56","num_nodes":"103","size_leaf_vector":"0"}},{"base_weights":[-2.8032886E-3,-3.9440033E-1,2.3299542E-1,-5.505173E-1,3.0694982E-1,-1.9361107E-1,3.629697E-1,-8.87013E-1,-1.8765621E-1,5.1079834E-1,-4.2744792E-1,-3.333357E-1,6.79354E-1,3.0973804E-1,1.0867594E0,1.314342E-1,-9.6299267E-1,1.023651E0,-2.7197853E-1,-3.526437E-1,6.2936985E-1,-9.9991953E-1,2.663014E-1,-7.1645445E-1,2.2034822E-2,9.144205E-1,-7.9413104E-1,1.9351307E-1,6.099358E-1,-1.0076437E0,1.1195639E0,8.051743E-1,-9.797318E-1,-2.6068497E-1,-1.0363537E0,-1.1530128E0,1.2003418E0,-5.3360134E-1,1.5123716E-1,4.906205E-1,-1.7142265E0,-3.4251325E-2,7.827495E-1,-1.5666869E0,8.42283E-2,-6.4929694E-1,7.391034E-1,-8.420975E-1,9.03258E-1,-5.197246E-1,2.2614162E-1,1.1183687E0,-2.4694337E-1,-1.4480438E0,8.049132E-1,-1.3184905E-2,3.9076892E-1,1.9817244E-1,6.9938093E-1,-4.9346912E-1,1.1540154E0,-7.059691E-1,1.3509285E0,-1.3988767E0,1.1007632E0,1.6606828E0,-6.7800593E-1,8.012807E-1,-1.0635275E0,-1.9977804E-1,1.363642E0,-6.806604E-1,9.394341E-1,-1.3922589E0,2.681756E-1,-1.43632E0,1.1321175E0,-4.7892186E-1,-1.8315556E0,1.1863298E0,-5.4038817E-1,8.239417E-1,-1.3864363E0,9.6471405E-1,-1.8187636E0,-1.3823123E0,1.1723026E0,8.7482625E-1,-1.5037869E0,1.0507392E0,-1.294669E0,-9.2638314E-1,5.4388666E-1,-1.1971337E0,1.2603886E0,-9.559668E-1,3.0408016E-1,-9.853921E-2,6.9032574E-1,1.6650374E0,6.4712405E-1,-1.4918745E0,9.7238976E-1,-2.1514948E-1,-1.6159813E0,-6.145258E-1,1.1409431E-1,2.3570581E-1,7.0499146E-1,-3.1948894E-1,9.3609667E-1,3.7825984E-1,8.2142377E-1,1.1839608E0,-2.7768543E-1],"categories":[],"categories_nodes":[],"categories_segments":[],"categories_sizes":[],"default_left":[1,1,1,1,1,1,1,1,1,1,1,1,1,1,1,1,1,1,1,1,1,1,1,1,1,1,1,1,1,0,1,1,1,1,1,0,1,1,1,1,1,1,1,1,1,1,1,1,1,1,1,1,1,1,0,1,1,1,1,0,1,0,0,0,0,0,0,0,0,0,0,0,0,0,0,0,0,0,0,0,0,0,0,0,0,0,0,0,0,0,0,0,0,0,0,0,0,0,0,0,0,0,0,0,0,0,0,0,0,0,0,0,0,0,0],"id":2,"left_children":[1,3,5,7,9,11,13,15,17,19,21,23,25,27,29,31,33,35,37,39,41,43,45,47,49,51,53,55,57,-1,59,61,63,65,67,-1,69,71,73,75,77,79,81,83,85,87,89,91,93,95,97,99,101,103,-1,105,107,109,111,-1,113,-1,-1,-1,-1,-1,-1,-1,-1,-1,-1,-1,-1,-1,-1,-1,-1,-1,-1,-1,-1,-1,-1,-1,-1,-1,-1,-1,-1,-1,-1,-1,-1,-1,-1,-1,-1,-1,-1,-1,-1,-1,-1,-1,-1,-1,-1,-1,-1,-1,-1,-1,-1,-1,-1],"loss_changes":[3.3072818E2,1.475612E2,1.2402827E2,1.3431668E2,3.7005573E1,6.3983902E1,6.569615E1,4.4326477E1,5.4536392E1,1.9960419E1,2.1685894E1,6.1454536E1,2.582027E1,5.563182E1,9.167633E0,3.113467E1,2.71221E1,1.4761131E1,5.5157406E1,2.8305159E1,1.731791E1,1.841808E1,1.1377376E1,4.495849E1,2.6111753E1,1.5185566E1,1.2147826E1,4.703005E1,1.6269318E1,0E0,6.9981384E0,2.2217442E1,1.5275648E1,4.251583E1,2.487323E1,0E0,7.7399635E0,6.727731E1,3.4812954E1,2.0846554E1,4.8101997E-1,2.0935154E1,1.3475571E1,1.4257694E1,1.9437532E1,1.3173193E1,1.2178356E1,2.4108856E1,1.3598299E1,2.351824E1,2.5906921E1,1.2762741E1,1.6967512E1,1.2697468E0,0E0,4.325019E1,2.8590324E1,3.1202099E1,1.4017441E1,0E0,5.1975403E0,0E0,0E0,0E0,0E0,0E0,0E0,0E0,0E0,0E0,0E0,0E0,0E0,0E0,0E0,0E0,0E0,0E0,0E0,0E0,0E0,0E0,0E0,0E0,0E0,0E0,0E0,0E0,0E0,0E0,0E0,0E0,0E0,0E0,0E0,0E0,0E0,0E0,0E0,0E0,0E0,0E0,0E0,0E0,0E0,0E0,0E0,0E0,0E0,0E0,0E0,0E0,0E0,0E0,0E0],"parents":[2147483647,0,0,1,1,2,2,3,3,4,4,5,5,6,6,7,7,8,8,9,9,10,10,11,11,12,12,13,13,14,14,15,15,16,16,17,17,18,18,19,19,20,20,21,21,22,22,23,23,24,24,25,25,26,26,27,27,28,28,30,30,31,31,32,32,33,33,34,34,36,36,37,37,38,38,39,39,40,40,41,41,42,42,43,43,44,44,45,45,46,46,47,47,48,48,49,49,50,50,51,51,52,52,53,53,55,55,56,56,57,57,58,58,60,60],"right_children":[2,4,6,8,10,12,14,16,18,20,22,24,26,28,30,32,34,36,38,40,42,44,46,48,50,52,54,56,58,-1,60,62,64,66,68,-1,70,72,74,76,78,80,82,84,86,88,90,92,94,96,98,100,102,104,-1,106,108,110,112,-1,114,-1,-1,-1,-1,-1,-1,-1,-1,-1,-1,-1,-1,-1,-1,-1,-1,-1,-1,-1,-1,-1,-1,-1,-1,-1,-1,-1,-1,-1,-1,-1,-1,-1,-1,-1,-1,-1,-1,-1,-1,-1,-1,-1,-1,-1,-1,-1,-1,-1,-1,-1,-1,-1,-1],"split_conditions":[1.1283333E2,3.0002201E1,6.05E1,6.35E1,1.015E3,7.705E2,5E-1,9.35E1,4.269E0,7.5E1,2.575E1,7.45E1,6.45E1,2.87524E1,8.975E1,1.835E2,9.5E0,2.95E0,7.155E2,8.55E2,6.125E-1,1.133E3,5.7465E0,5E-1,6.85E1,2.06E2,9.5E1,6.85E1,1.45E2,-3.0229312E-1,6.75E0,6.35E1,1.95E2,5.418345E0,3.09E2,-3.4590384E-1,4.125E2,2.11E2,-8.5E0,6.2E2,5E0,4.05E1,7.75E2,3.05E1,1.26E2,4.15E1,3.65E1,1.725E2,6.735E2,2.815475E1,5.75E1,1.44E2,1.5925E2,6.1E1,2.4147397E-1,5.75E1,7.75E1,3.85E1,1.255E2,-1.4804074E-1,5.95E0,-2.1179074E-1,4.052786E-1,-4.19663E-1,3.3022898E-1,4.9820486E-1,-2.0340179E-1,2.403842E-1,-3.1905824E-1,-5.9933413E-2,4.090926E-1,-2.0419814E-1,2.8183025E-1,-4.1767767E-1,8.045268E-2,-4.30896E-1,3.3963525E-1,-1.4367656E-1,-5.494667E-1,3.5589898E-1,-1.6211645E-1,2.4718252E-1,-4.1593093E-1,2.8941423E-1,-5.456291E-1,-4.146937E-1,3.516908E-1,2.624479E-1,-4.5113608E-1,3.1522176E-1,-3.8840073E-1,-2.7791494E-1,1.63166E-1,-3.591401E-1,3.781166E-1,-2.8679004E-1,9.122405E-2,-2.9561764E-2,2.0709772E-1,4.9951124E-1,1.9413723E-1,-4.4756237E-1,2.9171693E-1,-6.454485E-2,-4.847944E-1,-1.8435775E-1,3.4228295E-2,7.071175E-2,2.1149744E-1,-9.584669E-2,2.80829E-1,1.1347795E-1,2.4642713E-1,3.5518825E-1,-8.3305635E-2],"split_indices":[49,4,5,5,14,22,0,47,3,11,44,48,15,4,51,35,17,39,25,14,50,14,3,0,33,35,11,5,9,0,45,49,9,34,27,0,13,9,16,25,45,36,28,36,47,48,44,41,18,4,5,55,54,46,0,36,48,16,54,0,39,0,0,0,0,0,0,0,0,0,0,0,0,0,0,0,0,0,0,0,0,0,0,0,0,0,0,0,0,0,0,0,0,0,0,0,0,0,0,0,0,0,0,0,0,0,0,0,0,0,0,0,0,0,0],"split_type":[0,0,0,0,0,0,0,0,0,0,0,0,0,0,0,0,0,0,0,0,0,0,0,0,0,0,0,0,0,0,0,0,0,0,0,0,0,0,0,0,0,0,0,0,0,0,0,0,0,0,0,0,0,0,0,0,0,0,0,0,0,0,0,0,0,0,0,0,0,0,0,0,0,0,0,0,0,0,0,0,0,0,0,0,0,0,0,0,0,0,0,0,0,0,0,0,0,0,0,0,0,0,0,0,0,0,0,0,0,0,0,0,0,0,0],"sum_hessian":[3.5797144E3,1.3451373E3,2.2345771E3,1.1004072E3,2.4473003E2,5.217103E2,1.7128668E3,5.701966E2,5.3021063E2,1.9179695E2,5.2933067E1,4.5026083E2,7.144948E1,1.596853E3,1.1601378E2,3.9534748E1,5.3066187E2,3.3782234E1,4.9642844E2,2.291983E1,1.6887712E2,2.875968E1,2.417339E1,2.1618236E2,2.3407848E2,6.194651E1,9.50297E0,1.1523517E3,4.445014E2,1.3308218E0,1.1468296E2,2.4783186E1,1.4751563E1,5.0619457E1,4.800424E2,2.1215198E0,3.1660713E1,3.0662106E2,1.8980736E2,1.454895E1,8.37088E0,3.1849949E1,1.3702718E2,1.8594053E1,1.0165626E1,8.104817E0,1.6068571E1,2.0106555E2,1.5116808E1,6.3632576E1,1.704459E2,5.2724525E1,9.221986E0,6.8117895E0,2.69118E0,5.6316376E2,5.8918787E2,7.989906E1,3.6460236E2,2.11958E0,1.1256338E2,6.4978023E0,1.8285383E1,1.2550676E1,2.2008865E0,8.501002E0,4.2118458E1,6.580004E0,4.734624E2,3.2836483E0,2.8377066E1,2.792776E2,2.7343496E1,1.2599386E1,1.7720796E2,3.3243113E0,1.1224639E1,1.166908E0,7.203972E0,8.941957E0,2.2907991E1,1.3508217E2,1.9450113E0,1.4278868E0,1.7166166E1,4.214615E0,5.9510107E0,2.9030147E0,5.2018027E0,1.4352661E1,1.7159097E0,1.8985173E2,1.1213816E1,1.8549868E0,1.3261821E1,4.149739E1,2.2135187E1,1.0075733E2,6.9688576E1,2.3236124E1,2.9488401E1,4.452498E0,4.769488E0,1.0900967E0,5.7216926E0,9.77077E1,4.654561E2,3.956781E2,1.935098E2,4.7290993E1,3.260807E1,1.015367E2,2.6306564E2,1.1042674E2,2.1366405E0],"tree_param":{"num_deleted":"0","num_feature":"56","num_nodes":"115","size_leaf_vector":"0"}},{"base_weights":[-3.7214884E-3,-2.909666E-1,1.9699508E-1,-5.9547496E-1,-5.287961E-2,5.283435E-2,4.031499E-1,-7.520857E-1,-1.0413442E-1,-1.1267036E0,1.9968774E-2,-1.2653606E-1,3.04036E-1,8.5066515E-1,3.0096972E-1,-3.4785566E-1,-9.500606E-1,2.862547E-1,-6.1345667E-1,-1.2538972E0,5.650252E-1,-5.795174E-2,8.554452E-1,-6.562431E-1,-1.3555408E-2,-1.3298812E0,3.3474874E-1,-3.60902E-1,9.1327506E-1,7.639756E-1,2.1860833E-1,-8.95903E-1,1.1591151E-1,1.1409156E0,-9.8909867E-1,-6.4180374E-1,7.526594E-1,-7.8632075E-1,1.4804431E0,6.5596545E-1,-1.3192582E0,1.1688571E-1,8.7106645E-1,-3.188192E-1,1.8643804E-1,-4.0619385E-1,1.0352591E0,7.88267E-2,-1.0593702E0,5.034098E-1,-1.3560657E-1,2.9046378E-1,-1.597939E0,-2.9295027E-1,4.1040176E-1,-1.7381018E0,5.647568E-1,7.30068E-1,1.1998035E0,-1.8850646E0,8.5514355E-1,3.7049097E-1,-4.9528807E-2,1.2403873E0,-1.0725127E0,-3.9579538E-1,8.274228E-1,4.309691E-1,-1.0458924E0,2.1026851E-1,-1.4289129E0,1.2451583E0,2.2045182E-2,-1.1882274E0,1.2374849E-1,-1.4054232E0,2.7078426E-1,-5.1021737E-1,1.3936055E-1,-1.3434868E-1,4.5588997E-1,-1.3100679E0,9.400028E-1,1.1118231E0,-1.382714E0,4.1003415E-1,-1.1655133E0,-1.4971302E0,-4.3798944E-1,6.605841E-1,-1.3088828E0,-8.38692E-1,-6.249969E-3,-1.7470026E0,-3.0277354E-1,-1.7964003E0,1.3072796E-1,7.077853E-1,2.3097135E-1,-3.920463E-1,1.0299689E0,3.249082E-2,8.7726814E-1,-4.805252E-3,1.3538431E0,5.0135434E-1,1.1136122E0,2.5529847E-1,9.2868173E-1,-1.9324298E-1,7.914793E-1],"categories":[],"categories_nodes":[],"categories_segments":[],"categories_sizes":[],"default_left":[1,1,1,1,1,1,1,1,1,1,1,1,1,1,1,1,1,1,1,1,1,1,1,1,1,1,1,1,1,1,1,1,1,0,1,1,1,1,0,0,1,0,0,1,1,1,1,1,1,1,1,0,1,1,1,0,1,1,1,0,1,1,1,0,0,0,0,0,0,0,0,0,0,0,0,0,0,0,0,0,0,0,0,0,0,0,0,0,0,0,0,0,0,0,0,0,0,0,0,0,0,0,0,0,0,0,0,0,0,0,0],"id":3,"left_children":[1,3,5,7,9,11,13,15,17,19,21,23,25,27,29,31,33,35,37,39,41,43,45,47,49,51,53,55,57,59,61,63,65,-1,67,69,71,73,-1,-1,75,-1,-1,77,79,81,83,85,87,89,91,-1,93,95,97,-1,99,101,103,-1,105,107,109,-1,-1,-1,-1,-1,-1,-1,-1,-1,-1,-1,-1,-1,-1,-1,-1,-1,-1,-1,-1,-1,-1,-1,-1,-1,-1,-1,-1,-1,-1,-1,-1,-1,-1,-1,-1,-1,-1,-1,-1,-1,-1,-1,-1,-1,-1,-1,-1],"loss_changes":[1.977255E2,1.0224069E2,5.9976677E1,4.754483E1,6.2038036E1,5.3621094E1,3.772612E1,3.7213837E1,3.0149303E1,1.15496025E1,4.8444702E1,4.15543E1,2.532011E1,1.2000305E1,2.5678997E1,3.9705135E1,2.6786896E1,3.7716553E1,2.4955088E1,6.753624E0,4.759251E-1,4.3469555E1,1.4821777E1,3.625519E1,3.62494E1,4.523861E0,2.3263023E1,1.153291E1,6.8184586E0,2.6235184E1,2.3509373E1,2.8317741E1,3.137625E1,0E0,2.5380646E1,1.995825E1,2.073769E1,2.2593498E1,0E0,0E0,6.6747665E0,0E0,0E0,2.8985798E1,3.050316E1,1.1741035E1,1.1875652E1,1.8679615E1,2.0806984E1,3.2122505E1,4.2257904E1,0E0,1.0491028E0,3.3996536E1,2.3066315E1,0E0,2.942989E0,9.414551E0,1.032605E1,0E0,8.517632E0,2.3447712E1,2.5469679E1,0E0,0E0,0E0,0E0,0E0,0E0,0E0,0E0,0E0,0E0,0E0,0E0,0E0,0E0,0E0,0E0,0E0,0E0,0E0,0E0,0E0,0E0,0E0,0E0,0E0,0E0,0E0,0E0,0E0,0E0,0E0,0E0,0E0,0E0,0E0,0E0,0E0,0E0,0E0,0E0,0E0,0E0,0E0,0E0,0E0,0E0,0E0,0E0],"parents":[2147483647,0,0,1,1,2,2,3,3,4,4,5,5,6,6,7,7,8,8,9,9,10,10,11,11,12,12,13,13,14,14,15,15,16,16,17,17,18,18,19,19,20,20,21,21,22,22,23,23,24,24,25,25,26,26,27,27,28,28,29,29,30,30,31,31,32,32,34,34,35,35,36,36,37,37,40,40,43,43,44,44,45,45,46,46,47,47,48,48,49,49,50,50,52,52,53,53,54,54,56,56,57,57,58,58,60,60,61,61,62,62],"right_children":[2,4,6,8,10,12,14,16,18,20,22,24,26,28,30,32,34,36,38,40,42,44,46,48,50,52,54,56,58,60,62,64,66,-1,68,70,72,74,-1,-1,76,-1,-1,78,80,82,84,86,88,90,92,-1,94,96,98,-1,100,102,104,-1,106,108,110,-1,-1,-1,-1,-1,-1,-1,-1,-1,-1,-1,-1,-1,-1,-1,-1,-1,-1,-1,-1,-1,-1,-1,-1,-1,-1,-1,-1,-1,-1,-1,-1,-1,-1,-1,-1,-1,-1,-1,-1,-1,-1,-1,-1,-1,-1,-1,-1],"split_conditions":[1.395E2,2.487875E1,6.85E1,7.195E2,5.085E2,2.78987E1,4.9595E0,3.75E1,1.0825E2,1.715E2,5E-1,4.085E2,8.975E1,6.18E2,1.2615E0,1.275E1,2.25E1,1.0316667E2,3.55E0,4E0,3.51276E1,6.25E1,8.5E1,1.4275E0,9.85E1,6.42E2,4.61E2,6.735E2,1.5875001E0,6.075E-1,7.465E2,5.05E1,1.63E2,3.422747E-1,4.645E2,1.66E2,6.95E2,8.425E2,4.4413295E-1,1.9678964E-1,7.75E1,3.5065714E-2,2.6131994E-1,6.2105E0,9.279275E0,9.815E2,1.05E2,4.45E0,1.5375E2,6.75E1,7.7E1,8.713914E-2,1.34076E1,1.47E2,5.373E0,-5.2143055E-1,4.385E2,3.45E0,1.465E2,-5.655194E-1,6.55E1,7.55E1,2.955E2,3.721162E-1,-3.2175383E-1,-1.18738614E-1,2.4822685E-1,1.2929073E-1,-3.1376773E-1,6.308056E-2,-4.286739E-1,3.735475E-1,6.613555E-3,-3.5646823E-1,3.7124548E-2,-4.2162696E-1,8.123528E-2,-1.5306522E-1,4.1808166E-2,-4.0304605E-2,1.36767E-1,-3.930204E-1,2.8200084E-1,3.3354694E-1,-4.1481423E-1,1.2301025E-1,-3.49654E-1,-4.4913906E-1,-1.3139684E-1,1.9817524E-1,-3.9266488E-1,-2.5160763E-1,-1.8749908E-3,-5.241008E-1,-9.083206E-2,-5.389201E-1,3.921839E-2,2.123356E-1,6.9291405E-2,-1.176139E-1,3.0899066E-1,9.747246E-3,2.6318046E-1,-1.4415756E-3,4.0615293E-1,1.504063E-1,3.3408368E-1,7.658954E-2,2.7860454E-1,-5.7972897E-2,2.3744379E-1],"split_indices":[55,4,5,23,25,4,3,17,54,41,0,13,51,19,2,52,42,49,38,10,4,5,51,2,41,20,27,21,2,50,23,33,9,0,22,35,25,24,0,0,16,0,0,3,34,21,11,39,54,5,11,0,34,9,3,0,13,39,55,0,43,5,35,0,0,0,0,0,0,0,0,0,0,0,0,0,0,0,0,0,0,0,0,0,0,0,0,0,0,0,0,0,0,0,0,0,0,0,0,0,0,0,0,0,0,0,0,0,0,0,0],"split_type":[0,0,0,0,0,0,0,0,0,0,0,0,0,0,0,0,0,0,0,0,0,0,0,0,0,0,0,0,0,0,0,0,0,0,0,0,0,0,0,0,0,0,0,0,0,0,0,0,0,0,0,0,0,0,0,0,0,0,0,0,0,0,0,0,0,0,0,0,0,0,0,0,0,0,0,0,0,0,0,0,0,0,0,0,0,0,0,0,0,0,0,0,0,0,0,0,0,0,0,0,0,0,0,0,0,0,0,0,0,0,0],"sum_hessian":[3.4274744E3,1.4096611E3,2.0178132E3,6.178907E2,7.9177045E2,1.1881885E3,8.296247E2,4.6814322E2,1.4974745E2,4.9382317E1,7.423881E2,6.9349506E2,4.9469348E2,1.5285323E2,6.767714E2,1.5480852E2,3.1333472E2,8.501924E1,6.472821E1,4.6169823E1,3.2124949E0,6.7990735E2,6.248077E1,1.2106698E2,5.7242804E2,8.346735E0,4.8634674E2,7.276721E0,1.455765E2,1.00956215E2,5.7581525E2,7.05297E1,8.427882E1,5.2253647E0,3.0810934E2,2.8310516E1,5.670872E1,6.0368866E1,4.359344E0,1.2287741E0,4.4941048E1,1.8643843E0,1.3481106E0,3.2871967E2,3.511877E2,7.6371093E0,5.4843662E1,4.3164482E1,7.79025E1,1.0873611E2,4.6369196E2,1.1729493E0,7.1737857E0,5.2002834E1,4.343439E2,2.5721588E0,4.704562E0,9.0962715E1,5.4613796E1,2.7042003E0,9.8252014E1,3.6735196E2,2.0846326E2,4.9256144E0,6.560409E1,4.92807E1,3.499812E1,1.1595187E1,2.9651416E2,1.3946173E1,1.4364344E1,3.3453693E1,2.325503E1,4.166364E1,1.8705229E1,4.274101E1,2.2000408E0,2.3178227E2,9.6937386E1,1.6055086E2,1.9063687E2,4.5852695E0,3.0518403E0,5.3683968E1,1.1596942E0,3.462009E1,8.54439E0,4.4877285E1,3.302521E1,1.0064315E2,8.092959E0,7.1202896E1,3.9248904E2,6.120499E0,1.0532869E0,1.0720483E1,4.128235E1,1.6234036E2,2.7200354E2,1.5905491E0,3.1140132E0,1.6062708E1,7.49E1,6.3017936E0,4.8312004E1,4.2718746E1,5.5533268E1,3.0571887E2,6.163311E1,1.7869714E2,2.9766117E1],"tree_param":{"num_deleted":"0","num_feature":"56","num_nodes":"111","size_leaf_vector":"0"}},{"base_weights":[-4.6058274E-3,7.16671E-2,-4.9231485E-1,-3.3233047E-2,3.4811938E-1,-5.92448E-1,5.850889E-1,-7.9900384E-2,7.2334695E-1,2.794423E-1,7.76828E-1,-7.929678E-1,-8.631347E-2,-1.4118708E0,9.1509426E-1,-2.0851979E-1,1.902216E-1,4.9351358E-1,1.2754241E0,-2.2155756E-1,3.6199164E-1,8.197657E-1,-1.4535228E0,-9.641672E-1,-6.9011904E-2,6.617203E-1,-6.872506E-1,-1.2883795E0,1.1782385E0,-3.0706254E-1,6.106218E-2,3.6969492E-1,-1.5397006E-1,-1.6960815E0,5.783385E-1,1.6492819E0,7.9887116E-1,-5.9280837E-1,5.09139E-1,2.6474997E-1,6.293475E-1,8.579897E-1,-1.4334135E0,6.3158655E-1,-1.0470672E0,9.4940054E-1,-4.4017452E-1,-7.1203095E-1,9.809377E-1,-1.0108366E0,1.1149689E0,1.3808551E0,-1.1383853E0,-2.696132E-1,-1.198024E0,3.206793E-1,-2.4702725E-1,4.374526E-1,-7.413543E-1,-2.1094361E-2,-1.0211825E0,-2.8988174E-1,7.238856E-1,1.0400302E0,-1.1729741E0,-1.1647723E0,9.170632E-2,6.400622E-1,-1.3907849E0,-1.8188691E0,2.8616068E-1,-7.2437507E-1,7.5317085E-1,9.5952934E-1,-8.4234074E-2,-9.6998835E-1,1.1648217E0,-1.1053332E0,1.0241321E0,1.4452665E0,2.0443268E-1,-1.0540074E0,3.9906403E-1,-1.7354499E0,1.1242838E0,-8.711635E-1,1.216853E0,-4.8360518E-1,-1.5132563E0,-9.785593E-1,1.6921072E0,1.8975389E-1,1.5708941E0],"categories":[],"categories_nodes":[],"categories_segments":[],"categories_sizes":[],"default_left":[1,1,1,1,1,1,1,1,1,1,1,1,1,0,1,1,1,1,1,1,1,1,0,1,1,1,1,0,1,1,1,1,1,0,1,0,1,1,1,1,1,1,0,1,1,1,1,1,1,1,1,1,0,0,0,0,0,0,0,0,0,0,0,0,0,0,0,0,0,0,0,0,0,0,0,0,0,0,0,0,0,0,0,0,0,0,0,0,0,0,0,0,0],"id":4,"left_children":[1,3,5,7,9,11,13,15,17,19,21,23,25,-1,27,29,31,33,35,37,39,41,-1,43,45,47,49,-1,51,53,55,57,59,-1,61,-1,63,65,67,69,71,73,-1,75,77,79,81,83,85,87,89,91,-1,-1,-1,-1,-1,-1,-1,-1,-1,-1,-1,-1,-1,-1,-1,-1,-1,-1,-1,-1,-1,-1,-1,-1,-1,-1,-1,-1,-1,-1,-1,-1,-1,-1,-1,-1,-1,-1,-1,-1,-1],"loss_changes":[1.2234493E2,8.249271E1,4.8332695E1,7.2888115E1,2.2820168E1,4.12854E1,2.6549545E1,6.757289E1,1.458939E1,2.8036602E1,1.148407E1,3.6089783E1,5.2934036E1,0E0,2.0941212E1,3.501267E1,3.8820923E1,1.7012774E1,4.851181E0,2.6410133E1,1.4931259E1,1.0366516E1,0E0,3.1861847E1,2.1914314E1,2.3728378E1,3.916629E1,0E0,1.5863205E1,3.1869171E1,2.8350332E1,3.1396847E1,2.484235E1,0E0,1.0804897E1,0E0,9.380407E0,2.5274012E1,9.089548E0,1.9595125E1,2.6386261E1,1.012085E1,0E0,1.1609772E1,2.823465E1,5.4328356E0,2.2243736E1,2.1649605E1,1.9863754E1,1.4055405E1,1.42269945E1,6.141693E0,0E0,0E0,0E0,0E0,0E0,0E0,0E0,0E0,0E0,0E0,0E0,0E0,0E0,0E0,0E0,0E0,0E0,0E0,0E0,0E0,0E0,0E0,0E0,0E0,0E0,0E0,0E0,0E0,0E0,0E0,0E0,0E0,0E0,0E0,0E0,0E0,0E0,0E0,0E0,0E0,0E0],"parents":[2147483647,0,0,1,1,2,2,3,3,4,4,5,5,6,6,7,7,8,8,9,9,10,10,11,11,12,12,14,14,15,15,16,16,17,17,18,18,19,19,20,20,21,21,23,23,24,24,25,25,26,26,28,28,29,29,30,30,31,31,32,32,34,34,36,36,37,37,38,38,39,39,40,40,41,41,43,43,44,44,45,45,46,46,47,47,48,48,49,49,50,50,51,51],"right_children":[2,4,6,8,10,12,14,16,18,20,22,24,26,-1,28,30,32,34,36,38,40,42,-1,44,46,48,50,-1,52,54,56,58,60,-1,62,-1,64,66,68,70,72,74,-1,76,78,80,82,84,86,88,90,92,-1,-1,-1,-1,-1,-1,-1,-1,-1,-1,-1,-1,-1,-1,-1,-1,-1,-1,-1,-1,-1,-1,-1,-1,-1,-1,-1,-1,-1,-1,-1,-1,-1,-1,-1,-1,-1,-1,-1,-1,-1],"split_conditions":[6.05E1,1.565E2,1.38913E1,5E-1,4.575E2,1.0325E2,1.43E2,6.85E1,9.1E1,5.845E2,1.5975E2,9.22E2,1.055E2,-4.2356128E-1,6.045E2,2.8416668E1,1.737E0,-1.15E1,4.28E2,7.99E2,6.8275E0,1.11E3,-4.3605685E-1,3.825E2,1.3425E0,5.85E1,2.805E2,-3.865139E-1,4.47E2,1.975E1,2.55E1,7.3894997E0,1.097E3,-5.0882447E-1,8.875E1,4.9478456E-1,6.3395E0,2.86681E1,5.195E2,3.825E2,-8.5E0,7.1095E0,-4.3002406E-1,1.0525E2,4.425E1,2.2E1,4.33E2,6.99E2,6.55E1,9.25E2,6.05E1,2.338965E1,-3.415156E-1,-8.0883965E-2,-3.5940722E-1,9.62038E-2,-7.4108176E-2,1.312358E-1,-2.224063E-1,-6.3283085E-3,-3.0635476E-1,-8.6964525E-2,2.171657E-1,3.120091E-1,-3.5189223E-1,-3.494317E-1,2.7511897E-2,1.9201867E-1,-4.1723546E-1,-5.4566073E-1,8.5848205E-2,-2.1731253E-1,2.2595127E-1,2.878588E-1,-2.5270224E-2,-2.9099652E-1,3.4944654E-1,-3.3159998E-1,3.0723965E-1,4.3357995E-1,6.1329808E-2,-3.1620222E-1,1.19719215E-1,-5.20635E-1,3.3728516E-1,-2.6134905E-1,3.6505592E-1,-1.4508156E-1,-4.539769E-1,-2.935678E-1,5.076322E-1,5.692617E-2,4.7126827E-1],"split_indices":[16,55,34,0,13,51,9,5,11,24,49,21,41,0,22,44,2,16,13,18,3,24,0,27,2,15,35,0,12,45,31,3,14,0,51,0,3,4,28,27,16,3,0,49,44,32,12,23,16,14,40,4,0,0,0,0,0,0,0,0,0,0,0,0,0,0,0,0,0,0,0,0,0,0,0,0,0,0,0,0,0,0,0,0,0,0,0,0,0,0,0,0,0],"split_type":[0,0,0,0,0,0,0,0,0,0,0,0,0,0,0,0,0,0,0,0,0,0,0,0,0,0,0,0,0,0,0,0,0,0,0,0,0,0,0,0,0,0,0,0,0,0,0,0,0,0,0,0,0,0,0,0,0,0,0,0,0,0,0,0,0,0,0,0,0,0,0,0,0,0,0,0,0,0,0,0,0,0,0,0,0,0,0,0,0,0,0,0,0],"sum_hessian":[3.2869827E3,2.8431887E3,4.437939E2,2.061739E3,7.814496E2,4.0646725E2,3.7326664E1,1.9427979E3,1.189412E2,6.749738E2,1.0647575E2,2.9072244E2,1.157448E2,4.8286633E0,3.2498E1,1.3162767E3,6.265211E2,8.531707E1,3.3624134E1,9.524414E1,5.797297E2,1.0508516E2,1.3905996E0,2.3485312E2,5.5869324E1,5.1516727E1,6.422807E1,3.0513146E0,2.9446686E1,9.638228E2,3.5245395E2,4.1174768E2,2.1477344E2,2.4734905E0,8.2843575E1,1.7463268E1,1.6160866E1,6.328111E1,3.1963028E1,4.2656964E2,1.5316006E2,1.03941055E2,1.1440984E0,1.1271323E1,2.235818E2,1.4506857E1,4.1362465E1,9.481703E0,4.2035027E1,5.4823673E1,9.404396E0,2.7449806E1,1.9968789E0,9.261952E2,3.762766E1,1.9125153E2,1.6120241E2,3.886519E2,2.30958E1,1.8712602E2,2.7647427E1,1.1751521E1,7.109206E1,1.4820821E1,1.3400447E0,3.4092575E1,2.9188536E1,3.0522821E1,1.4402068E0,3.4848442E0,4.2308478E2,1.2428876E1,1.4073119E2,9.381286E1,1.0128198E1,2.610777E0,8.660546E0,2.1791777E2,5.664027E0,8.145204E0,6.3616533E0,2.3741577E1,1.762089E1,6.1237364E0,3.3579662E0,4.445107E0,3.758992E1,2.7708921E1,2.7114752E1,1.8820078E0,7.522388E0,4.0519624E0,2.3397844E1],"tree_param":{"num_deleted":"0","num_feature":"56","num_nodes":"93","size_leaf_vector":"0"}},{"base_weights":[-4.4280407E-3,-2.5611854E-1,9.463775E-2,-6.727296E-1,-1.3436128E-1,3.5917646E-1,-1.4377577E-3,8.72598E-1,-7.472196E-1,-2.690657E-1,1.6764134E-1,-3.6770138E-1,4.5387572E-1,-3.0293417E-1,9.242655E-2,1.997312E0,-4.1658485E-1,-9.661004E-1,-3.23923E-1,3.5856712E-1,-3.8404825E-1,-3.818461E-1,3.5801396E-1,-8.154592E-1,4.1694996E-1,9.894745E-1,3.839104E-1,-4.7153872E-1,3.4986252E-1,-1.9677219E-3,3.617108E-1,7.824138E-1,2.661635E0,8.901421E-1,-9.9893636E-1,9.824888E-1,-1.0309999E0,2.7234542E-1,-8.924516E-1,8.864047E-2,1.4777426E0,-4.7798315E-1,3.718664E-1,3.4019297E-1,-7.8078294E-1,-1.22167185E-1,5.857088E-1,-1.2506859E0,-1.7193627E-1,-8.4287363E-1,1.1215848E0,-1.1441245E0,1.072887E0,2.9998633E-1,8.5763747E-1,2.1820149E-1,-6.7539227E-1,5.965947E-1,-8.3078057E-1,-5.870116E-2,6.533216E-1,1.1177169E0,2.8787622E-1,-6.7451525E-1,1.7824849E0,7.4415016E-1,-1.0890428E0,-1.260098E0,7.1058285E-1,2.3261664E0,-1.0582432E0,-2.4718146E-1,9.459251E-1,2.84175E0,5.860084E-1,-3.1183276E-1,-1.0026073E0,-8.517337E-1,6.768203E-1,1.3263285E0,-1.678693E-1,-1.0377538E0,1.0492557E0,-1.1008044E0,4.1100293E-1,-8.9022356E-1,7.06096E-1,1.1033181E0,-1.428386E0,-7.3156726E-1,1.2166983E0,-1.3923818E0,3.3775142E-1,-6.8511283E-1,1.299722E0,-2.3563746E-1,1.1739435E0,-8.420514E-1,3.4845376E-1,4.6303805E-2,1.1047057E0,-1.8315934E-1,1.2929045E0,-1.0035591E0,-3.1044775E-1,-1.2906933E0,7.1079516E-1,4.4477046E-1,-1.4084804E0,-1.6850992E-1,2.4340022E-1,1.0364493E0,3.185806E-1,1.3097805E0,-7.067957E-1,3.1883958E-1,-1.276402E0],"categories":[],"categories_nodes":[],"categories_segments":[],"categories_sizes":[],"default_left":[1,1,1,1,1,1,1,1,1,1,1,1,1,1,1,1,1,1,1,1,1,1,1,1,1,1,1,1,1,1,1,0,0,0,0,1,1,1,1,1,1,1,1,1,1,1,1,1,1,1,1,0,1,1,1,1,1,1,1,1,1,1,1,0,0,0,0,0,0,0,0,0,0,0,0,0,0,0,0,0,0,0,0,0,0,0,0,0,0,0,0,0,0,0,0,0,0,0,0,0,0,0,0,0,0,0,0,0,0,0,0,0,0,0,0,0,0],"id":5,"left_children":[1,3,5,7,9,11,13,15,17,19,21,23,25,27,29,31,33,35,37,39,41,43,45,47,49,51,53,55,57,59,61,-1,-1,-1,-1,63,65,67,69,71,73,75,77,79,81,83,85,87,89,91,93,-1,95,97,99,101,103,105,107,109,111,113,115,-1,-1,-1,-1,-1,-1,-1,-1,-1,-1,-1,-1,-1,-1,-1,-1,-1,-1,-1,-1,-1,-1,-1,-1,-1,-1,-1,-1,-1,-1,-1,-1,-1,-1,-1,-1,-1,-1,-1,-1,-1,-1,-1,-1,-1,-1,-1,-1,-1,-1,-1,-1,-1,-1],"loss_changes":[7.923429E1,4.54361E1,5.7955673E1,2.3988663E1,2.8350113E1,4.1985626E1,4.73952E1,1.5018778E1,1.7656494E1,3.4889313E1,2.2651579E1,2.51367E1,1.9778717E1,4.392774E1,3.246463E1,2.2741451E0,4.987962E0,1.7116302E1,2.3162365E1,2.2549442E1,2.9110767E1,1.6357439E1,1.760526E1,1.2465357E1,2.4296072E1,1.2175953E1,1.8723785E1,4.463804E1,2.4437609E1,3.5232166E1,1.8182186E1,0E0,0E0,0E0,0E0,7.321827E0,1.3557938E1,2.357167E1,2.1054884E1,1.7954355E1,1.6001892E1,3.1317307E1,1.759188E1,1.0532591E1,1.815348E1,2.7799444E1,1.9988281E1,1.280703E1,1.5986162E1,6.9618444E0,6.457718E0,0E0,8.173729E0,2.282779E1,1.4243778E1,3.1699104E1,2.8968124E1,1.5695034E1,1.1403395E1,2.897313E1,9.354065E0,1.1139797E1,1.509977E1,0E0,0E0,0E0,0E0,0E0,0E0,0E0,0E0,0E0,0E0,0E0,0E0,0E0,0E0,0E0,0E0,0E0,0E0,0E0,0E0,0E0,0E0,0E0,0E0,0E0,0E0,0E0,0E0,0E0,0E0,0E0,0E0,0E0,0E0,0E0,0E0,0E0,0E0,0E0,0E0,0E0,0E0,0E0,0E0,0E0,0E0,0E0,0E0,0E0,0E0,0E0,0E0,0E0,0E0],"parents":[2147483647,0,0,1,1,2,2,3,3,4,4,5,5,6,6,7,7,8,8,9,9,10,10,11,11,12,12,13,13,14,14,15,15,16,16,17,17,18,18,19,19,20,20,21,21,22,22,23,23,24,24,25,25,26,26,27,27,28,28,29,29,30,30,35,35,36,36,37,37,38,38,39,39,40,40,41,41,42,42,43,43,44,44,45,45,46,46,47,47,48,48,49,49,50,50,52,52,53,53,54,54,55,55,56,56,57,57,58,58,59,59,60,60,61,61,62,62],"right_children":[2,4,6,8,10,12,14,16,18,20,22,24,26,28,30,32,34,36,38,40,42,44,46,48,50,52,54,56,58,60,62,-1,-1,-1,-1,64,66,68,70,72,74,76,78,80,82,84,86,88,90,92,94,-1,96,98,100,102,104,106,108,110,112,114,116,-1,-1,-1,-1,-1,-1,-1,-1,-1,-1,-1,-1,-1,-1,-1,-1,-1,-1,-1,-1,-1,-1,-1,-1,-1,-1,-1,-1,-1,-1,-1,-1,-1,-1,-1,-1,-1,-1,-1,-1,-1,-1,-1,-1,-1,-1,-1,-1,-1,-1,-1,-1,-1,-1],"split_conditions":[6.05E1,2.33967E1,5.3234997E0,3.48E2,7.55E1,2.21337E1,9.141667E1,2.45E1,7.15E1,1.153E0,6.95E1,1.71E2,5.05E1,8.05E1,6.15E1,5.7E1,4.2565002E0,3.45E1,4.15E1,1.1315E0,7.705E2,1.43E2,6.45E1,2.55E0,8.5E1,6.75E0,6.45E1,6.26441E0,1.5416666E1,1.7725E2,1.145E0,2.3472415E-1,7.984905E-1,2.6704264E-1,-2.9968092E-1,6.735E2,3.24E2,4.81E2,4.45E1,1.73E2,2.5720951E1,5.65E2,1.925E1,5.75E1,1.15E1,1.285E2,7.5E1,1.0280001E0,5.05E1,2.171E1,1.325E2,-3.4323737E-1,6.025E-1,8.275E1,4.13E2,6.25E1,6.95E1,7.1E1,4.45E1,4.435E2,2.225E1,2.65E1,9.25E1,-2.0235458E-1,5.347455E-1,2.2324505E-1,-3.2671285E-1,-3.780294E-1,2.1317486E-1,6.978499E-1,-3.1747296E-1,-7.4154444E-2,2.8377753E-1,8.52525E-1,1.7580253E-1,-9.354983E-2,-3.007822E-1,-2.555201E-1,2.030461E-1,3.9789858E-1,-5.036079E-2,-3.1132615E-1,3.1477672E-1,-3.3024135E-1,1.2330089E-1,-2.6706707E-1,2.1182881E-1,3.3099544E-1,-4.2851582E-1,-2.1947019E-1,3.650095E-1,-4.1771457E-1,1.0132543E-1,-2.0553386E-1,3.899166E-1,-7.069124E-2,3.5218307E-1,-2.5261542E-1,1.0453613E-1,1.3891142E-2,3.3141172E-1,-5.4947805E-2,3.8787135E-1,-3.0106774E-1,-9.313433E-2,-3.87208E-1,2.1323855E-1,1.3343114E-1,-4.2254415E-1,-5.0552975E-2,7.302007E-2,3.109348E-1,9.5574185E-2,3.9293417E-1,-2.1203871E-1,9.565188E-2,-3.8292062E-1],"split_indices":[5,4,3,28,48,4,51,15,48,2,33,9,53,33,40,5,3,48,17,2,22,9,36,38,11,46,17,34,52,47,2,0,0,0,0,20,27,28,40,9,4,27,44,33,10,41,11,2,30,4,55,0,50,51,12,40,33,11,43,13,44,32,48,0,0,0,0,0,0,0,0,0,0,0,0,0,0,0,0,0,0,0,0,0,0,0,0,0,0,0,0,0,0,0,0,0,0,0,0,0,0,0,0,0,0,0,0,0,0,0,0,0,0,0,0,0,0],"split_type":[0,0,0,0,0,0,0,0,0,0,0,0,0,0,0,0,0,0,0,0,0,0,0,0,0,0,0,0,0,0,0,0,0,0,0,0,0,0,0,0,0,0,0,0,0,0,0,0,0,0,0,0,0,0,0,0,0,0,0,0,0,0,0,0,0,0,0,0,0,0,0,0,0,0,0,0,0,0,0,0,0,0,0,0,0,0,0,0,0,0,0,0,0,0,0,0,0,0,0,0,0,0,0,0,0,0,0,0,0,0,0,0,0,0,0,0,0],"sum_hessian":[3.175799E3,8.9650854E2,2.2792905E3,2.0173073E2,6.9477783E2,6.0652325E2,1.6727673E3,8.784208E0,1.9294652E2,4.805456E2,2.1423221E2,6.957874E1,5.369445E2,3.9661014E2,1.2761571E3,4.3980017E0,4.386207E0,1.2633707E2,6.660945E1,7.4077065E1,4.0646854E2,5.4865067E1,1.5936714E2,4.4274456E1,2.5304283E1,6.0518776E1,4.7642572E2,3.154208E2,8.118933E1,9.456603E2,3.304969E2,2.3245962E0,2.0734055E0,1.1892167E0,3.1969903E0,3.616422E0,1.2272064E2,3.2765846E1,3.3843605E1,6.05521E1,1.3524965E1,3.6186813E2,4.4600418E1,1.9577976E1,3.528709E1,5.1410988E1,1.07956154E2,2.5848875E1,1.8425583E1,9.006064E0,1.629822E1,1.7985077E0,5.872027E1,4.061132E2,7.0312515E1,7.194019E1,2.4348062E2,6.756435E1,1.3624989E1,8.711487E2,7.451162E1,2.8147823E1,3.0234906E2,1.2285731E0,2.387849E0,3.5113292E0,1.1920931E2,6.869383E0,2.5896465E1,1.0195603E0,3.2824043E1,4.4019947E1,1.6532152E1,4.482188E0,9.042777E0,2.7603973E2,8.58284E1,8.540287E0,3.606013E1,6.1093416E0,1.3468635E1,3.1321863E1,3.9652295E0,1.775568E1,3.3655308E1,7.6593084E0,1.00296844E2,1.4487195E0,2.4400154E1,1.3470171E1,4.955413E0,6.0232525E0,2.9828124E0,1.2073268E0,1.5090892E1,4.114333E0,5.4605934E1,1.58669405E1,3.9024625E2,1.66906E1,5.3621918E1,5.2982727E1,1.8957466E1,1.2727871E2,1.1620192E2,3.2672617E0,6.429708E1,4.318942E0,9.3060465E0,6.3923846E2,2.3191019E2,3.3767162E1,4.0744453E1,2.5722206E1,2.4256165E0,2.9726123E2,5.0878186E0],"tree_param":{"num_deleted":"0","num_feature":"56","num_nodes":"117","size_leaf_vector":"0"}},{"base_weights":[-4.3969383E-3,4.7329802E-2,-3.7254852E-1,-3.2339238E-2,3.1989515E-1,-9.7487944E-1,-2.290099E-1,4.933074E-1,-6.890627E-2,3.4279358E-1,-1.4276196E0,2.1413325E-1,-1.1943899E0,1.586227E-1,-5.139373E-1,-3.3962277E-1,6.5750957E-1,-2.6159212E-1,4.816963E-2,2.9333404E-1,1.0704573E0,8.135903E-1,-9.6422863E-1,-1.2097644E0,-2.4423504E-1,-3.1515363E-1,5.347803E-1,-6.8727976E-1,1.9883098E-1,8.0173504E-1,-8.209871E-1,-3.792444E-1,7.571229E-1,6.395088E-1,-3.3714905E-1,-1.3229283E-2,3.877277E-1,1.1705334E0,2.4852449E-1,1.1955467E0,-1.2780187E0,-8.1459045E-1,1.1985681E0,-9.1130054E-1,3.9443627E-1,-4.2490896E-2,8.865435E-1,9.70065E-1,-7.510655E-1,-1.1892915E0,3.9637542E-1,-7.158868E-1,1.2101905E0,4.6555302E-1,-1.4821016E0,-9.6672773E-1,1.0139378E0,1.0997624E-1,8.984502E-1,4.4904124E-2,1.1861686E0,-8.3592814E-1,-1.8870741E-1,-1.2897977E-1,2.135508E-1,1.1341087E0,2.3269413E-1,-1.1960374E0,1.4274246E0,1.0814715E-1,5.571305E-1,-4.0922236E-1,1.393576E0,2.5692564E-1,1.382953E0,-1.2442726E0,3.7681E-1,-9.270354E-1,7.731999E-1,1.9518847E0,-4.3399796E-1,1.048541E0,-2.330528E-1,-7.9512274E-1,1.3079678E0,5.55089E-1,-1.5044361E0],"categories":[],"categories_nodes":[],"categories_segments":[],"categories_sizes":[],"default_left":[1,1,1,1,1,1,1,1,1,1,0,1,1,1,1,1,1,1,1,1,1,1,0,0,0,1,1,1,1,1,1,1,1,1,1,1,1,1,1,1,0,0,1,1,1,1,1,0,1,0,1,0,0,0,0,0,0,0,0,0,0,0,0,0,0,0,0,0,0,0,0,0,0,0,0,0,0,0,0,0,0,0,0,0,0,0,0],"id":6,"left_children":[1,3,5,7,9,11,13,15,17,19,-1,21,23,25,27,29,31,33,35,37,39,41,-1,-1,-1,43,45,47,49,51,53,55,57,59,61,63,65,67,69,71,-1,-1,73,75,77,79,81,-1,83,-1,85,-1,-1,-1,-1,-1,-1,-1,-1,-1,-1,-1,-1,-1,-1,-1,-1,-1,-1,-1,-1,-1,-1,-1,-1,-1,-1,-1,-1,-1,-1,-1,-1,-1,-1,-1,-1],"loss_changes":[5.842391E1,5.8425354E1,3.2453808E1,4.006312E1,2.484026E1,1.9159569E1,3.3936424E1,1.87655E1,4.3956444E1,2.1332977E1,0E0,9.356731E0,5.998993E-1,2.3447392E1,2.1993568E1,1.3286284E1,1.2017914E1,5.03528E1,2.5285305E1,2.1900616E1,1.2662666E1,6.3581257E0,0E0,0E0,0E0,2.5080397E1,1.4898495E1,1.5795235E1,1.0173632E1,5.4064627E0,1.4860739E1,9.675115E0,9.409775E0,1.857675E1,5.0195267E1,2.700855E1,2.1225864E1,1.8224384E1,2.3264011E1,1.2170578E1,0E0,0E0,9.2059517E-1,1.4219675E1,1.4420628E1,2.3228249E1,8.500301E0,0E0,1.3540863E1,0E0,1.0405688E1,0E0,0E0,0E0,0E0,0E0,0E0,0E0,0E0,0E0,0E0,0E0,0E0,0E0,0E0,0E0,0E0,0E0,0E0,0E0,0E0,0E0,0E0,0E0,0E0,0E0,0E0,0E0,0E0,0E0,0E0,0E0,0E0,0E0,0E0,0E0,0E0],"parents":[2147483647,0,0,1,1,2,2,3,3,4,4,5,5,6,6,7,7,8,8,9,9,11,11,12,12,13,13,14,14,15,15,16,16,17,17,18,18,19,19,20,20,21,21,25,25,26,26,27,27,28,28,29,29,30,30,31,31,32,32,33,33,34,34,35,35,36,36,37,37,38,38,39,39,42,42,43,43,44,44,45,45,46,46,48,48,50,50],"right_children":[2,4,6,8,10,12,14,16,18,20,-1,22,24,26,28,30,32,34,36,38,40,42,-1,-1,-1,44,46,48,50,52,54,56,58,60,62,64,66,68,70,72,-1,-1,74,76,78,80,82,-1,84,-1,86,-1,-1,-1,-1,-1,-1,-1,-1,-1,-1,-1,-1,-1,-1,-1,-1,-1,-1,-1,-1,-1,-1,-1,-1,-1,-1,-1,-1,-1,-1,-1,-1,-1,-1,-1,-1],"split_conditions":[6.05E1,9.1E1,1.235E2,1.0805E0,8.975E-1,2.6E1,6.25E1,5.65E1,1.395E2,2.11E2,-4.282859E-1,1.665E2,1.675E1,2.2763851E1,2.835025E1,5.1E2,1.35E2,9.325E1,8.325E2,4.815E2,8.305E2,1.275E1,-2.892686E-1,-3.629293E-1,-7.3270515E-2,3.75E0,9.9E1,3.09E2,1.0975E2,6.35E2,6.55E1,7.1365E0,5.45E1,1.55E1,8.441667E1,6.05E1,8.425E2,1E0,8.325E1,4.65E1,-3.8340563E-1,-2.4437715E-1,6.47E2,8.35E2,5.25E1,8.775E1,4.75E1,2.910195E-1,9.25E1,-3.5678744E-1,9.15E1,-2.1476604E-1,3.6305717E-1,1.3966592E-1,-4.4463047E-1,-2.9001832E-1,3.0418137E-1,3.2992873E-2,2.6953506E-1,1.3471237E-2,3.5585058E-1,-2.5077847E-1,-5.6612227E-2,-3.8693935E-2,6.406525E-2,3.402326E-1,6.9808245E-2,-3.5881123E-1,4.282274E-1,3.2444146E-2,1.6713916E-1,-1.2276671E-1,4.1807282E-1,7.7077694E-2,4.1488594E-1,-3.7328178E-1,1.1304301E-1,-2.7811062E-1,2.3195998E-1,5.8556545E-1,-1.3019939E-1,3.145623E-1,-6.9915846E-2,-2.3853683E-1,3.9239034E-1,1.665267E-1,-4.5133087E-1],"split_indices":[16,11,55,2,50,54,43,5,55,9,0,35,52,4,4,24,9,47,23,23,22,52,0,0,0,39,7,27,54,18,33,3,43,53,51,40,23,16,46,15,0,0,24,25,17,54,42,0,36,0,43,0,0,0,0,0,0,0,0,0,0,0,0,0,0,0,0,0,0,0,0,0,0,0,0,0,0,0,0,0,0,0,0,0,0,0,0],"split_type":[0,0,0,0,0,0,0,0,0,0,0,0,0,0,0,0,0,0,0,0,0,0,0,0,0,0,0,0,0,0,0,0,0,0,0,0,0,0,0,0,0,0,0,0,0,0,0,0,0,0,0,0,0,0,0,0,0,0,0,0,0,0,0,0,0,0,0,0,0,0,0,0,0,0,0,0,0,0,0,0,0,0,0,0,0,0,0],"sum_hessian":[3.066028E3,2.689074E3,3.76954E2,2.0815361E3,6.0753784E2,7.14282E1,3.055258E2,1.3457314E2,1.946963E3,6.004734E2,7.064427E0,1.1135505E1,6.0292698E1,1.296226E2,1.7590318E2,2.1984825E1,1.1258831E2,7.353972E2,1.2115658E3,5.6357043E2,3.690297E1,7.585939E0,3.5495656E0,5.906376E1,1.2289382E0,5.7439217E1,7.2183395E1,1.4152148E2,3.4381706E1,6.3241515E0,1.5660674E1,9.623355E0,1.0296496E2,5.6314926E1,6.790823E2,1.0268514E3,1.8471431E2,2.6168526E1,5.374019E2,3.550287E1,1.4001011E0,1.2372627E0,6.348676E0,3.10603E1,2.6378916E1,2.7663918E1,4.4519474E1,4.718279E0,1.368032E2,3.6578727E0,3.0723831E1,1.1815224E0,5.142629E0,5.4162884E0,1.0244385E1,6.9842896E0,2.6390655E0,1.8774319E1,8.4190636E1,2.7492899E1,2.8822027E1,1.5468697E2,5.243953E2,6.801357E2,3.467158E2,3.0682713E1,1.540316E2,2.2044597E0,2.3964066E1,3.7030823E2,1.670937E2,3.7826834E0,3.1720184E1,1.4315021E0,4.9171743E0,2.4707523E1,6.3527765E0,5.5539975E0,2.0824919E1,3.8854556E0,2.3778461E1,3.894752E1,5.571955E0,1.3453831E2,2.2648861E0,2.900957E1,1.7142625E0],"tree_param":{"num_deleted":"0","num_feature":"56","num_nodes":"87","size_leaf_vector":"0"}},{"base_weights":[-4.123048E-3,-6.727549E-2,2.1880765E-1,-4.9301007E-1,-1.2707557E-2,4.9891254E-1,1.2741289E-1,4.721217E-2,-6.5725684E-1,3.027094E-1,-6.7026615E-2,-4.762144E-1,5.8143294E-1,1.9160178E-1,-8.7296814E-1,-4.8122793E-1,5.802777E-1,-8.124915E-1,1.297258E-1,3.9611694E-1,-7.925725E-1,-1.5471321E-1,1.570697E-1,-1.1367418E0,1.0847185E0,6.168155E-1,-1.6935462E0,4.4436726E-1,6.586324E-3,-1.1816322E0,4.4059953E-1,-9.649623E-1,6.581899E-1,1.2719568E0,-4.0581745E-1,-1.3851388E-1,-1.0761172E0,5.311915E-1,-1.1711076E0,1.1250039E0,2.961541E-1,-1.7212877E0,7.536387E-1,-3.9569074E-1,-5.147512E-2,-1.5133398E0,1.9174662E-1,-1.6196648E0,9.223052E-1,-1.435399E0,6.5809274E-1,2.9568517E-1,1.0381647E0,-5.5124456E-1,1.5050241E-1,2.828395E-1,-1.3776926E0,1.0018746E0,-1.1316046E0,-1.2501104E0,6.0052764E-1,-8.288791E-1,1.1860046E0,1.4836909E0,-1.0143949E0,4.3046582E-1,-1.2690133E0,1.1099436E0,-5.0332105E-1,6.6197294E-1,-1.1132001E0,-7.546654E-1,9.829256E-1,1.316229E0,-1.4315288E0,-1.6443676E0,3.5314304E-1,-1.8166039E0,-2.4299781E-1,-1.710621E0,1.2364683E0,-4.7556007E-1,7.425567E-1,-2.8514615E-1,1.346975E-1,1.1333619E-1,6.2645954E-1,-3.000712E-1,-1.7640992E0,6.852753E-1,-1.526553E0,9.0422195E-1,1.267952E-1,1.1415988E0,-9.952657E-1,-1.3754952E0,1.2266984E-1,-4.9519944E-1,2.8389844E-1,4.7483018E-1,2.6029885E-2,-1.6372689E0,1.4840959E-1],"categories":[],"categories_nodes":[],"categories_segments":[],"categories_sizes":[],"default_left":[1,1,1,1,1,1,1,1,1,1,1,1,1,1,1,1,1,1,1,1,1,1,1,1,0,1,0,1,1,1,1,1,1,1,1,1,1,1,0,1,1,1,1,1,1,0,1,1,0,0,1,1,1,1,1,1,1,0,0,0,0,0,0,0,0,0,0,0,0,0,0,0,0,0,0,0,0,0,0,0,0,0,0,0,0,0,0,0,0,0,0,0,0,0,0,0,0,0,0,0,0,0,0],"id":7,"left_children":[1,3,5,7,9,11,13,15,17,19,21,23,25,27,29,31,33,35,37,39,41,43,45,47,-1,49,-1,51,53,55,57,59,61,63,65,67,69,71,-1,73,75,77,79,81,83,-1,85,87,-1,-1,89,91,93,95,97,99,101,-1,-1,-1,-1,-1,-1,-1,-1,-1,-1,-1,-1,-1,-1,-1,-1,-1,-1,-1,-1,-1,-1,-1,-1,-1,-1,-1,-1,-1,-1,-1,-1,-1,-1,-1,-1,-1,-1,-1,-1,-1,-1,-1,-1,-1,-1],"loss_changes":[4.1972546E1,5.3963432E1,1.678442E1,2.3447525E1,3.531839E1,1.3277702E1,3.2117012E1,1.7874668E1,2.4837494E1,3.12983E1,3.457665E1,1.4796863E1,1.3071285E1,2.1900908E1,1.275732E1,1.8225498E1,2.20344E1,2.9919167E1,1.849108E1,2.0047905E1,3.5950035E1,3.1434044E1,2.8964264E1,1.1171081E1,0E0,1.3469341E1,0E0,1.7167725E1,2.1874817E1,7.484398E0,6.8438716E0,1.0932423E1,8.914944E0,1.0598522E1,1.0482479E1,2.275245E1,8.567932E0,1.6329067E1,0E0,1.8202072E1,2.7934107E1,1.7257996E0,1.3716902E1,3.48135E1,3.8594707E1,0E0,1.6489492E1,1.0423012E0,0E0,0E0,9.693954E0,1.6297913E1,9.388851E0,3.1210403E1,1.879396E1,1.7239362E-1,8.943172E0,0E0,0E0,0E0,0E0,0E0,0E0,0E0,0E0,0E0,0E0,0E0,0E0,0E0,0E0,0E0,0E0,0E0,0E0,0E0,0E0,0E0,0E0,0E0,0E0,0E0,0E0,0E0,0E0,0E0,0E0,0E0,0E0,0E0,0E0,0E0,0E0,0E0,0E0,0E0,0E0,0E0,0E0,0E0,0E0,0E0,0E0],"parents":[2147483647,0,0,1,1,2,2,3,3,4,4,5,5,6,6,7,7,8,8,9,9,10,10,11,11,12,12,13,13,14,14,15,15,16,16,17,17,18,18,19,19,20,20,21,21,22,22,23,23,25,25,27,27,28,28,29,29,30,30,31,31,32,32,33,33,34,34,35,35,36,36,37,37,39,39,40,40,41,41,42,42,43,43,44,44,46,46,47,47,50,50,51,51,52,52,53,53,54,54,55,55,56,56],"right_children":[2,4,6,8,10,12,14,16,18,20,22,24,26,28,30,32,34,36,38,40,42,44,46,48,-1,50,-1,52,54,56,58,60,62,64,66,68,70,72,-1,74,76,78,80,82,84,-1,86,88,-1,-1,90,92,94,96,98,100,102,-1,-1,-1,-1,-1,-1,-1,-1,-1,-1,-1,-1,-1,-1,-1,-1,-1,-1,-1,-1,-1,-1,-1,-1,-1,-1,-1,-1,-1,-1,-1,-1,-1,-1,-1,-1,-1,-1,-1,-1,-1,-1,-1,-1,-1,-1],"split_conditions":[3.0002201E1,5.55E1,7.113885E0,4.45E1,1.55E1,6.23E2,5.25E1,5.632E0,8.435E2,7.4005003E0,7.55E1,8.4E1,9.95E1,8.89E2,3.05E1,5.05E1,5.9895E0,4.265E2,2.045E2,5.380855E0,1.38E2,4.145E2,1.962145E1,8.025E-1,3.2541555E-1,4.75E1,-5.0806385E-1,3.77015E1,1.47E2,6.53E2,7.105E2,7.5E1,6.85E1,1.32E2,6.675E-1,4.85E1,4.49E2,3.25E1,-3.513323E-1,1.05E1,1.35E1,9.25E1,7.645E2,9.735E2,8.3E1,-4.5400193E-1,1.15E2,4.05E1,2.766916E-1,-4.3061975E-1,1.0435E3,1.285E2,8.45E1,3.341425E1,6.05E1,6.595E2,3.325E1,3.0056238E-1,-3.3948138E-1,-3.7503314E-1,1.801583E-1,-2.4866374E-1,3.558014E-1,4.4510728E-1,-3.043185E-1,1.2913975E-1,-3.8070402E-1,3.329831E-1,-1.5099633E-1,1.9859189E-1,-3.3396003E-1,-2.2639962E-1,2.9487768E-1,3.948687E-1,-4.2945865E-1,-4.933103E-1,1.0594291E-1,-5.449812E-1,-7.289935E-2,-5.1318634E-1,3.709405E-1,-1.4266802E-1,2.2276701E-1,-8.554385E-2,4.0409252E-2,3.400086E-2,1.8793787E-1,-9.0021364E-2,-5.292298E-1,2.055826E-1,-4.5796594E-1,2.712666E-1,3.8038563E-2,3.4247965E-1,-2.9857972E-1,-4.126486E-1,3.6800954E-2,-1.4855984E-1,8.516954E-2,1.4244907E-1,7.8089656E-3,-4.911807E-1,4.4522878E-2],"split_indices":[4,5,34,42,17,20,30,3,18,3,48,48,33,14,32,30,3,27,35,34,49,13,4,50,0,6,0,4,9,14,23,15,48,49,50,5,22,17,0,17,31,33,24,24,11,0,7,30,0,0,25,55,37,4,48,23,44,0,0,0,0,0,0,0,0,0,0,0,0,0,0,0,0,0,0,0,0,0,0,0,0,0,0,0,0,0,0,0,0,0,0,0,0,0,0,0,0,0,0,0,0,0,0],"split_type":[0,0,0,0,0,0,0,0,0,0,0,0,0,0,0,0,0,0,0,0,0,0,0,0,0,0,0,0,0,0,0,0,0,0,0,0,0,0,0,0,0,0,0,0,0,0,0,0,0,0,0,0,0,0,0,0,0,0,0,0,0,0,0,0,0,0,0,0,0,0,0,0,0,0,0,0,0,0,0,0,0,0,0,0,0,0,0,0,0,0,0,0,0,0,0,0,0,0,0,0,0,0,0],"sum_hessian":[2.9792517E3,2.3221301E3,6.571214E2,2.6290805E2,2.0592222E3,1.6056526E2,4.9655612E2,6.146307E1,2.0144498E2,3.0185486E2,1.7573673E3,1.2155485E1,1.4840977E2,4.6737567E2,2.9180433E1,3.0914278E1,3.054879E1,1.6822891E2,3.3216064E1,2.787232E2,2.3131653E1,1.2633435E3,4.9402383E2,8.732134E0,3.4233518E0,1.4685463E2,1.5551481E0,1.9693039E2,2.7044528E2,2.3709564E1,5.470868E0,2.1808636E1,9.105642E0,1.7784365E1,1.2764425E1,4.7729774E1,1.2049914E2,2.5834597E1,7.3814692E0,3.2378506E1,2.463447E2,1.4380769E1,8.750884E0,3.7805585E2,8.8528766E2,9.179924E0,4.848439E2,7.2460556E0,1.4860779E0,2.2295895E0,1.4462505E2,1.5869292E2,3.8237473E1,5.4883175E1,2.1556212E2,2.7471483E0,2.0962416E1,4.2989173E0,1.1719506E0,1.8618755E1,3.1898794E0,2.2358747E0,6.8697677E0,1.65983E1,1.1860656E0,6.7379045E0,6.0265203E0,1.0331242E1,3.7398533E1,2.1651812E0,1.18333954E2,6.5420666E0,1.929253E1,3.057657E1,1.8019341E0,6.2335267E0,2.4011118E2,1.3294705E1,1.0860629E0,1.0170696E0,7.7338142E0,3.5381155E2,2.4244293E1,3.9233023E2,4.9295746E2,4.118229E2,7.302098E1,1.018482E0,6.2275734E0,1.4352554E2,1.0995023E0,3.3528957E1,1.25163956E2,3.680396E1,1.4335136E0,2.4219614E1,3.066356E1,3.644385E1,1.7911827E2,1.0861703E0,1.660978E0,1.7852947E1,3.1094697E0],"tree_param":{"num_deleted":"0","num_feature":"56","num_nodes":"103","size_leaf_vector":"0"}},{"base_weights":[-5.2376445E-3,-3.1074153E-2,4.9600357E-1,-8.110396E-2,1.9218753E-1,5.295275E-1,-1.3448784E0,4.4037673E-1,-1.06270164E-1,5.219587E-1,-1.4829307E-2,5.591417E-1,-1.4465053E0,-8.2883936E-1,5.3710693E-1,-3.5265756E-1,-5.307146E-2,5.5747885E-1,-1.9325883E0,-6.414146E-1,1.0411963E-1,5.9789306E-1,-1.0419102E0,-1.7918296E0,4.025149E-1,-1.2781118E0,6.029642E-1,-4.1139716E-1,7.4540174E-1,-7.586476E-2,5.309835E-1,6.855994E-2,7.153261E-1,-1.1312028E0,2.3520777E-1,-1.077026E0,1.7630503E-1,4.3914706E-1,1.0379245E0,-2.1234536E0,6.479411E-1,-3.9658773E-1,8.5858995E-1,6.624189E-1,-1.4754775E0,-5.100859E-1,2.0405117E-1,-3.1209275E-1,1.4858754E0,-1.4344822E-1,1.16452895E-1,-7.802763E-1,6.65555E-1,-6.1776876E-1,7.042312E-1,8.3893496E-1,8.330456E-2,-4.4452214E-1,-1.6750487E0,8.203979E-1,-1.91183E0,-1.5103086E0,3.8550696E-1,-3.8831952E-1,2.8992486E-1,-1.5908237E0,5.298774E-1,1.1066245E0,-5.7640994E-1],"categories":[],"categories_nodes":[],"categories_segments":[],"categories_sizes":[],"default_left":[1,1,1,1,1,1,0,1,1,1,1,1,0,1,1,1,1,1,0,1,1,1,1,0,1,0,1,1,1,1,1,1,1,1,1,1,1,1,1,0,0,0,0,0,0,0,0,0,0,0,0,0,0,0,0,0,0,0,0,0,0,0,0,0,0,0,0,0,0],"id":8,"left_children":[1,3,5,7,9,11,-1,13,15,17,19,21,-1,23,25,27,29,31,-1,33,35,37,39,-1,41,-1,43,45,47,49,51,53,55,57,59,61,63,65,67,-1,-1,-1,-1,-1,-1,-1,-1,-1,-1,-1,-1,-1,-1,-1,-1,-1,-1,-1,-1,-1,-1,-1,-1,-1,-1,-1,-1,-1,-1],"loss_changes":[3.7552765E1,3.0815279E1,9.484245E0,2.9618961E1,3.448873E1,9.019981E0,0E0,1.3205116E1,2.8167744E1,1.8062607E1,2.3265865E1,9.24485E0,0E0,9.914894E0,1.2387974E1,2.4924824E1,2.359988E1,1.4831249E1,0E0,2.164882E1,2.2567894E1,9.066448E0,8.044287E0,0E0,1.878155E0,0E0,1.2649651E1,2.2148468E1,1.5918295E1,2.2166164E1,1.2270779E1,2.144773E1,1.130883E1,1.125145E1,2.5037434E1,1.0250572E1,1.6035637E1,1.961295E1,4.564659E0,0E0,0E0,0E0,0E0,0E0,0E0,0E0,0E0,0E0,0E0,0E0,0E0,0E0,0E0,0E0,0E0,0E0,0E0,0E0,0E0,0E0,0E0,0E0,0E0,0E0,0E0,0E0,0E0,0E0,0E0],"parents":[2147483647,0,0,1,1,2,2,3,3,4,4,5,5,7,7,8,8,9,9,10,10,11,11,13,13,14,14,15,15,16,16,17,17,19,19,20,20,21,21,22,22,24,24,26,26,27,27,28,28,29,29,30,30,31,31,32,32,33,33,34,34,35,35,36,36,37,37,38,38],"right_children":[2,4,6,8,10,12,-1,14,16,18,20,22,-1,24,26,28,30,32,-1,34,36,38,40,-1,42,-1,44,46,48,50,52,54,56,58,60,62,64,66,68,-1,-1,-1,-1,-1,-1,-1,-1,-1,-1,-1,-1,-1,-1,-1,-1,-1,-1,-1,-1,-1,-1,-1,-1,-1,-1,-1,-1,-1,-1],"split_conditions":[5E-1,7.15E1,8.725E-1,3.25E1,5.663E0,1.60327E1,-4.0346354E-1,1.05E1,2.271195E1,4.025E1,2.2473251E1,2E2,-4.3395162E-1,4.33E2,9.175E1,7.75E1,2.11E2,6.575E-1,-5.797765E-1,1.5875E2,5.832E0,9.1E1,1.6325E2,-5.375489E-1,8.21E2,-3.8343355E-1,1.8725E2,2.85E1,2.475E1,1.0775E2,2.1E1,7.655E2,1.157905E1,5.785E2,8.3E1,7.65E1,7.7E1,-1E1,1.27E2,-6.370361E-1,1.9438234E-1,-1.18976325E-1,2.57577E-1,1.9872569E-1,-4.4264325E-1,-1.5302578E-1,6.1215352E-2,-9.3627825E-2,4.4576263E-1,-4.3034468E-2,3.493587E-2,-2.3408289E-1,1.9966651E-1,-1.8533063E-1,2.1126936E-1,2.516805E-1,2.4991369E-2,-1.3335665E-1,-5.0251466E-1,2.4611938E-1,-5.7354903E-1,-4.530926E-1,1.1565209E-1,-1.1649586E-1,8.697746E-2,-4.7724712E-1,1.5896323E-1,3.3198735E-1,-1.7292298E-1],"split_indices":[0,5,50,42,3,34,0,17,4,44,4,9,0,12,49,42,9,50,0,47,3,11,47,0,25,0,54,31,44,51,17,22,34,27,11,36,11,16,11,0,0,0,0,0,0,0,0,0,0,0,0,0,0,0,0,0,0,0,0,0,0,0,0,0,0,0,0,0,0],"split_type":[0,0,0,0,0,0,0,0,0,0,0,0,0,0,0,0,0,0,0,0,0,0,0,0,0,0,0,0,0,0,0,0,0,0,0,0,0,0,0,0,0,0,0,0,0,0,0,0,0,0,0,0,0,0,0,0,0,0,0,0,0,0,0,0,0,0,0,0,0],"sum_hessian":[2.897565E3,2.756423E3,1.4114198E2,2.2523418E3,5.0408133E2,1.3931726E2,1.8247281E0,1.0293241E2,2.1494092E3,1.9381651E2,3.1026483E2,1.3796663E2,1.3506258E0,6.7532406E0,9.617917E1,3.8067963E2,1.7687297E3,1.9181363E2,2.0028846E0,4.8801525E1,2.6146332E2,1.35318E2,2.648633E0,3.5341566E0,3.2190843E0,2.7228267E0,9.3456345E1,3.6194318E2,1.873645E1,1.7031334E3,6.559629E1,4.7163345E1,1.4465028E2,3.1122362E1,1.7679163E1,1.4257202E1,2.472061E2,1.009112E2,3.44068E1,1.4585413E0,1.1900917E0,1.2170638E0,2.0020204E0,9.151968E1,1.9366677E0,3.120727E2,4.987047E1,7.954662E0,1.0781788E1,1.2604467E3,4.4268674E2,5.658811E0,5.9937477E1,2.2691595E1,2.4471752E1,1.20714005E2,2.3936272E1,1.45581045E1,1.6564257E1,1.4378182E1,3.3009808E0,1.0973563E1,3.2836387E0,4.1007072E1,2.0619904E2,3.609947E0,9.7301254E1,3.3304005E1,1.1027931E0],"tree_param":{"num_deleted":"0","num_feature":"56","num_nodes":"69","size_leaf_vector":"0"}},{"base_weights":[-4.072494E-3,-1.5226297E-1,5.1272012E-2,-1.1851782E0,-1.1813024E-1,5.4922855E-1,2.7604792E-2,-1.497946E0,3.7719154E-1,-3.1647146E-2,-4.2247185E-1,-4.7727072E-1,7.05516E-1,-3.3459645E-2,2.3440535E-1,-7.4456495E-1,1.0953345E0,1.0125068E0,-7.068533E-2,-8.4891117E-1,-9.4510436E-2,4.042282E-1,-1.2568523E0,9.649741E-1,2.1405719E-1,1.9797513E-1,-9.874083E-2,1.8585473E-1,1.1592319E0,1.380765E0,-1.7454997E-1,-3.6606476E-1,8.1775256E-2,-1.1594214E0,-1.14439346E-1,-8.212044E-1,1.955702E-1,-4.7089788E-1,1.0094191E0,-1.535316E0,2.0527697E-1,3.2702804E-1,1.3414991E0,-1.0437454E0,7.7429086E-1,-2.361325E-1,4.4090524E-1,2.8206136E-2,-2.433031E-1,1.0745692E-2,5.150877E-1,1.4161083E0,-1.2295657E0,1.6073185E0,-7.8964815E-2,-1.2028459E0,9.60097E-1,-7.512931E-1,1.4799407E-1,3.972705E-1,-9.456297E-2,-1.2889332E0,1.165598E0,-1.5023342E0,4.3753928E-1,6.134707E-1,-1.2529767E0,6.468646E-1,-1.7431739E-1,5.028379E-1,-1.1165612E0,1.2390208E0,-5.099269E-1,-8.5462934E-1,1.4382087E0,6.551555E-1,-1.5696186E0,-9.4899654E-1,9.1555375E-1,-1.0387558E0,-1.9525003E-2,5.137987E-1,-7.986815E-1,5.253161E-1,-4.0882014E-2,5.8219683E-1,-3.0464658E-1,1.0647061E-1,-9.3051255E-1,-1.6301596E-1,7.985014E-1,7.5028665E-2,1.5889926E0],"categories":[],"categories_nodes":[],"categories_segments":[],"categories_sizes":[],"default_left":[1,1,1,1,1,1,1,0,1,1,1,1,1,1,1,0,0,1,1,1,1,1,1,1,1,1,1,1,1,1,1,1,1,1,1,1,1,1,0,0,0,1,1,1,1,1,1,1,1,1,1,1,0,0,0,0,0,0,0,0,0,0,0,0,0,0,0,0,0,0,0,0,0,0,0,0,0,0,0,0,0,0,0,0,0,0,0,0,0,0,0,0,0],"id":9,"left_children":[1,3,5,7,9,11,13,-1,15,17,19,21,23,25,27,-1,-1,29,31,33,35,37,39,41,43,45,47,49,51,53,55,57,59,61,63,65,67,69,-1,-1,-1,71,73,75,77,79,81,83,85,87,89,91,-1,-1,-1,-1,-1,-1,-1,-1,-1,-1,-1,-1,-1,-1,-1,-1,-1,-1,-1,-1,-1,-1,-1,-1,-1,-1,-1,-1,-1,-1,-1,-1,-1,-1,-1,-1,-1,-1,-1,-1,-1],"loss_changes":[2.3255754E1,2.7043339E1,2.431624E1,1.2562946E1,1.9660343E1,1.5356232E1,2.4909863E1,0E0,4.75821E0,2.3841778E1,2.3040966E1,9.419039E0,1.0205364E1,2.3033777E1,1.9974836E1,0E0,0E0,9.456818E0,2.5386902E1,1.6229622E1,2.0097336E1,4.0991855E0,3.2159853E0,1.2329407E1,2.1594486E1,3.548239E1,2.182354E1,2.469393E1,1.5386761E1,5.4851875E0,8.01467E0,3.8107265E1,2.074427E1,1.6653717E1,1.783931E1,1.7602026E1,1.1530989E1,2.748862E0,0E0,0E0,0E0,1.6700184E1,8.260059E0,9.529882E0,5.976735E0,2.102016E1,1.987793E1,2.179116E1,2.832978E1,2.539034E1,2.8713558E1,4.6437683E0,0E0,0E0,0E0,0E0,0E0,0E0,0E0,0E0,0E0,0E0,0E0,0E0,0E0,0E0,0E0,0E0,0E0,0E0,0E0,0E0,0E0,0E0,0E0,0E0,0E0,0E0,0E0,0E0,0E0,0E0,0E0,0E0,0E0,0E0,0E0,0E0,0E0,0E0,0E0,0E0,0E0],"parents":[2147483647,0,0,1,1,2,2,3,3,4,4,5,5,6,6,8,8,9,9,10,10,11,11,12,12,13,13,14,14,17,17,18,18,19,19,20,20,21,21,22,22,23,23,24,24,25,25,26,26,27,27,28,28,29,29,30,30,31,31,32,32,33,33,34,34,35,35,36,36,37,37,41,41,42,42,43,43,44,44,45,45,46,46,47,47,48,48,49,49,50,50,51,51],"right_children":[2,4,6,8,10,12,14,-1,16,18,20,22,24,26,28,-1,-1,30,32,34,36,38,40,42,44,46,48,50,52,54,56,58,60,62,64,66,68,70,-1,-1,-1,72,74,76,78,80,82,84,86,88,90,92,-1,-1,-1,-1,-1,-1,-1,-1,-1,-1,-1,-1,-1,-1,-1,-1,-1,-1,-1,-1,-1,-1,-1,-1,-1,-1,-1,-1,-1,-1,-1,-1,-1,-1,-1,-1,-1,-1,-1,-1,-1],"split_conditions":[1.47E2,7.75E0,4.980505E0,1.535E2,2.75E1,3.15E1,1.15E1,-4.4938383E-1,8.085E2,3.48E2,4.85E1,1.4105E0,4.285E2,2.15E1,1.21E2,-2.233695E-1,3.2860038E-1,1.235E2,6.15E2,1.265E2,4.235E2,1.265E2,2.229E0,4.155E2,6.635E2,6.35E1,4.1499996E0,7.135E2,5.3999996E0,5.2E1,6.45E1,7.25E1,5.735E2,1.945E3,4.55E1,2.143165E1,4.45E1,4.892E0,3.0282575E-1,-4.605948E-1,6.158309E-2,4.35E1,9.1E1,1.81026E0,7.12E2,5.45E1,7.449E0,7.9E1,9.166666E0,7.225E2,4.355E2,2.4E0,-3.6886972E-1,4.821956E-1,-2.3689445E-2,-3.608538E-1,2.880291E-1,-2.2538795E-1,4.4398222E-2,1.19181156E-1,-2.8368892E-2,-3.8667998E-1,3.496794E-1,-4.5070028E-1,1.312618E-1,1.840412E-1,-3.7589303E-1,1.9405939E-1,-5.229522E-2,1.5085137E-1,-3.3496836E-1,3.7170625E-1,-1.5297808E-1,-2.563888E-1,4.3146262E-1,1.9654666E-1,-4.708856E-1,-2.8469896E-1,2.7466613E-1,-3.1162673E-1,-5.857501E-3,1.5413962E-1,-2.3960446E-1,1.5759484E-1,-1.2264605E-2,1.7465906E-1,-9.139398E-2,3.1941183E-2,-2.7915376E-1,-4.890479E-2,2.3955043E-1,2.25086E-2,4.766978E-1],"split_indices":[9,44,34,41,31,36,10,0,21,28,30,2,13,17,7,0,0,41,24,41,13,41,2,13,23,5,39,25,39,17,42,48,29,20,15,4,15,3,0,0,0,15,54,34,20,40,3,7,44,24,13,38,0,0,0,0,0,0,0,0,0,0,0,0,0,0,0,0,0,0,0,0,0,0,0,0,0,0,0,0,0,0,0,0,0,0,0,0,0,0,0,0,0],"split_type":[0,0,0,0,0,0,0,0,0,0,0,0,0,0,0,0,0,0,0,0,0,0,0,0,0,0,0,0,0,0,0,0,0,0,0,0,0,0,0,0,0,0,0,0,0,0,0,0,0,0,0,0,0,0,0,0,0,0,0,0,0,0,0,0,0,0,0,0,0,0,0,0,0,0,0,0,0,0,0,0,0,0,0,0,0,0,0,0,0,0,0,0,0],"sum_hessian":[2.8335874E3,7.7002277E2,2.0635645E3,2.3552769E1,7.4647003E2,9.2620926E1,1.9709436E3,1.9658587E1,3.8941815E0,5.8214813E2,1.6432187E2,1.1967084E1,8.065384E1,1.5222802E3,4.486634E2,1.5056024E0,2.3885791E0,2.008188E1,5.620663E2,7.074527E1,9.357659E1,5.842385E0,6.124699E0,5.2155605E1,2.8498236E1,3.344733E2,1.1878069E3,4.2742578E2,2.1237604E1,1.5202467E1,4.8794127E0,1.9087027E2,3.71196E2,4.9317074E1,2.1428198E1,2.6174564E1,6.740203E1,2.4792333E0,3.3631513E0,5.10281E0,1.0218891E0,2.0051277E1,3.210433E1,8.515869E0,1.9982367E1,1.2002348E2,2.144498E2,6.32864E2,5.549429E2,2.796964E2,1.477294E2,1.9543236E1,1.6943688E0,1.307248E1,2.1299872E0,2.528135E0,2.3512778E0,1.08843216E2,8.202705E1,1.3263658E2,2.3855942E2,4.7137E1,2.1800725E0,5.6073513E0,1.5820847E1,5.9577103E0,2.0216854E1,3.0022818E1,3.737921E1,1.0766804E0,1.402553E0,9.3656025E0,1.0685675E1,1.0235684E0,3.108076E1,1.9547985E0,6.561071E0,1.0807077E0,1.8901659E1,2.4700823E1,9.532266E1,2.0309253E2,1.1357278E1,7.641702E1,5.56447E2,3.7798416E1,5.171445E2,2.5468237E2,2.501403E1,4.3669437E1,1.0405996E2,2.3954558E0,1.714778E1],"tree_param":{"num_deleted":"0","num_feature":"56","num_nodes":"93","size_leaf_vector":"0"}},{"base_weights":[-2.9338086E-3,7.7553976E-1,-1.2618762E-2,1.1275706E0,-3.0839202E-1,7.084131E-3,-3.739964E-1,1.4091316E0,4.6437773E-1,-1.4937168E0,5.3283477E-1,5.035062E-1,-8.233382E-3,2.1564841E-1,-6.1304605E-1,1.6456231E0,7.240974E-1,1.0028794E0,-8.2756954E-1,-7.3447365E-1,9.342696E-1,5.767488E-1,-1.3812604E0,-5.3729475E-1,1.70083E-2,5.428686E-1,-9.942843E-1,1.0169901E0,-6.927878E-1,1.0171863E0,-3.6547953E-1,2.68061E-1,1.141366E0,-1.064651E0,-1.4671642E-1,-1.0388565E0,6.59871E-1,-7.4856067E-1,3.67664E-1,2.4769907E-1,-2.6062386E-2,-1.0348653E0,7.684713E-1,-1.2659836E0,5.7486105E-1,-1.04978485E-2,1.52203E0,-3.540176E-1,-1.0187505E0,7.5642973E-1,-8.348876E-1,5.482861E-1,-8.7064487E-1,-5.290342E-1,1.2324358E0,2.8008613E-1,-1.2905433E0,-4.8037586E-1,1.8102713E-3,1.0018364E0,-5.469216E-1,-9.714577E-1,3.4308226E-3,7.6559097E-1,-1.1975155E0],"categories":[],"categories_nodes":[],"categories_segments":[],"categories_sizes":[],"default_left":[1,1,1,1,1,1,1,1,1,0,1,1,1,1,1,0,1,1,1,0,0,1,0,1,1,1,1,1,1,0,0,0,0,0,0,0,1,1,1,1,1,0,1,0,0,0,0,1,1,0,0,0,0,0,0,0,0,0,0,0,0,0,0,0,0],"id":10,"left_children":[1,3,5,7,9,11,13,15,17,-1,19,21,23,25,27,-1,29,31,33,-1,-1,35,-1,37,39,41,43,45,47,-1,-1,-1,-1,-1,-1,-1,49,51,53,55,57,-1,59,-1,-1,-1,-1,61,63,-1,-1,-1,-1,-1,-1,-1,-1,-1,-1,-1,-1,-1,-1,-1,-1],"loss_changes":[2.0999077E1,1.3407219E1,1.9588085E1,4.209816E0,9.945148E0,1.9846317E1,2.0181105E1,1.6911964E0,7.2687488E0,0E0,3.7914853E0,1.1581139E1,3.382692E1,1.7077177E1,1.3893394E1,0E0,2.4003417E0,4.0478706E-1,3.7173128E-1,0E0,0E0,1.0879141E1,0E0,2.2328114E1,2.4031578E1,1.2728257E1,4.669219E0,2.6819224E0,1.0387062E1,0E0,0E0,0E0,0E0,0E0,0E0,0E0,1.1139387E1,1.5335331E1,1.810109E1,1.9318394E1,2.581386E1,0E0,9.727758E0,0E0,0E0,0E0,0E0,1.0875059E1,1.6568924E1,0E0,0E0,0E0,0E0,0E0,0E0,0E0,0E0,0E0,0E0,0E0,0E0,0E0,0E0,0E0,0E0],"parents":[2147483647,0,0,1,1,2,2,3,3,4,4,5,5,6,6,7,7,8,8,10,10,11,11,12,12,13,13,14,14,16,16,17,17,18,18,21,21,23,23,24,24,25,25,26,26,27,27,28,28,36,36,37,37,38,38,39,39,40,40,42,42,47,47,48,48],"right_children":[2,4,6,8,10,12,14,16,18,-1,20,22,24,26,28,-1,30,32,34,-1,-1,36,-1,38,40,42,44,46,48,-1,-1,-1,-1,-1,-1,-1,50,52,54,56,58,-1,60,-1,-1,-1,-1,62,64,-1,-1,-1,-1,-1,-1,-1,-1,-1,-1,-1,-1,-1,-1,-1,-1],"split_conditions":[3.5385E0,4.3E1,6.95E1,1.945E2,2.6116951E1,9.325E1,1.505E2,5.58E2,1.15E1,-4.4811508E-1,6.95E1,7.941E0,8.083333E1,1.8585E0,3.25E1,4.9368694E-1,3.203E0,6.2E1,1.018E3,-2.203421E-1,2.802809E-1,5.98E2,-4.1437814E-1,9.5E1,5.545E2,4.8345E0,3E1,9.65E1,4.65E1,3.051559E-1,-1.0964386E-1,8.04183E-2,3.4240982E-1,-3.193953E-1,-4.4014927E-2,-3.1165695E-1,8.415E2,3.875E2,6.925E-1,3.875E1,1.2041667E2,-3.1045958E-1,4.6499996E0,-3.797951E-1,1.7245832E-1,-3.1493546E-3,4.56609E-1,1.1175E2,4.55E1,2.2692893E-1,-2.504663E-1,1.6448583E-1,-2.6119348E-1,-1.5871027E-1,3.6973077E-1,8.4025845E-2,-3.87163E-1,-1.4411277E-1,5.4308143E-4,3.0055094E-1,-1.6407649E-1,-2.9143733E-1,1.0292468E-3,2.296773E-1,-3.5925466E-1],"split_indices":[3,17,16,35,4,47,35,27,16,0,5,3,51,2,36,0,3,5,14,0,0,19,0,11,22,3,45,51,42,0,0,0,0,0,0,0,22,29,50,44,47,0,39,0,0,0,0,49,40,0,0,0,0,0,0,0,0,0,0,0,0,0,0,0,0],"split_type":[0,0,0,0,0,0,0,0,0,0,0,0,0,0,0,0,0,0,0,0,0,0,0,0,0,0,0,0,0,0,0,0,0,0,0,0,0,0,0,0,0,0,0,0,0,0,0,0,0,0,0,0,0,0,0,0,0,0,0,0,0,0,0,0,0],"sum_hessian":[2.782917E3,3.3225002E1,2.7496921E3,2.5049398E1,8.175606E0,2.6084553E3,1.412368E2,1.6794472E1,8.254926E0,3.0717442E0,5.1038613E0,7.712294E1,2.5313323E3,4.0770164E1,1.00466644E2,1.1442112E1,5.3523607E0,5.9843225E0,2.2706032E0,1.0282161E0,4.075645E0,7.490606E1,2.2168777E0,1.1434726E2,2.416985E3,3.2525208E1,8.244956E0,4.1374626E0,9.632918E1,4.270157E0,1.0822041E0,1.4145074E0,4.569815E0,1.2660481E0,1.004555E0,3.1026893E0,7.1803375E1,9.284506E1,2.1502195E1,3.79515E2,2.0374701E3,3.6202397E0,2.8904966E1,7.1927285E0,1.0522273E0,1.686185E0,2.4512775E0,4.8259533E1,4.806965E1,6.791042E1,3.8929453E0,7.6879787E0,8.515709E1,1.0746836E1,1.0755359E1,3.724903E2,7.0247097E0,1.1683705E2,1.920633E3,2.4752056E1,4.152911E0,1.7064806E1,3.1194725E1,4.0784035E0,4.3991245E1],"tree_param":{"num_deleted":"0","num_feature":"56","num_nodes":"65","size_leaf_vector":"0"}},{"base_weights":[-3.8275209E-3,-2.2280617E-2,3.7796083E-1,-1.3194191E-1,3.953105E-2,5.25757E-1,6.96121E-4,-1.8541276E-1,3.7983263E-1,-7.3755413E-1,5.516195E-2,5.7459474E-1,-8.1979704E-1,7.06093E-1,-4.439367E-1,3.7096348E-1,-2.2967686E-1,-1.6164442E0,5.029339E-1,8.6356336E-1,-1.0602818E0,3.2272927E-2,5.652773E-1,-1.5596229E-1,6.623381E-1,1.9856085E-1,-1.380785E0,-4.6895096E-1,8.411542E-1,-1.311228E0,2.5086077E-2,-7.071917E-1,7.021301E-1,-3.0507606E-1,1.7277232E-1,6.165415E-1,-1.1825894E0,2.894234E-1,1.2258004E0,-1.2509147E0,3.371932E-1,-3.292945E-1,6.493649E-2,7.490162E-1,-6.637133E-1,-8.1805575E-1,6.9967777E-1,7.067656E-1,-6.922312E-1,-1.1694598E-2,9.5800745E-1,-1.6367226E0,1.3666613E-1,-7.118585E-1,5.157088E-1,4.464483E-1,-1.1211593E0,1.1089394E0,-2.2875232E-1,-3.9600286E-1,4.181919E-2,4.8363316E-1,-2.017908E-1,7.0739067E-1,-9.626081E-1,4.8154205E-1,-1.7148979E0,6.415096E-1,-1.3581562E0,-7.0423245E-1,9.305018E-1,3.5458976E-1,-7.3572004E-1,1.481785E-2,3.1622857E-1,-7.665165E-1,8.836874E-1,4.5591116E-1,-1.545928E0,-1.377052E0,5.740763E-1,-1.7588612E-1,9.9091804E-1,-7.294893E-1,7.382854E-1,1.077759E0,2.892959E-1,-7.353779E-4,-1.9445446E0,-2.1235864E0,5.7084054E-1,-9.048164E-1,8.7656224E-1],"categories":[],"categories_nodes":[],"categories_segments":[],"categories_sizes":[],"default_left":[1,1,1,1,1,1,1,1,1,1,1,1,1,1,1,1,1,0,1,1,1,1,1,1,1,0,0,0,1,1,1,1,1,1,1,1,1,0,0,1,1,1,1,1,1,1,1,1,0,0,1,1,0,1,1,0,0,0,0,0,0,0,0,0,0,0,0,0,0,0,0,0,0,0,0,0,0,0,0,0,0,0,0,0,0,0,0,0,0,0,0,0,0],"id":11,"left_children":[1,3,5,7,9,11,13,15,17,19,21,23,25,27,29,31,33,-1,35,37,39,41,43,45,47,-1,-1,-1,49,51,53,55,57,59,61,63,65,-1,-1,67,69,71,73,75,77,79,81,83,-1,-1,85,87,-1,89,91,-1,-1,-1,-1,-1,-1,-1,-1,-1,-1,-1,-1,-1,-1,-1,-1,-1,-1,-1,-1,-1,-1,-1,-1,-1,-1,-1,-1,-1,-1,-1,-1,-1,-1,-1,-1,-1,-1],"loss_changes":[1.936623E1,1.7777576E1,7.0662537E0,2.594051E1,2.041725E1,6.455015E0,1.181651E1,2.1181427E1,2.2870426E1,1.804401E1,1.9193665E1,5.7736874E0,2.3316195E0,2.7060986E0,9.433496E0,2.317284E1,2.4149223E1,0E0,1.7064411E1,9.163132E-1,7.890791E0,1.863187E1,1.6439356E1,6.4044075E0,5.2534103E0,0E0,0E0,0E0,1.3488321E0,4.0551634E0,6.1448364E0,7.8656406E0,1.8842993E1,2.1123356E1,1.4761556E1,1.2240952E1,5.901141E0,0E0,0E0,5.921219E0,3.2214265E0,3.6596184E1,1.820794E1,1.3308369E1,1.0298096E1,5.6657033E0,1.4569099E0,4.030998E0,0E0,0E0,6.344881E-1,3.3800888E0,0E0,1.3538152E1,6.0078754E0,0E0,0E0,0E0,0E0,0E0,0E0,0E0,0E0,0E0,0E0,0E0,0E0,0E0,0E0,0E0,0E0,0E0,0E0,0E0,0E0,0E0,0E0,0E0,0E0,0E0,0E0,0E0,0E0,0E0,0E0,0E0,0E0,0E0,0E0,0E0,0E0,0E0,0E0],"parents":[2147483647,0,0,1,1,2,2,3,3,4,4,5,5,6,6,7,7,8,8,9,9,10,10,11,11,12,12,13,13,14,14,15,15,16,16,18,18,19,19,20,20,21,21,22,22,23,23,24,24,28,28,29,29,30,30,31,31,32,32,33,33,34,34,35,35,36,36,39,39,40,40,41,41,42,42,43,43,44,44,45,45,46,46,47,47,50,50,51,51,53,53,54,54],"right_children":[2,4,6,8,10,12,14,16,18,20,22,24,26,28,30,32,34,-1,36,38,40,42,44,46,48,-1,-1,-1,50,52,54,56,58,60,62,64,66,-1,-1,68,70,72,74,76,78,80,82,84,-1,-1,86,88,-1,90,92,-1,-1,-1,-1,-1,-1,-1,-1,-1,-1,-1,-1,-1,-1,-1,-1,-1,-1,-1,-1,-1,-1,-1,-1,-1,-1,-1,-1,-1,-1,-1,-1,-1,-1,-1,-1,-1,-1],"split_conditions":[5E-1,6.7833334E-1,5.785E2,1.0395E3,1.98399E1,2.715E2,4.05E1,5.055E2,2.45E1,-6.5E0,6.65E1,8.875E1,6.575E-1,2E0,6.35E1,7.05E1,7.75E1,-4.849333E-1,8.55E1,6.2955E0,7.4820004E0,7.3E1,2.939665E1,8.19E2,9.05E1,5.9568256E-2,-4.142355E-1,-1.4068529E-1,6.465E2,7.95E1,1.575E2,1.2035E0,3.55E1,1.635E2,1.6085E0,7.7E1,4.9E1,8.6827025E-2,3.6774012E-1,8E0,1.11E2,5.885E2,7.15E1,2.9E1,3.25E1,2.57E2,4.55E1,4.15E1,-2.0766936E-1,-3.5083795E-3,1.85E2,5.25E1,4.099984E-2,8.15E1,2.1E1,1.339345E-1,-3.3634782E-1,3.3268183E-1,-6.8625696E-2,-1.1880086E-1,1.2545757E-2,1.4508995E-1,-6.053724E-2,2.1221721E-1,-2.8878245E-1,1.4446262E-1,-5.144694E-1,1.924529E-1,-4.074469E-1,-2.1126975E-1,2.7915055E-1,1.0637693E-1,-2.2071601E-1,4.445355E-3,9.486858E-2,-2.2995496E-1,2.6510623E-1,1.3677335E-1,-4.637784E-1,-4.131156E-1,1.722229E-1,-5.276584E-2,2.9727542E-1,-2.1884681E-1,2.2148563E-1,3.2332772E-1,8.678877E-2,-2.2061338E-4,-5.833634E-1,-6.3707596E-1,1.7125216E-1,-2.7144492E-1,2.629687E-1],"split_indices":[0,50,29,21,4,35,30,22,15,17,40,51,50,38,36,33,36,0,33,3,3,11,4,21,48,0,0,0,24,48,35,2,16,55,2,15,43,0,0,46,7,23,5,15,42,35,42,40,0,0,9,48,0,33,44,0,0,0,0,0,0,0,0,0,0,0,0,0,0,0,0,0,0,0,0,0,0,0,0,0,0,0,0,0,0,0,0,0,0,0,0,0,0],"split_type":[0,0,0,0,0,0,0,0,0,0,0,0,0,0,0,0,0,0,0,0,0,0,0,0,0,0,0,0,0,0,0,0,0,0,0,0,0,0,0,0,0,0,0,0,0,0,0,0,0,0,0,0,0,0,0,0,0,0,0,0,0,0,0,0,0,0,0,0,0,0,0,0,0,0,0,0,0,0,0,0,0,0,0,0,0,0,0,0,0,0,0,0,0],"sum_hessian":[2.7466682E3,2.6209314E3,1.25736664E2,9.443705E2,1.6765609E3,9.0061005E1,3.567566E1,8.5561273E2,8.87578E1,3.2147995E1,1.644413E3,8.745957E1,2.6014323E0,1.356583E1,2.2109827E1,6.2510334E1,7.9310236E2,4.450765E0,8.430703E1,5.111747E0,2.703625E1,1.5748138E3,6.959908E1,9.2946E0,7.816498E1,1.1535151E0,1.4479172E0,1.1436697E0,1.2422161E1,7.1299157E0,1.4979912E1,1.442205E1,4.8088284E1,6.681634E2,1.2493902E2,7.957756E1,4.729471E0,2.6734152E0,2.4383316E0,2.3883163E1,3.1530857E0,1.2972699E2,1.4450869E3,6.0886806E1,8.7122755E0,5.2647023E0,4.0298967E0,7.614576E1,2.0192146E0,1.6053681E0,1.08167925E1,5.714785E0,1.4151305E0,5.8068094E0,9.173102E0,3.7877977E0,1.06342535E1,3.333091E1,1.4757374E1,5.292872E2,1.3887622E2,6.81162E1,5.6822815E1,7.577049E1,3.8070662E0,1.169303E0,3.560168E0,1.0136684E0,2.2869495E1,1.0765231E0,2.0765626E0,4.8404774E1,8.132222E1,1.2056804E3,2.3940646E2,4.586009E0,5.6300797E1,4.052474E0,4.6598015E0,3.7640998E0,1.5006027E0,1.1047462E0,2.9251504E0,1.1596678E0,7.498609E1,8.65515E0,2.1616426E0,1.063733E0,4.651052E0,2.4522843E0,3.3545249E0,1.5528326E0,7.6202703E0],"tree_param":{"num_deleted":"0","num_feature":"56","num_nodes":"93","size_leaf_vector":"0"}},{"base_weights":[-3.1201488E-3,-1.6578838E-2,3.9822844E-1,-1.9244194E-1,1.6862916E-2,-1.240784E-1,6.374537E-1,-3.1161353E-1,1.9907132E-1,2.0781216E-1,-1.9986218E-2,-1.0938898E0,6.379211E-1,7.823129E-1,-8.3056E-1,-3.9796573E-1,5.246065E-1,4.8416272E-1,-6.752664E-1,1.1850713E-1,7.567891E-1,-4.4650814E-1,2.6776302E-3,5.316996E-1,-1.4509805E0,-3.4647405E-1,1.1281428E0,1.0075479E0,1.21296026E-1,-1.6758089E0,7.8292125E-1,-9.0720814E-1,-2.3071732E-1,1.4210091E0,-2.2814125E-1,-5.1404163E-2,8.484231E-1,-1.1499435E0,5.092204E-1,3.2812178E-1,-6.664174E-2,1.5069536E0,4.624562E-1,-1.4229341E-2,-8.4191245E-1,-1.1924542E0,1.1539902E-2,1.19380705E-1,6.797652E-1,-1.8820366E0,1.4724593E-1,6.903884E-1,-1.4978039E0,1.1848768E0,-1.8103316E-1,-8.0818474E-1,8.856903E-1,8.6208653E-1,-9.8970634E-1,4.9751844E-2,-5.686451E-1,2.6320279E0,8.2866955E-1,-1.3062224E0,4.550684E-1,2.6824552E-1,-1.1708992E0,1.3384086E0,7.184699E-2,1.3039158E-1,-1.2617174E0,1.2132353E0,-1.0576036E0,-1.349401E-1,5.5450886E-1,2.4548058E-1,-3.6817607E-1,2.4031205E0,1.0653114E0,-1.4962119E0,6.236918E-1,1.1461799E0,-3.3611953E-1,7.179341E-1,-1.027423E0,-1.5144066E0,5.3345746E-1,2.735491E-1,-2.5081452E-2,-2.1542634E-1,4.625452E-1,1.0793057E-1,1.2493494E0,-1.4815428E0,7.3702604E-1,-1.5832493E0,6.14791E-1,-2.4835981E-1,1.1072348E0],"categories":[],"categories_nodes":[],"categories_segments":[],"categories_sizes":[],"default_left":[1,1,1,1,1,1,1,1,1,1,1,1,1,1,1,1,1,1,1,1,1,1,1,1,1,1,0,1,1,0,0,1,1,1,1,1,1,1,1,1,1,1,1,1,1,1,1,0,0,0,1,0,0,1,1,1,1,0,0,0,0,0,0,0,0,0,0,0,0,0,0,0,0,0,0,0,0,0,0,0,0,0,0,0,0,0,0,0,0,0,0,0,0,0,0,0,0,0,0],"id":12,"left_children":[1,3,5,7,9,11,13,15,17,19,21,23,25,27,29,31,33,35,37,39,41,43,45,47,49,51,-1,53,55,-1,-1,57,59,61,63,65,67,69,71,73,75,77,79,81,83,85,87,-1,-1,-1,89,-1,-1,91,93,95,97,-1,-1,-1,-1,-1,-1,-1,-1,-1,-1,-1,-1,-1,-1,-1,-1,-1,-1,-1,-1,-1,-1,-1,-1,-1,-1,-1,-1,-1,-1,-1,-1,-1,-1,-1,-1,-1,-1,-1,-1,-1,-1],"loss_changes":[1.4581612E1,1.5362957E1,1.1022984E1,1.9535E1,1.5451074E1,2.1649323E1,1.3459162E1,2.3341633E1,2.4756094E1,1.7324795E1,1.77985E1,8.226619E0,8.357334E0,8.117104E0,9.35167E0,2.4570145E1,2.0848288E1,1.457526E1,1.4369556E1,1.192461E1,1.0235455E1,1.5866907E1,1.8540644E1,1.0474187E-1,7.7161827E0,8.498804E0,0E0,8.885403E0,1.15161495E1,0E0,0E0,1.1302483E1,2.0912975E1,7.877306E0,1.340663E1,1.1441912E1,1.6795412E1,2.7131157E0,9.7843685E0,1.5171751E1,1.5495375E1,2.7868595E0,1.2619057E1,1.7342392E1,1.4772591E1,7.9675846E0,1.6676704E1,0E0,0E0,0E0,4.67983E-1,0E0,0E0,2.3599625E0,8.504363E0,9.115789E0,2.490582E0,0E0,0E0,0E0,0E0,0E0,0E0,0E0,0E0,0E0,0E0,0E0,0E0,0E0,0E0,0E0,0E0,0E0,0E0,0E0,0E0,0E0,0E0,0E0,0E0,0E0,0E0,0E0,0E0,0E0,0E0,0E0,0E0,0E0,0E0,0E0,0E0,0E0,0E0,0E0,0E0,0E0,0E0],"parents":[2147483647,0,0,1,1,2,2,3,3,4,4,5,5,6,6,7,7,8,8,9,9,10,10,11,11,12,12,13,13,14,14,15,15,16,16,17,17,18,18,19,19,20,20,21,21,22,22,23,23,24,24,25,25,27,27,28,28,31,31,32,32,33,33,34,34,35,35,36,36,37,37,38,38,39,39,40,40,41,41,42,42,43,43,44,44,45,45,46,46,50,50,53,53,54,54,55,55,56,56],"right_children":[2,4,6,8,10,12,14,16,18,20,22,24,26,28,30,32,34,36,38,40,42,44,46,48,50,52,-1,54,56,-1,-1,58,60,62,64,66,68,70,72,74,76,78,80,82,84,86,88,-1,-1,-1,90,-1,-1,92,94,96,98,-1,-1,-1,-1,-1,-1,-1,-1,-1,-1,-1,-1,-1,-1,-1,-1,-1,-1,-1,-1,-1,-1,-1,-1,-1,-1,-1,-1,-1,-1,-1,-1,-1,-1,-1,-1,-1,-1,-1,-1,-1,-1],"split_conditions":[3.766925E1,5.75E1,5.572E0,9.1E1,4.9624996E0,6.77E2,5.45E1,2.575E1,1.6470001E0,9.81E2,1.35E1,7.5E0,3.1E1,8.09E2,1.06E2,4.115E2,1.445E2,9.83E2,3.0179401E1,8.227835E0,6.765E2,1.275E1,5.0024996E0,1.55E2,8.05E1,1.295E2,3.3844286E-1,4.246825E1,7.275E1,-5.027427E-1,2.3487638E-1,3.7280002E0,5.25E1,2.35E1,2.96725E1,4.35E1,1.395E2,5.925E-1,4.265E2,1.3675E2,1.475E1,4.15E1,4.85E1,4.05E2,5.19E2,3.25743E1,6.27765E0,3.5814214E-2,2.0392957E-1,-5.64611E-1,1.04E2,2.0711653E-1,-4.493412E-1,9.875E1,2.145E2,9.1E1,5.6E1,2.5862598E-1,-2.9691193E-1,1.4925553E-2,-1.7059354E-1,7.896084E-1,2.4860087E-1,-3.9186674E-1,1.3652053E-1,8.047366E-2,-3.5126975E-1,4.015226E-1,2.1554098E-2,3.9117478E-2,-3.7851524E-1,3.6397058E-1,-3.172811E-1,-4.0482033E-2,1.6635266E-1,7.3644176E-2,-1.1045282E-1,7.209362E-1,3.1959343E-1,-4.488636E-1,1.8710755E-1,3.4385398E-1,-1.0083587E-1,2.1538024E-1,-3.082269E-1,-4.5432198E-1,1.6003725E-1,8.206473E-2,-7.524436E-3,-6.462791E-2,1.3876356E-1,3.2379173E-2,3.7480482E-1,-4.4446287E-1,2.2110783E-1,-4.749748E-1,1.844373E-1,-7.4507944E-2,3.3217046E-1],"split_indices":[4,5,3,11,3,23,17,45,2,19,31,15,17,18,11,13,55,14,4,34,22,52,3,9,37,41,0,4,46,0,0,3,42,32,4,16,41,50,13,47,45,30,40,12,22,4,34,0,0,0,7,0,0,49,35,11,36,0,0,0,0,0,0,0,0,0,0,0,0,0,0,0,0,0,0,0,0,0,0,0,0,0,0,0,0,0,0,0,0,0,0,0,0,0,0,0,0,0,0],"split_type":[0,0,0,0,0,0,0,0,0,0,0,0,0,0,0,0,0,0,0,0,0,0,0,0,0,0,0,0,0,0,0,0,0,0,0,0,0,0,0,0,0,0,0,0,0,0,0,0,0,0,0,0,0,0,0,0,0,0,0,0,0,0,0,0,0,0,0,0,0,0,0,0,0,0,0,0,0,0,0,0,0,0,0,0,0,0,0,0,0,0,0,0,0,0,0,0,0,0,0],"sum_hessian":[2.697263E3,2.610676E3,8.658685E1,4.1636203E2,2.1943142E3,2.7351322E1,5.923553E1,3.1935773E2,9.7004295E1,3.5420627E2,1.8401078E3,1.1842981E1,1.5508341E1,5.434047E1,4.8950615E0,2.8994107E2,2.941666E1,7.348848E1,2.351581E1,3.0569336E2,4.851291E1,9.1899796E1,1.748208E3,2.044914E0,9.798067E0,5.253075E0,1.0255265E1,4.01392E1,1.4201274E1,3.1869144E0,1.708147E0,7.0588135E1,2.1935294E2,1.3021897E1,1.6394764E1,3.0096664E1,4.3391815E1,1.6808895E1,6.706915E0,1.4301172E2,1.6268164E2,1.2509675E1,3.6003235E1,4.439768E1,4.7502117E1,1.1885027E1,1.736323E3,1.017565E0,1.0273489E0,7.5769243E0,2.2211425E0,2.974585E0,2.2784903E0,3.4930847E1,5.2083497E0,6.3827505E0,7.8185234E0,2.7237432E0,6.7864395E1,1.2033311E2,9.901982E1,3.1461828E0,9.875714E0,6.0058494E0,1.0388914E1,2.4003365E1,6.0933E0,2.6161552E1,1.7230265E1,1.3362317E0,1.5472664E1,4.783318E0,1.9235972E0,4.709189E1,9.591983E1,8.002872E1,8.265293E1,2.6635501E0,9.846125E0,2.108599E0,3.3894634E1,9.085134E0,3.5312546E1,4.743856E0,4.275826E1,1.0119819E1,1.7652087E0,2.1213359E2,1.5241895E3,1.1802819E0,1.0408607E0,2.1240969E0,3.280675E1,1.9012661E0,3.3070836E0,4.0591726E0,2.323578E0,1.2579985E0,6.560525E0],"tree_param":{"num_deleted":"0","num_feature":"56","num_nodes":"99","size_leaf_vector":"0"}},{"base_weights":[-2.411147E-3,5.6585103E-1,-1.053808E-2,7.125098E-1,-1.2109716E0,-1.484441E0,-7.0939134E-3,8.169478E-1,-1.1928957E0,5.1179236E-1,-1.6649876E-2,-2.3479292E-1,9.219331E-1,6.3416356E-1,-1.4762392E0,-5.4796677E-2,1.150818E-1,-7.898292E-1,5.9767336E-1,1.1149347E0,2.5223574E-1,7.602118E-1,-9.7057265E-1,-2.0363362E-1,1.963071E-3,-3.996331E-2,2.8619134E-1,5.108244E-1,1.3515861E0,5.885088E-1,-1.014023E0,-4.2856133E-1,9.012462E-1,-1.1428882E0,-2.828063E-1,-4.2976928E-1,-2.9380342E-2,-3.8051125E-1,3.6576405E-2,-3.5687736E-1,1.2822646E-1,5.950725E-1,1.2061146E-1],"categories":[],"categories_nodes":[],"categories_segments":[],"categories_sizes":[],"default_left":[1,1,1,1,0,0,1,1,0,1,1,1,1,1,0,1,1,0,0,1,1,1,1,1,1,1,1,0,0,0,0,0,0,0,0,0,0,0,0,0,0,0,0],"id":13,"left_children":[1,3,5,7,-1,-1,9,11,-1,13,15,17,19,21,-1,23,25,-1,-1,27,29,31,33,35,37,39,41,-1,-1,-1,-1,-1,-1,-1,-1,-1,-1,-1,-1,-1,-1,-1,-1],"loss_changes":[1.22647505E1,1.0620529E1,1.3279347E1,7.983122E0,0E0,0E0,1.2964433E1,3.9687786E0,0E0,1.2438629E1,1.2903888E1,2.265431E0,3.7387466E0,9.888531E0,0E0,1.6819813E1,1.5310155E1,0E0,0E0,2.7194405E0,4.1098514E0,7.5125694E0,1.1929512E-1,2.1646528E1,1.9107975E1,1.6218077E1,1.395476E1,0E0,0E0,0E0,0E0,0E0,0E0,0E0,0E0,0E0,0E0,0E0,0E0,0E0,0E0,0E0,0E0],"parents":[2147483647,0,0,1,1,2,2,3,3,6,6,7,7,9,9,10,10,11,11,12,12,13,13,15,15,16,16,19,19,20,20,21,21,22,22,23,23,24,24,25,25,26,26],"right_children":[2,4,6,8,-1,-1,10,12,-1,14,16,18,20,22,-1,24,26,-1,-1,28,30,32,34,36,38,40,42,-1,-1,-1,-1,-1,-1,-1,-1,-1,-1,-1,-1,-1,-1,-1,-1],"split_conditions":[3.6635E0,1.4655E0,-3.75E0,8.4416664E-1,-3.632915E-1,-4.4533232E-1,-1.25E1,5.45E1,-3.578687E-1,1.8625E2,9.1E1,3.57915E1,4.6E1,7.12E2,-4.4287178E-1,2.391505E1,7.125E-1,-2.3694877E-1,1.79302E-1,2.45E1,1.287E0,2.225195E1,6.95E1,1.7195001E0,5.05E1,6.75E1,4.85E1,1.5324733E-1,4.0547585E-1,1.7655264E-1,-3.042069E-1,-1.2856841E-1,2.7037388E-1,-3.4286648E-1,-8.484189E-2,-1.2893079E-1,-8.814103E-3,-1.1415338E-1,1.0972922E-2,-1.0706321E-1,3.846794E-2,1.7852175E-1,3.618344E-2],"split_indices":[3,2,44,50,0,0,15,5,0,54,11,4,17,26,0,4,50,0,0,44,2,4,36,2,40,33,42,0,0,0,0,0,0,0,0,0,0,0,0,0,0,0,0],"split_type":[0,0,0,0,0,0,0,0,0,0,0,0,0,0,0,0,0,0,0,0,0,0,0,0,0,0,0,0,0,0,0,0,0,0,0,0,0,0,0,0,0,0,0],"sum_hessian":[2.653435E3,3.644511E1,2.61699E3,3.4219624E1,2.2254877E0,5.0985665E0,2.6118914E3,3.2983025E1,1.2365992E0,4.6281124E1,2.5656104E3,2.8813438E0,3.010168E1,4.4239044E1,2.0420797E0,1.9899465E3,5.7566376E2,1.7594626E0,1.1218814E0,2.2851286E1,7.2503953E0,4.150518E1,2.7338636E0,5.486566E2,1.4412899E3,3.024109E2,2.732529E2,7.321058E0,1.5530228E1,6.1519065E0,1.0984885E0,4.1856675E0,3.7319515E1,1.656979E0,1.0768846E0,2.381427E2,3.1051392E2,1.1878066E2,1.3225093E3,1.0445956E2,1.9795132E2,9.4456E1,1.787969E2],"tree_param":{"num_deleted":"0","num_feature":"56","num_nodes":"43","size_leaf_vector":"0"}},{"base_weights":[-2.0466198E-3,-1.6844144E-2,2.788996E-1,5.5304825E-2,-9.423556E-2,3.6818975E-1,-8.3447397E-1,-8.844143E-2,1.5805778E-1,-1.2549843E-1,5.53146E-1,-1.4141747E0,4.2757753E-1,-1.470135E0,4.2976713E-1,-4.1427236E-2,-1.0311341E0,2.7608857E-1,-3.0899644E-2,1.6909489E-1,-1.9322953E-1,6.817387E-1,-1.8133495E0,-1.0361241E0,5.0808287E-1,6.265223E-1,-2.0174975E0,-4.6491584E-1,9.6193016E-1,-7.7709323E-1,1.238453E-3,-1.3827406E0,6.2462E-1,2.9887497E-1,-1.022492E0,-5.3442496E-1,1.22733645E-1,5.0010394E-2,8.9365715E-1,5.35292E-1,-2.3115155E-1,8.171397E-1,-1.2093447E0,-5.399033E-1,-2.2277858E0,-1.6404736E0,4.237742E-1,7.542692E-1,9.059048E-2,-1.2786647E0,3.5970606E-2,-1.1751193E0,2.6576908E-2,-1.6171321E0,7.960104E-1,9.959925E-1,-2.4539259E-1,3.1545728E-1,-1.5170099E0,8.843549E-1,-1.7190268E0,1.7855975E-1,-8.5309213E-1,-2.1149972E-2,7.686945E-1,-3.487771E-1,2.0210423E-1,1.014669E0,-9.46873E-1,3.042959E-1,1.2624583E0,-3.9927742E-1,-5.215441E-2,-9.234851E-1,8.7757576E-1,-1.7487473E0,1.14920355E-1,8.7725484E-1,-1.8279465E-1,-9.0814155E-1,4.1655508E-1],"categories":[],"categories_nodes":[],"categories_segments":[],"categories_sizes":[],"default_left":[1,1,1,1,1,1,1,1,1,1,1,0,1,1,1,1,1,1,1,1,1,1,1,1,1,0,0,0,0,1,1,1,1,1,1,1,1,1,1,1,1,1,1,0,0,0,0,1,1,0,0,0,0,0,0,0,0,0,0,0,0,0,0,0,0,0,0,0,0,0,0,0,0,0,0,0,0,0,0,0,0],"id":14,"left_children":[1,3,5,7,9,11,13,15,17,19,21,-1,23,25,27,29,31,33,35,37,39,41,43,45,47,-1,-1,-1,-1,49,51,53,55,57,59,61,63,65,67,69,71,73,75,-1,-1,-1,-1,77,79,-1,-1,-1,-1,-1,-1,-1,-1,-1,-1,-1,-1,-1,-1,-1,-1,-1,-1,-1,-1,-1,-1,-1,-1,-1,-1,-1,-1,-1,-1,-1,-1],"loss_changes":[1.0959853E1,1.3988213E1,1.342054E1,1.916596E1,2.4530243E1,1.3603912E1,8.747978E0,2.3940956E1,1.6880632E1,2.3053345E1,1.8235504E1,0E0,1.462141E1,9.236126E0,2.4244394E0,1.6212212E1,1.580484E1,1.4086918E1,2.2635563E1,1.8610554E1,2.6052517E1,1.474058E1,4.608307E-1,6.48744E0,1.1653862E1,0E0,0E0,0E0,0E0,1.1592566E1,1.4611982E1,1.225679E1,1.9194107E0,1.4284256E1,1.2488007E1,1.5692091E1,2.0869328E1,1.1397326E1,7.7448444E0,7.4665604E0,2.6846905E1,6.1456757E0,3.0523725E0,0E0,0E0,0E0,0E0,8.412823E0,1.4521067E1,0E0,0E0,0E0,0E0,0E0,0E0,0E0,0E0,0E0,0E0,0E0,0E0,0E0,0E0,0E0,0E0,0E0,0E0,0E0,0E0,0E0,0E0,0E0,0E0,0E0,0E0,0E0,0E0,0E0,0E0,0E0,0E0],"parents":[2147483647,0,0,1,1,2,2,3,3,4,4,5,5,6,6,7,7,8,8,9,9,10,10,12,12,13,13,14,14,15,15,16,16,17,17,18,18,19,19,20,20,21,21,22,22,23,23,24,24,29,29,30,30,31,31,32,32,33,33,34,34,35,35,36,36,37,37,38,38,39,39,40,40,41,41,42,42,47,47,48,48],"right_children":[2,4,6,8,10,12,14,16,18,20,22,-1,24,26,28,30,32,34,36,38,40,42,44,46,48,-1,-1,-1,-1,50,52,54,56,58,60,62,64,66,68,70,72,74,76,-1,-1,-1,-1,78,80,-1,-1,-1,-1,-1,-1,-1,-1,-1,-1,-1,-1,-1,-1,-1,-1,-1,-1,-1,-1,-1,-1,-1,-1,-1,-1,-1,-1,-1,-1,-1,-1],"split_conditions":[2.0041666E2,6.75E1,1.0395E3,1.55E2,7.45E1,4.61E2,1.315E2,1.7425E2,5.785E2,1.2655001E0,1.175E2,-4.2425242E-1,1.3E1,4.955E0,7.0015E0,6.025E-1,6.85E1,1.925E1,5.395E2,1.745E2,4.83532E0,9.2E2,5.95E1,8.37E2,5.95E1,1.879567E-1,-6.052493E-1,-1.3947476E-1,2.8857905E-1,5.15E1,1.9556099E1,4.85E2,5.195E2,8.06E2,3.37E2,1.63E2,1.15E2,1.275E2,1.965E2,6.15E1,5.95E1,5.1E1,7.85E1,-1.6197099E-1,-6.683358E-1,-4.921421E-1,1.2713227E-1,2.745E2,1.685E2,-3.8359943E-1,1.07911825E-2,-3.5253578E-1,7.973073E-3,-4.8513964E-1,2.3880312E-1,2.9879776E-1,-7.361778E-2,9.463719E-2,-4.5510298E-1,2.6530647E-1,-5.157081E-1,5.3567927E-2,-2.5592765E-1,-6.344992E-3,2.3060836E-1,-1.0463313E-1,6.063127E-2,3.0440068E-1,-2.840619E-1,9.1288775E-2,3.787375E-1,-1.1978323E-1,-1.5646324E-2,-2.7704555E-1,2.6327273E-1,-5.246242E-1,3.447611E-2,2.6317647E-1,-5.4838397E-2,-2.724425E-1,1.24966525E-1],"split_indices":[54,43,19,9,5,28,41,54,28,2,51,0,15,3,3,50,17,52,26,54,34,24,37,24,15,0,0,0,0,16,4,12,26,24,12,9,7,41,54,36,40,48,5,0,0,0,0,35,55,0,0,0,0,0,0,0,0,0,0,0,0,0,0,0,0,0,0,0,0,0,0,0,0,0,0,0,0,0,0,0,0],"split_type":[0,0,0,0,0,0,0,0,0,0,0,0,0,0,0,0,0,0,0,0,0,0,0,0,0,0,0,0,0,0,0,0,0,0,0,0,0,0,0,0,0,0,0,0,0,0,0,0,0,0,0,0,0,0,0,0,0,0,0,0,0,0,0,0,0,0,0,0,0,0,0,0,0,0,0,0,0,0,0,0,0],"sum_hessian":[2.6341555E3,2.5032485E3,1.3090683E2,1.2956504E3,1.2075983E3,1.2180744E2,9.099393E0,5.401486E2,7.555017E2,1.1527373E3,5.4860977E1,3.1921139E0,1.1861533E2,5.9465866E0,3.1528065E0,5.154842E2,2.4664408E1,4.6474268E2,2.9075903E2,2.1520714E2,9.375302E2,5.2708763E1,2.1522126E0,5.5650263E0,1.130503E2,1.2011174E0,4.745469E0,1.2230151E0,1.9297913E0,2.7313625E1,4.881706E2,2.048023E1,4.1841784E0,4.5748495E2,7.2577167E0,6.739541E1,2.2336362E2,1.8574782E2,2.9459324E1,4.57381E1,8.917921E2,4.971694E1,2.99182E0,1.0938526E0,1.0583601E0,3.8482769E0,1.7167494E0,7.0607765E1,4.244254E1,1.6538519E1,1.0775106E1,9.336559E0,4.78834E2,1.8723694E1,1.7565355E0,2.830957E0,1.3532212E0,4.541639E2,3.32106E0,1.8696575E0,5.388059E0,2.095359E1,4.644182E1,1.834652E2,3.989843E1,5.0926426E1,1.348214E2,2.806294E1,1.3963834E0,3.5787945E1,9.950151E0,4.5922614E2,4.3256595E2,1.1891042E0,4.852784E1,1.8981285E0,1.0936916E0,6.2472355E1,8.135407E0,1.0004245E1,3.2438297E1],"tree_param":{"num_deleted":"0","num_feature":"56","num_nodes":"81","size_leaf_vector":"0"}},{"base_weights":[-2.0461134E-3,3.718427E-1,-1.3331729E-2,6.5275896E-1,-1.2264006E-1,-4.2845747E-1,4.4295657E-3,9.42841E-1,-5.6238994E-2,-6.5985E-1,5.1874113E-1,-5.81841E-1,3.8332194E-1,-4.2540543E-2,9.258037E-2,-7.422066E-1,1.0469434E0,-1.2371063E0,5.335084E-1,1.7798804E-1,-1.4624236E0,-7.788225E-1,9.006295E-1,1.8338244E-1,-7.452392E-1,-1.1672821E0,9.845009E-1,1.2294121E-2,-2.722872E-1,-1.265604E0,1.1087986E-1,1.4254249E0,4.8695794E-1,-1.0269376E0,9.387735E-1,7.637058E-1,-1.0306141E0,-5.8190364E-2,-1.0586921E0,1.1762059E0,-8.785343E-2,-9.218165E-1,7.1727866E-1,-9.0999746E-1,3.755778E-1,-6.519819E-1,1.2401855E0,1.8860985E-1,-4.8683774E-2,-1.3502144E0,-2.092275E-1,-2.053066E0,-1.8984379E-1,3.649971E-2,3.7405252E-1,4.1176814E-1,1.5457407E0,8.646693E-1,-1.0592421E0,1.2388042E0,-5.449934E-2,5.2961823E-2,9.5423615E-1,-7.0314133E-1,5.9579223E-1,-7.5499064E-1,1.0212451E0,7.41856E-1,-1.002195E0,-8.8075346E-1,1.0215762E0,1.4585131E0,5.5082977E-1,5.2658236E-1,2.5620649E-2,-8.3061256E-2,5.935092E-1,-1.7431427E0,4.269121E-1,1.7070481E-1,-3.48598E-1,-9.642686E-1,7.66696E-1,6.004706E-1,2.399676E-3,4.1105294E-1,-1.5880003E0],"categories":[],"categories_nodes":[],"categories_segments":[],"categories_sizes":[],"default_left":[1,1,1,1,1,1,1,1,1,1,1,1,1,1,1,0,1,0,1,1,0,1,1,1,1,0,1,1,1,1,1,1,1,0,1,1,0,0,0,0,1,0,1,1,1,0,1,1,1,1,1,0,1,1,1,0,0,0,0,0,0,0,0,0,0,0,0,0,0,0,0,0,0,0,0,0,0,0,0,0,0,0,0,0,0,0,0],"id":15,"left_children":[1,3,5,7,9,11,13,15,17,19,21,23,25,27,29,-1,31,-1,33,35,-1,37,39,41,43,-1,45,47,49,51,53,55,57,-1,59,61,-1,-1,-1,-1,63,-1,65,67,69,-1,71,73,75,77,79,-1,81,83,85,-1,-1,-1,-1,-1,-1,-1,-1,-1,-1,-1,-1,-1,-1,-1,-1,-1,-1,-1,-1,-1,-1,-1,-1,-1,-1,-1,-1,-1,-1,-1,-1],"loss_changes":[1.0962599E1,1.0654135E1,1.859513E1,1.0069597E1,1.0134602E1,1.3107319E1,1.0020792E1,6.8496914E0,1.1165059E1,1.0956003E1,7.39791E0,1.106852E1,1.7040594E1,1.989542E1,2.1049778E1,0E0,6.3040123E0,0E0,7.7679424E0,6.927122E0,0E0,6.663041E-1,3.0738125E0,1.0212195E1,1.3682468E1,0E0,6.1757164E0,1.3724562E1,2.0401152E1,9.153011E0,1.6253487E1,1.7031174E0,9.579957E0,0E0,2.7684655E0,8.183954E-1,0E0,0E0,0E0,0E0,1.8103285E0,0E0,5.906992E0,1.0380314E1,8.988424E0,0E0,9.181366E-1,1.8055859E1,2.0992973E1,1.235939E1,1.5344179E1,0E0,5.0823116E0,1.2480037E1,1.3938602E1,0E0,0E0,0E0,0E0,0E0,0E0,0E0,0E0,0E0,0E0,0E0,0E0,0E0,0E0,0E0,0E0,0E0,0E0,0E0,0E0,0E0,0E0,0E0,0E0,0E0,0E0,0E0,0E0,0E0,0E0,0E0,0E0],"parents":[2147483647,0,0,1,1,2,2,3,3,4,4,5,5,6,6,7,7,8,8,9,9,10,10,11,11,12,12,13,13,14,14,16,16,18,18,19,19,21,21,22,22,23,23,24,24,26,26,27,27,28,28,29,29,30,30,31,31,32,32,34,34,35,35,40,40,42,42,43,43,44,44,46,46,47,47,48,48,49,49,50,50,52,52,53,53,54,54],"right_children":[2,4,6,8,10,12,14,16,18,20,22,24,26,28,30,-1,32,-1,34,36,-1,38,40,42,44,-1,46,48,50,52,54,56,58,-1,60,62,-1,-1,-1,-1,64,-1,66,68,70,-1,72,74,76,78,80,-1,82,84,86,-1,-1,-1,-1,-1,-1,-1,-1,-1,-1,-1,-1,-1,-1,-1,-1,-1,-1,-1,-1,-1,-1,-1,-1,-1,-1,-1,-1,-1,-1,-1,-1],"split_conditions":[9.325E1,4.275E2,8.083333E1,1.03E2,3.8333335E0,1.15E2,4.365E2,5.785E2,1.225E1,1.525E1,7.12E2,1.55E1,5.15E1,4.285E2,9.25E1,-2.2266199E-1,5.835E2,-3.711319E-1,3.99E2,5.45E1,-4.3872708E-1,6.2E1,2.45E1,9.75E0,1.535E2,-3.5018465E-1,6.215E2,5.835E2,-1.65E1,1.25E1,7.845E2,3.95E1,4.45E0,-3.080813E-1,2.6E1,7.315E2,-3.0918425E-1,-1.745711E-2,-3.1760764E-1,3.5286176E-1,7.15E1,-2.7654496E-1,5.15E1,1.17E2,9.5E1,-1.9559458E-1,1.5225E0,1.05E1,3.275E2,1.4E2,2.25E1,-6.159198E-1,8.5E1,4.1464996E0,9.15E1,1.2353045E-1,4.6372223E-1,2.594008E-1,-3.1777266E-1,3.7164128E-1,-1.6349802E-2,1.5888548E-2,2.8627086E-1,-2.109424E-1,1.7873767E-1,-2.264972E-1,3.0637354E-1,2.225568E-1,-3.0065852E-1,-2.6422605E-1,3.0647287E-1,4.3755397E-1,1.6524893E-1,1.5797472E-1,7.686195E-3,-2.4918377E-2,1.7805277E-1,-5.2294284E-1,1.2807363E-1,5.1211447E-2,-1.04579404E-1,-2.892806E-1,2.300088E-1,1.8014118E-1,7.199028E-4,1.23315886E-1,-4.764001E-1],"split_indices":[47,13,51,7,45,7,13,20,52,44,19,31,48,13,35,0,24,0,12,51,0,6,16,45,41,0,24,22,16,10,25,30,39,0,16,20,0,0,0,0,5,0,6,9,11,0,2,16,35,49,31,0,11,3,17,0,0,0,0,0,0,0,0,0,0,0,0,0,0,0,0,0,0,0,0,0,0,0,0,0,0,0,0,0,0,0,0],"split_type":[0,0,0,0,0,0,0,0,0,0,0,0,0,0,0,0,0,0,0,0,0,0,0,0,0,0,0,0,0,0,0,0,0,0,0,0,0,0,0,0,0,0,0,0,0,0,0,0,0,0,0,0,0,0,0,0,0,0,0,0,0,0,0,0,0,0,0,0,0,0,0,0,0,0,0,0,0,0,0,0,0,0,0,0,0,0,0],"sum_hessian":[2.5958647E3,7.512278E1,2.520742E3,4.7702724E1,2.7420055E1,1.0247695E2,2.418265E3,3.3618217E1,1.4084505E1,1.4906136E1,1.2513921E1,8.642957E1,1.6047379E1,1.5779764E3,8.402886E2,1.5994381E0,3.201878E1,4.325583E0,9.758923E0,7.6735964E0,7.232539E0,2.6091769E0,9.904743E0,1.5186439E1,7.124313E1,4.220334E0,1.1827045E1,1.2746875E3,3.032889E2,1.0264954E1,8.300236E2,1.81835E1,1.3835281E1,1.6957111E0,8.063211E0,5.4166603E0,2.256936E0,1.0677536E0,1.5414233E0,7.5969124E0,2.3078313E0,4.7099533E0,1.0476485E1,6.2276665E1,8.966471E0,1.3887229E0,1.0438322E1,3.2702155E2,9.4766595E2,1.5633964E1,2.8765497E2,5.4021053E0,4.862848E0,6.480147E2,1.8200888E2,2.3985128E0,1.57849865E1,1.1473316E1,2.3619657E0,6.002795E0,2.0604157E0,1.4152523E0,4.001408E0,1.1996326E0,1.1081985E0,1.5389149E0,8.937571E0,2.9196942E0,5.935697E1,2.9214551E0,6.045016E0,7.0801773E0,3.3581448E0,1.0567153E2,2.2135002E2,9.003402E2,4.7325794E1,1.2818808E1,2.8151567E0,7.714051E1,2.1051445E2,2.6827693E0,2.1800785E0,3.6000668E1,6.1201404E2,1.7941595E2,2.59293E0],"tree_param":{"num_deleted":"0","num_feature":"56","num_nodes":"87","size_leaf_vector":"0"}},{"base_weights":[-2.3948927E-3,-1.5296961E-2,2.9205206E-1,2.8659925E-1,-2.7916951E-2,5.337456E-1,5.395256E-3,-6.772206E-1,5.6835234E-1,-3.4684706E-1,-3.9081634E-3,4.826382E-2,8.0420214E-1,-3.5313657E-1,6.067813E-1,-1.7232659E0,3.6677025E-2,-3.912829E-1,7.973033E-1,-2.8367778E-2,-6.4328545E-1,-1.9865686E-2,3.140211E-1,3.6904594E-1,-1.1797178E0,-5.8451414E-1,8.7089545E-1,2.778753E-1,-8.569316E-1,8.111809E-1,-6.1142373E-1,-9.358246E-1,7.522051E-1,6.0985494E-1,-1.3603741E0,-7.8172064E-1,9.069012E-1,-4.3856215E-1,5.991159E-1,8.984932E-1,-7.5240034E-1,-1.4845686E-2,-1.1712594E0,6.035235E-1,-3.10732E-1,-7.039823E-1,6.6236335E-1,4.327633E-3,-1.7231426E0,-3.4923247E-1,9.2814964E-1,5.862686E-1,-6.682332E-1,-2.5554967E-1,-1.5693921E0,-3.374827E-1,1.0106825E0,-1.4273802E0,3.9722723E-1,5.3294027E-1,-1.3415793E0,1.1599811E0,-4.1161197E-1,-9.9507594E-1,1.2044363E0,-3.4273437E-1,-1.4576418E0,-1.1628429E0,2.613178E-1,9.7522885E-1,-1.1827322E0,-7.475446E-1,1.2705684E0,8.249547E-1,-1.3550695E0,6.931633E-2,1.47473E0,6.075232E-1,-8.9622736E-1,-1.0787471E-1,4.3176707E-2,-1.6032456E0,3.1659713E-1,6.986107E-1,-7.5252527E-1,7.9174054E-1,-7.653402E-1,-1.2263631E0,5.2491903E-1,8.45015E-1,-3.2398272E-1,9.767627E-1,6.2924616E-2,8.466893E-1,-7.612851E-1,-1.1829597E0,3.0910283E-1,-1.4789083E0,3.165407E-1,2.688069E-1,-2.0290842E0,-1.2136173E0,6.1250114E-1,1.8650676E-1,1.1230083E0],"categories":[],"categories_nodes":[],"categories_segments":[],"categories_sizes":[],"default_left":[1,1,1,1,1,1,1,1,1,1,1,1,1,1,1,0,1,1,1,1,1,1,1,1,1,0,1,1,1,1,1,1,1,1,1,1,1,1,1,1,1,1,1,1,1,1,1,0,0,0,1,1,1,1,1,1,1,0,0,0,0,0,0,0,0,0,0,0,0,0,0,0,0,0,0,0,0,0,0,0,0,0,0,0,0,0,0,0,0,0,0,0,0,0,0,0,0,0,0,0,0,0,0,0,0],"id":16,"left_children":[1,3,5,7,9,11,13,15,17,19,21,23,25,27,29,-1,31,33,35,37,39,41,43,45,47,-1,49,51,53,55,57,59,61,63,65,67,69,71,73,75,77,79,81,83,85,87,89,-1,-1,-1,91,93,95,97,99,101,103,-1,-1,-1,-1,-1,-1,-1,-1,-1,-1,-1,-1,-1,-1,-1,-1,-1,-1,-1,-1,-1,-1,-1,-1,-1,-1,-1,-1,-1,-1,-1,-1,-1,-1,-1,-1,-1,-1,-1,-1,-1,-1,-1,-1,-1,-1,-1,-1],"loss_changes":[9.740351E0,9.365696E0,7.4541273E0,2.7171879E1,1.8057926E1,7.627245E0,1.1048107E1,1.7066647E1,1.7201483E1,1.5569159E1,1.1139172E1,9.082825E0,3.9759712E0,1.044625E1,5.2605705E0,0E0,1.0802429E1,1.5846536E1,1.1506672E1,2.1018515E1,1.5053871E1,1.2065423E1,1.9167122E1,6.1842833E0,3.0864072E0,0E0,2.8473034E0,4.77151E0,7.354211E0,4.194501E0,3.2989964E0,4.6466303E0,4.7084217E0,9.12242E0,3.0956078E-1,2.1271837E0,9.549908E0,2.7005787E1,1.5372577E1,2.8145251E0,1.6262482E1,1.124492E1,6.3319244E0,9.815783E0,1.7590694E1,3.4586043E0,2.936976E0,0E0,0E0,0E0,1.4011402E0,4.8042793E0,2.4570904E0,8.17358E0,7.3819504E0,3.4383836E0,1.1400661E0,0E0,0E0,0E0,0E0,0E0,0E0,0E0,0E0,0E0,0E0,0E0,0E0,0E0,0E0,0E0,0E0,0E0,0E0,0E0,0E0,0E0,0E0,0E0,0E0,0E0,0E0,0E0,0E0,0E0,0E0,0E0,0E0,0E0,0E0,0E0,0E0,0E0,0E0,0E0,0E0,0E0,0E0,0E0,0E0,0E0,0E0,0E0,0E0],"parents":[2147483647,0,0,1,1,2,2,3,3,4,4,5,5,6,6,7,7,8,8,9,9,10,10,11,11,12,12,13,13,14,14,16,16,17,17,18,18,19,19,20,20,21,21,22,22,23,23,24,24,26,26,27,27,28,28,29,29,30,30,31,31,32,32,33,33,34,34,35,35,36,36,37,37,38,38,39,39,40,40,41,41,42,42,43,43,44,44,45,45,46,46,50,50,51,51,52,52,53,53,54,54,55,55,56,56],"right_children":[2,4,6,8,10,12,14,16,18,20,22,24,26,28,30,-1,32,34,36,38,40,42,44,46,48,-1,50,52,54,56,58,60,62,64,66,68,70,72,74,76,78,80,82,84,86,88,90,-1,-1,-1,92,94,96,98,100,102,104,-1,-1,-1,-1,-1,-1,-1,-1,-1,-1,-1,-1,-1,-1,-1,-1,-1,-1,-1,-1,-1,-1,-1,-1,-1,-1,-1,-1,-1,-1,-1,-1,-1,-1,-1,-1,-1,-1,-1,-1,-1,-1,-1,-1,-1,-1,-1,-1],"split_conditions":[5E-1,4.55E1,5.65E1,5.597E0,5.05E1,7.15E1,6.25E1,4.365E2,6.915E2,1.1375E2,9.615E2,1.0875E2,4.45E1,5.165E0,2.625E1,-5.169798E-1,7.8E1,5.235E2,3.86E2,1.0225E2,1.19E2,1.275E3,1.0475E2,7.7E1,6.26E2,-1.7535424E-1,5.105E2,7.25E1,6.35E1,4.668E0,9.1E1,9.05E1,7.3E1,9.975E1,1.65E1,6.95E1,8.865E2,7.12E2,9.045E2,2.85E1,7.75E0,6.8416667E-1,1.625E1,2.95E0,3.55E1,2.9E1,6.2E1,1.29829E-3,-5.169428E-1,-1.04769744E-1,1.09E3,8.125E1,7.45E1,4.15E1,8.35E1,1.02E2,5.77E2,-4.2821407E-1,1.1916817E-1,1.5988208E-1,-4.024738E-1,3.4799436E-1,-1.234836E-1,-2.985228E-1,3.613309E-1,-1.02820314E-1,-4.3729258E-1,-3.4885287E-1,7.839534E-2,2.9256865E-1,-3.548197E-1,-2.2426338E-1,3.8117054E-1,2.4748641E-1,-4.0652087E-1,2.0794898E-2,4.4241902E-1,1.8225697E-1,-2.688682E-1,-3.2362413E-2,1.2953012E-2,-4.809737E-1,9.4979145E-2,2.0958322E-1,-2.2575758E-1,2.3752217E-1,-2.2960207E-1,-3.6790892E-1,1.5747571E-1,2.535045E-1,-9.719482E-2,2.9302883E-1,1.8877385E-2,2.540068E-1,-2.2838555E-1,-3.548879E-1,9.273085E-2,-4.436725E-1,9.496221E-2,8.0642074E-2,-6.087253E-1,-3.640852E-1,1.8375035E-1,5.595203E-2,3.369025E-1],"split_indices":[0,40,40,3,40,53,40,13,19,54,24,54,40,3,45,0,53,23,12,54,9,21,51,11,24,0,25,36,6,3,11,49,33,51,31,17,25,29,20,31,45,50,52,38,42,44,15,0,0,0,19,46,48,30,41,7,24,0,0,0,0,0,0,0,0,0,0,0,0,0,0,0,0,0,0,0,0,0,0,0,0,0,0,0,0,0,0,0,0,0,0,0,0,0,0,0,0,0,0,0,0,0,0,0,0],"split_type":[0,0,0,0,0,0,0,0,0,0,0,0,0,0,0,0,0,0,0,0,0,0,0,0,0,0,0,0,0,0,0,0,0,0,0,0,0,0,0,0,0,0,0,0,0,0,0,0,0,0,0,0,0,0,0,0,0,0,0,0,0,0,0,0,0,0,0,0,0,0,0,0,0,0,0,0,0,0,0,0,0,0,0,0,0,0,0,0,0,0,0,0,0,0,0,0,0,0,0,0,0,0,0,0,0],"sum_hessian":[2.561766E3,2.455135E3,1.0663099E2,9.7641396E1,2.3574937E3,5.738505E1,4.924594E1,2.1769339E1,7.5872055E1,1.6410423E2,2.1933894E3,2.0952614E1,3.6432438E1,3.1111069E1,1.8134872E1,8.256922E0,1.3512416E1,1.4478251E1,6.1393806E1,7.963928E1,8.446495E1,2.089453E3,1.0393642E2,1.7167473E1,3.7851403E0,1.313705E0,3.5118732E1,1.4010773E1,1.7100296E1,1.5815369E1,2.3195035E0,5.597186E0,7.9152303E0,7.3037105E0,7.174541E0,3.5866573E0,5.7807148E1,4.833992E1,3.1299366E1,5.10451E0,7.936044E1,2.081391E3,8.061832E0,7.104779E1,3.2888626E1,3.3848343E0,1.3782639E1,1.5027966E0,2.2823436E0,1.3454988E0,3.377323E1,1.08533535E1,3.1574194E0,1.0009796E1,7.0905E0,2.238012E0,1.3577356E1,1.0527415E0,1.2667619E0,1.1437061E0,4.45348E0,5.8639326E0,2.0512977E0,1.7922863E0,5.511424E0,1.0205814E0,6.1539593E0,2.5427024E0,1.0439548E0,5.6493214E1,1.313936E0,4.1415333E1,6.9245877E0,2.857491E1,2.724456E0,2.552245E0,2.552265E0,7.2821136E0,