{"learner":{"attributes":{"best_iteration":"99","best_ntree_limit":"100","scikit_learn":"{\"use_label_encoder\": null, \"n_estimators\": 100, \"objective\": \"binary:logistic\", \"max_depth\": null, \"max_leaves\": null, \"max_bin\": null, \"grow_policy\": null, \"learning_rate\": null, \"verbosity\": null, \"booster\": null, \"tree_method\": null, \"gamma\": null, \"min_child_weight\": null, \"max_delta_step\": null, \"subsample\": null, \"sampling_method\": null, \"colsample_bytree\": null, \"colsample_bylevel\": null, \"colsample_bynode\": null, \"reg_alpha\": null, \"reg_lambda\": null, \"scale_pos_weight\": null, \"base_score\": null, \"missing\": NaN, \"num_parallel_tree\": null, \"random_state\": null, \"n_jobs\": null, \"monotone_constraints\": null, \"interaction_constraints\": null, \"importance_type\": null, \"gpu_id\": null, \"validate_parameters\": null, \"predictor\": null, \"enable_categorical\": false, \"feature_types\": null, \"max_cat_to_onehot\": null, \"max_cat_threshold\": null, \"eval_metric\": null, \"early_stopping_rounds\": null, \"callbacks\": null, \"classes_\": [0, 1], \"n_classes_\": 2, \"_estimator_type\": \"classifier\"}"},"feature_names":["Sex","Diabetes status","Smoking status","HDL","Cholesterol","BMI","Age","Ventricular rate","P duration","PP interval","PQ interval","QRS number","QRS duration","QT interval","QTC interval","RR interval","P axis","R axis","T axis","Max carotid IMT 120 deg","Max carotid IMT 150 deg","Max carotid IMT 210 deg","Max carotid IMT 240 deg","Mean carotid IMT 120 deg","Mean carotid IMT 150 deg","Mean carotid IMT 210 deg","Mean carotid IMT 240 deg","Min carotid IMT 120 deg","Min carotid IMT 150 deg","Min carotid IMT 210 deg","Min carotid IMT 240 deg","Position of pulse wave notch","Position of pulse wave peak","Position of the shoulder on the pulse waveform","Pulse rate","Pulse wave Arterial Stiffness index","Pulse wave peak to peak time","Pulse wave reflection index","Average heart rate","Cardiac index","Cardiac output","LV ejection fraction","LV end diastolic volume","LV end systolic volume","LV stroke volume","Augmentation index for PWA","Central augmentation pressure during PWA","Central pulse pressure during PWA","Central systolic blood pressure during PWA","Diastolic blood pressure during PWA","End systolic blood pressure during PWA","End systolic pressure index during PWA","Mean arterial pressure during PWA","Number of beats in waveform average for PWA","Peripheral pulse pressure during PWA","Stroke volume during PWA","Systolic brachial blood pressure during PWA"],"feature_types":["float","float","float","float","float","float","float","float","float","float","float","float","float","float","float","float","float","float","float","float","float","float","float","float","float","float","float","float","float","float","float","float","float","float","float","float","float","float","float","float","float","float","float","float","float","float","float","float","float","float","float","float","float","float","float","float","float"],"gradient_booster":{"model":{"gbtree_model_param":{"num_parallel_tree":"1","num_trees":"100","size_leaf_vector":"0"},"tree_info":[0,0,0,0,0,0,0,0,0,0,0,0,0,0,0,0,0,0,0,0,0,0,0,0,0,0,0,0,0,0,0,0,0,0,0,0,0,0,0,0,0,0,0,0,0,0,0,0,0,0,0,0,0,0,0,0,0,0,0,0,0,0,0,0,0,0,0,0,0,0,0,0,0,0,0,0,0,0,0,0,0,0,0,0,0,0,0,0,0,0,0,0,0,0,0,0,0,0,0,0],"trees":[{"base_weights":[-0E0,-4.682776E-1,5.8699864E-1,9.2721835E-2,-9.135167E-1,9.2880225E-1,-8.663519E-2,-4.7648418E-1,3.6437246E-1,-9.6713805E-1,9.7508895E-1,1.4254014E0,6.526248E-1,-2.8188562E-1,1.0862069E0,-6.783896E-1,5.263158E-1,6.6381156E-1,-8.759797E-2,-1.2087632E0,-5.353707E-1,-1.7142857E0,1.2529182E0,1.5349472E0,7.66129E-1,3.3256617E-1,1.0637037E0,-8.716216E-1,-4.8682895E-2,-1.7037038E0,1.191679E0,-8.9342403E-1,2.7431422E-1,-9.677419E-1,9.195402E-1,1.3068362E0,5.098336E-1,-3.5307783E-1,9.268293E-1,-6.796386E-1,-1.3643092E0,-7.630719E-1,-2.2018349E-2,1.4262295E0,-1.5294118E0,1.5458276E0,-1.3846154E0,-1.8181819E0,1.0087719E0,3.7701553E-1,-1.884058E0,1.5465313E0,9.2664456E-1,-2.7777778E-2,-1.3492063E0,1.133574E0,-1.6874541E-1,1.3070866E0,-6.666667E-1,-9.706917E-1,1.2903225E0,5.9090906E-1,-1.8490566E0,1E0,-1.8769231E0,-5.0666666E-1,1.2924187E0,-7.058824E-1,1.4123539E0,1.1703703E0,3.3965844E-1,-2.061986E-1,-1.9448276E0,1.0985916E0,-1.7241379E0,-1.3218544E0,2.9069768E-2,-1.75E0,-1.1821471E0,-1.1929516E0,-3.9028093E-1,7.348243E-1,-3.2522407E-1,1.5726496E0,-1.4285715E0,-1.3333334E0,1.5555556E0,-1.6190476E0,1.1252848E0,9.391069E-1,2.2122571E-1,1.6013746E0,-1.3846154E0,-1.7777778E0,9.716482E-1,-1.8888888E0,3.4065935E-1,-1.5402299E0,8.125E-1,4.6357617E-1,1.8769231E0,5.95122E-1,-3.9054373E-1,-1.5E0,1.3707865E0,-1.7333333E0,1.5E0],"categories":[],"categories_nodes":[],"categories_segments":[],"categories_sizes":[],"default_left":[1,1,1,1,1,1,1,1,1,1,1,1,1,1,1,1,1,1,1,1,1,0,1,1,1,1,1,1,1,0,1,1,1,1,1,1,1,1,1,1,1,1,1,1,0,1,0,0,1,1,0,1,1,1,1,1,1,1,1,0,0,0,0,0,0,0,0,0,0,0,0,0,0,0,0,0,0,0,0,0,0,0,0,0,0,0,0,0,0,0,0,0,0,0,0,0,0,0,0,0,0,0,0,0,0,0,0],"id":0,"left_children":[1,3,5,7,9,11,13,15,17,19,21,23,25,27,29,31,33,35,37,39,41,-1,43,45,47,49,51,53,55,-1,57,59,61,63,65,67,69,71,73,75,77,79,81,83,-1,85,-1,-1,87,89,-1,91,93,95,97,99,101,103,105,-1,-1,-1,-1,-1,-1,-1,-1,-1,-1,-1,-1,-1,-1,-1,-1,-1,-1,-1,-1,-1,-1,-1,-1,-1,-1,-1,-1,-1,-1,-1,-1,-1,-1,-1,-1,-1,-1,-1,-1,-1,-1,-1,-1,-1,-1,-1,-1],"loss_changes":[2.2392961E3,1.1319578E3,8.324358E2,3.1035175E2,2.5680078E2,3.2798853E2,2.791684E2,1.3165936E2,1.8391428E2,2.5570752E2,5.4637756E1,6.066272E1,2.0265778E2,1.4363998E2,5.3231155E1,1.109229E2,6.507425E1,8.025101E1,1.4636058E2,1.2867969E2,1.0325636E2,0E0,3.3163223E1,2.5432983E1,7.959015E1,8.633076E1,4.3235718E1,1.1925258E2,1.0661436E2,0E0,3.695546E1,7.566376E1,6.848552E1,4.3471962E1,4.6921593E1,3.439331E1,7.390346E1,1.0024771E2,5.3233284E1,1.6377635E2,8.336548E1,9.7610596E1,6.277201E1,2.7744644E1,0E0,2.2548096E1,0E0,0E0,3.67258E1,7.446596E1,0E0,2.5968628E1,6.602008E1,7.4699326E1,7.929651E1,3.361933E1,1.1569521E2,3.0442474E1,2.6866667E1,0E0,0E0,0E0,0E0,0E0,0E0,0E0,0E0,0E0,0E0,0E0,0E0,0E0,0E0,0E0,0E0,0E0,0E0,0E0,0E0,0E0,0E0,0E0,0E0,0E0,0E0,0E0,0E0,0E0,0E0,0E0,0E0,0E0,0E0,0E0,0E0,0E0,0E0,0E0,0E0,0E0,0E0,0E0,0E0,0E0,0E0,0E0,0E0],"parents":[2147483647,0,0,1,1,2,2,3,3,4,4,5,5,6,6,7,7,8,8,9,9,10,10,11,11,12,12,13,13,14,14,15,15,16,16,17,17,18,18,19,19,20,20,22,22,23,23,24,24,25,25,26,26,27,27,28,28,30,30,31,31,32,32,33,33,34,34,35,35,36,36,37,37,38,38,39,39,40,40,41,41,42,42,43,43,45,45,48,48,49,49,51,51,52,52,53,53,54,54,55,55,56,56,57,57,58,58],"right_children":[2,4,6,8,10,12,14,16,18,20,22,24,26,28,30,32,34,36,38,40,42,-1,44,46,48,50,52,54,56,-1,58,60,62,64,66,68,70,72,74,76,78,80,82,84,-1,86,-1,-1,88,90,-1,92,94,96,98,100,102,104,106,-1,-1,-1,-1,-1,-1,-1,-1,-1,-1,-1,-1,-1,-1,-1,-1,-1,-1,-1,-1,-1,-1,-1,-1,-1,-1,-1,-1,-1,-1,-1,-1,-1,-1,-1,-1,-1,-1,-1,-1,-1,-1,-1,-1,-1,-1,-1,-1],"split_conditions":[6.75E1,1.2935E0,1.4705E0,5.75E1,1.29E2,4.5785E0,8.35E1,8.75E1,6.85E1,5E-1,6.25E1,1.425E1,1.059E3,6.505E2,7.1E1,6.575E0,3.75E2,4.21E0,5E-1,1.4425E0,1.325E1,-5.1428574E-1,7.95E1,7.65E1,5E-1,8.25E1,4.75E1,5.467E0,-3.55E1,-5.1111114E-1,6.6905003E0,1.0695E3,4.275E2,7E0,7.15E1,1.45E1,8.5E0,1.1225E2,1.2095001E0,6.605E2,5.75E1,1.67E2,4.977E0,4.85E1,-4.5882356E-1,6.75E0,-4.1538465E-1,-5.4545456E-1,6.125E-1,1.0425E0,-5.6521744E-1,6.75E1,4.475E1,4.03E2,8.425E-1,9.505E2,5.75E1,3.94E2,1.6E2,-2.9120752E-1,3.870968E-1,1.7727272E-1,-5.54717E-1,3E-1,-5.63077E-1,-1.5200001E-1,3.8772562E-1,-2.1176472E-1,4.2370617E-1,3.511111E-1,1.0189754E-1,-6.185958E-2,-5.834483E-1,3.2957748E-1,-5.172414E-1,-3.9655632E-1,8.720931E-3,-5.2500004E-1,-3.5464415E-1,-3.5788548E-1,-1.1708429E-1,2.204473E-1,-9.756722E-2,4.717949E-1,-4.2857146E-1,-4.0000004E-1,4.666667E-1,-4.8571432E-1,3.3758545E-1,2.8173208E-1,6.6367716E-2,4.804124E-1,-4.1538465E-1,-5.3333336E-1,2.914945E-1,-5.6666666E-1,1.0219781E-1,-4.62069E-1,2.4375E-1,1.3907285E-1,5.63077E-1,1.785366E-1,-1.1716312E-1,-4.5000002E-1,4.11236E-1,-5.2000004E-1,4.5000002E-1],"split_indices":[6,3,3,6,12,4,43,34,34,0,54,53,15,26,8,4,13,4,1,3,46,0,37,7,0,16,41,4,17,0,4,26,14,18,38,33,18,52,3,26,6,10,4,31,0,53,0,0,51,3,0,34,47,13,51,25,34,13,12,0,0,0,0,0,0,0,0,0,0,0,0,0,0,0,0,0,0,0,0,0,0,0,0,0,0,0,0,0,0,0,0,0,0,0,0,0,0,0,0,0,0,0,0,0,0,0,0],"split_type":[0,0,0,0,0,0,0,0,0,0,0,0,0,0,0,0,0,0,0,0,0,0,0,0,0,0,0,0,0,0,0,0,0,0,0,0,0,0,0,0,0,0,0,0,0,0,0,0,0,0,0,0,0,0,0,0,0,0,0,0,0,0,0,0,0,0,0,0,0,0,0,0,0,0,0,0,0,0,0,0,0,0,0,0,0,0,0,0,0,0,0,0,0,0,0,0,0,0,0,0,0,0,0,0,0,0,0],"sum_hessian":[8.1445E3,4.5305E3,3.614E3,2.005E3,2.5255E3,2.39725E3,1.21675E3,6.475E2,1.3575E3,2.45625E3,6.925E1,8.5525E2,1.542E3,1.04375E3,1.73E2,5.3925E2,1.0825E2,8.1625E2,5.4125E2,1.57375E3,8.825E2,6E0,6.325E1,7.3225E2,1.23E2,8.68E2,6.74E2,2.95E2,7.4875E2,5.75E0,1.6725E2,4.4E2,9.925E1,2.225E1,8.6E1,1.5625E2,6.6E2,4.295E2,1.1175E2,3.5875E2,1.215E3,6.11E2,2.715E2,6E1,3.25E0,7.3E2,2.25E0,1E1,1.13E2,8.5175E2,1.625E1,1.4675E2,5.2725E2,1.07E2,1.88E2,6.825E1,6.805E2,1.5775E2,9.5E0,4.255E2,1.45E1,8.7E1,1.225E1,7E0,1.525E1,1.775E1,6.825E1,7.5E0,1.4875E2,1.34E2,5.26E2,3.9425E2,3.525E1,1.055E2,6.25E0,1.8775E2,1.71E2,3.87E2,8.28E2,2.8275E2,3.2825E2,7.725E1,1.9425E2,5.75E1,2.5E0,2E0,7.28E2,4.25E0,1.0875E2,1.8375E2,6.68E2,1.445E2,2.25E0,8E0,5.1925E2,1.7E1,9E1,1.73E2,1.5E1,3.675E1,3.15E1,1.5275E2,5.2775E2,3E0,1.5475E2,6.5E0,3E0],"tree_param":{"num_deleted":"0","num_feature":"57","num_nodes":"107","size_leaf_vector":"0"}},{"base_weights":[-7.248536E-4,-4.634552E-1,3.1796107E-1,-7.528263E-1,-8.023388E-2,-1.748263E-1,5.70313E-1,-8.0186343E-1,1.1002854E0,6.265137E-1,-3.2408756E-1,-5.539002E-1,4.6538096E-2,9.2805773E-1,3.341546E-1,-1.0106729E0,-2.7785614E-1,-1.5309008E0,1.346889E0,-2.0955978E-3,8.586794E-1,-5.954416E-1,8.473344E-2,-1.5594529E0,-3.8354486E-1,-2.4732581E-1,3.6725757E-1,-4.9419233E-1,9.7059083E-1,8.0938774E-1,9.139401E-2,-1.1906793E0,-6.326285E-1,-5.2283466E-2,-1.0514814E0,-1.3537108E0,1.4825531E0,-8.4077775E-1,7.7837825E-1,9.2065644E-1,-1.7642446E0,3.108629E-1,-7.723632E-1,-2.0189473E-1,7.4723446E-1,1.0917152E0,-1.7353685E0,-8.7215185E-1,-2.3280157E-2,2.1035345E-1,-5.462872E-1,1.4441203E-1,1.0767738E0,1.295594E0,-1.211058E0,1.3842945E0,8.5046685E-1,9.5103097E-1,-2.3028525E-2,-4.354277E-1,2.9124546E-1,-1.3041506E0,-2.973839E-1,-1.0970356E-1,-1.0100807E0,-4.1665754E-1,3.9669642E-1,6.2079334E-1,-1.3395396E0,-8.6930907E-1,1.5698551E0,2.5736937E-1,-1.9525104E0,1.1459305E0,-1.7604088E0,9.7987074E-1,-1.7657042E0,9.386166E-1,-6.4227766E-1,3.520647E-1,-9.5493346E-1,-1.5939718E0,1.6461334E-1,-1.7392993E0,9.230757E-1,1.8375632E0,-9.667585E-1,1.3095893E0,-1.8497368E0,-1.2425448E0,-8.494866E-2,6.7318267E-1,-4.7655207E-1,5.125394E-1,-1.163709E0,-3.697937E-1,-1.8219845E0,1.2675922E-2,1.2158564E0,1.3095047E0,-8.19087E-1,-2.0149217E0,5.744708E-1,1.4250995E0,3.8988176E-1,2.81071E-1,9.475076E-1,9.7595835E-1,-1.8194511E0,-1.9674116E0,4.8303083E-1,-2.4749666E-1,-1.9072173E0,3.7225038E-1,-8.81155E-1],"categories":[],"categories_nodes":[],"categories_segments":[],"categories_sizes":[],"default_left":[1,1,1,1,1,1,1,1,1,1,1,1,1,1,1,1,1,0,1,1,1,1,1,1,1,1,1,1,1,1,1,1,1,1,1,0,1,1,1,1,0,1,1,1,1,1,1,1,1,1,1,1,1,0,1,1,1,1,1,1,1,0,0,0,0,0,0,0,0,0,0,0,0,0,0,0,0,0,0,0,0,0,0,0,0,0,0,0,0,0,0,0,0,0,0,0,0,0,0,0,0,0,0,0,0,0,0,0,0,0,0,0,0,0,0],"id":1,"left_children":[1,3,5,7,9,11,13,15,17,19,21,23,25,27,29,31,33,-1,35,37,39,41,43,45,47,49,51,53,55,57,59,61,63,65,67,-1,69,71,73,75,-1,77,79,81,83,85,87,89,91,93,95,97,99,-1,101,103,105,107,109,111,113,-1,-1,-1,-1,-1,-1,-1,-1,-1,-1,-1,-1,-1,-1,-1,-1,-1,-1,-1,-1,-1,-1,-1,-1,-1,-1,-1,-1,-1,-1,-1,-1,-1,-1,-1,-1,-1,-1,-1,-1,-1,-1,-1,-1,-1,-1,-1,-1,-1,-1,-1,-1,-1,-1],"loss_changes":[1.172162E3,3.5942554E2,5.854403E2,1.6871375E2,2.4076248E2,1.3385521E2,2.6270074E2,1.9665784E2,3.322977E1,5.230783E1,1.1524711E2,1.0013609E2,9.507359E1,7.532947E1,2.1644783E2,8.680322E1,8.968413E1,0E0,1.829248E1,6.458313E1,4.417279E1,1.00337875E2,7.898387E1,4.1474472E1,8.873073E1,7.215716E1,7.609936E1,4.851697E1,5.854419E1,7.482562E1,1.3103525E2,8.7847534E1,8.222708E1,6.5472984E1,5.6728973E1,0E0,1.0152817E1,5.8563293E1,4.970752E1,4.250865E1,0E0,6.2036175E1,1.0761771E2,1.4851047E2,5.6515007E1,1.0826551E1,3.0272125E1,6.2277344E1,9.22601E1,8.727701E1,7.109537E1,5.195043E1,5.1864853E1,0E0,3.9399605E1,1.03526E1,5.1336914E1,3.922061E1,9.268906E1,9.4220955E1,8.59918E1,0E0,0E0,0E0,0E0,0E0,0E0,0E0,0E0,0E0,0E0,0E0,0E0,0E0,0E0,0E0,0E0,0E0,0E0,0E0,0E0,0E0,0E0,0E0,0E0,0E0,0E0,0E0,0E0,0E0,0E0,0E0,0E0,0E0,0E0,0E0,0E0,0E0,0E0,0E0,0E0,0E0,0E0,0E0,0E0,0E0,0E0,0E0,0E0,0E0,0E0,0E0,0E0,0E0,0E0],"parents":[2147483647,0,0,1,1,2,2,3,3,4,4,5,5,6,6,7,7,8,8,9,9,10,10,11,11,12,12,13,13,14,14,15,15,16,16,18,18,19,19,20,20,21,21,22,22,23,23,24,24,25,25,26,26,27,27,28,28,29,29,30,30,31,31,32,32,33,33,34,34,36,36,37,37,38,38,39,39,41,41,42,42,43,43,44,44,45,45,46,46,47,47,48,48,49,49,50,50,51,51,52,52,54,54,55,55,56,56,57,57,58,58,59,59,60,60],"right_children":[2,4,6,8,10,12,14,16,18,20,22,24,26,28,30,32,34,-1,36,38,40,42,44,46,48,50,52,54,56,58,60,62,64,66,68,-1,70,72,74,76,-1,78,80,82,84,86,88,90,92,94,96,98,100,-1,102,104,106,108,110,112,114,-1,-1,-1,-1,-1,-1,-1,-1,-1,-1,-1,-1,-1,-1,-1,-1,-1,-1,-1,-1,-1,-1,-1,-1,-1,-1,-1,-1,-1,-1,-1,-1,-1,-1,-1,-1,-1,-1,-1,-1,-1,-1,-1,-1,-1,-1,-1,-1,-1,-1,-1,-1,-1,-1],"split_conditions":[5E-1,6.65E1,6.35E1,1.29E2,5.09E0,2.584565E1,4.9245E0,2.8718899E1,1.57E2,2.4667751E1,1.975E1,6.525E-1,5.9416664E1,2.195375E1,5.85E1,6.25E1,5.785E2,-4.5927027E-1,3.9E1,5.5E1,3.05E1,4.85E1,2.465E2,4.75E1,5.75E1,2.35E0,4.95E1,3.35E0,4.65E1,5.25E0,5.675E1,9.22E2,6.115E2,2.575E1,9.575E1,-4.0611324E-1,1.2125E2,6.275E1,2.35E0,8.05E1,-5.292734E-1,7.9E1,9.341667E1,6.75E1,4.85679E0,9.63E-1,3.855E2,6.1245003E0,6.65E1,7.95E1,6.35E1,7.45E1,3.25E1,3.8867822E-1,2E2,1.1225E2,3.97E2,1.02E3,1.045E2,9.15E1,6.45E0,-3.912452E-1,-8.9215174E-2,-3.291107E-2,-3.0302423E-1,-1.24997266E-1,1.1900893E-1,1.86238E-1,-4.018619E-1,-2.6079273E-1,4.7095653E-1,7.7210814E-2,-5.8575314E-1,3.4377918E-1,-5.2812266E-1,2.9396123E-1,-5.2971125E-1,2.8158498E-1,-1.9268331E-1,1.05619416E-1,-2.8648004E-1,-4.7819158E-1,4.9384E-2,-5.217898E-1,2.769227E-1,5.51269E-1,-2.9002756E-1,3.928768E-1,-5.549211E-1,-3.7276345E-1,-2.54846E-2,2.0195481E-1,-1.4296563E-1,1.5376182E-1,-3.4911272E-1,-1.1093812E-1,-5.465954E-1,3.8027768E-3,3.6475694E-1,3.9285144E-1,-2.4572612E-1,-6.044765E-1,1.7234126E-1,4.2752987E-1,1.16964534E-1,8.4321305E-2,2.842523E-1,2.9278752E-1,-5.458354E-1,-5.902235E-1,1.4490925E-1,-7.4249E-2,-5.721652E-1,1.1167512E-1,-2.643465E-1],"split_indices":[0,6,6,12,4,5,4,5,10,5,46,51,47,5,34,6,30,0,31,17,32,44,36,6,6,39,31,40,41,40,47,22,24,45,50,0,48,47,39,37,0,12,50,37,35,3,24,4,49,49,16,16,17,0,10,52,13,29,44,44,40,0,0,0,0,0,0,0,0,0,0,0,0,0,0,0,0,0,0,0,0,0,0,0,0,0,0,0,0,0,0,0,0,0,0,0,0,0,0,0,0,0,0,0,0,0,0,0,0,0,0,0,0,0,0],"split_type":[0,0,0,0,0,0,0,0,0,0,0,0,0,0,0,0,0,0,0,0,0,0,0,0,0,0,0,0,0,0,0,0,0,0,0,0,0,0,0,0,0,0,0,0,0,0,0,0,0,0,0,0,0,0,0,0,0,0,0,0,0,0,0,0,0,0,0,0,0,0,0,0,0,0,0,0,0,0,0,0,0,0,0,0,0,0,0,0,0,0,0,0,0,0,0,0,0,0,0,0,0,0,0,0,0,0,0,0,0,0,0,0,0,0,0],"sum_hessian":[7.946713E3,3.240732E3,4.7059805E3,1.8459143E3,1.3948176E3,1.5938507E3,3.11213E3,1.7988796E3,4.7034737E1,3.5740405E2,1.0374136E3,5.870533E2,1.0067974E3,1.2363357E3,1.8757943E3,1.2856411E3,5.132385E2,3.5842218E0,4.3450512E1,9.666524E1,2.6073883E2,6.232658E2,4.1414774E2,8.386587E1,5.0318744E2,5.2551526E2,4.8128217E2,3.559127E1,1.2007444E3,6.3343494E2,1.2423594E3,8.69485E2,4.161561E2,3.9819955E2,1.1503894E2,1.6488687E0,4.1801643E1,4.6557827E1,5.0107407E1,2.5535406E2,5.3847604E0,1.0167336E2,5.2159247E2,2.895643E2,1.2458346E2,4.894627E0,7.897124E1,2.1295184E2,2.902356E2,2.0775696E2,3.1775827E2,3.6716586E2,1.1411629E2,9.947704E0,2.5643566E1,2.67828E2,9.3291644E2,5.41202E2,9.223296E1,3.4135254E2,9.010068E2,7.710784E2,9.8406555E1,1.750002E2,2.411559E2,2.1985005E2,1.783495E2,1.6734495E1,9.830445E1,1.1755497E0,4.0626095E1,2.3808636E1,2.2749191E1,4.4249786E1,5.8576217E0,2.5046834E2,4.8857284E0,6.1309307E1,4.0364056E1,7.272986E1,4.488626E2,5.9650326E1,2.2991396E2,7.64109E0,1.1694237E2,3.6716087E0,1.2230184E0,2.4804614E0,7.6490776E1,1.4442085E2,6.853098E1,1.1423134E2,1.7600426E2,1.708175E2,3.6939465E1,2.802723E2,3.7485954E1,3.2786597E2,3.9299904E1,1.0191477E2,1.2201514E1,1.7594063E1,8.049503E0,2.5685504E2,1.0972956E1,1.364106E2,7.9650586E2,5.3701794E2,4.184083E0,1.845136E1,7.37816E1,3.037369E2,3.7615635E1,8.43415E2,5.759177E1],"tree_param":{"num_deleted":"0","num_feature":"57","num_nodes":"115","size_leaf_vector":"0"}},{"base_weights":[-1.9971398E-3,-2.6315078E-1,3.2639638E-1,7.449697E-2,-5.416231E-1,5.2328306E-1,-1.1847E-1,-3.2619655E-1,2.2463891E-1,-8.6832404E-1,-3.817024E-1,8.7110573E-1,3.6489078E-1,-2.5397477E-1,6.5395296E-1,1.8401602E-1,-5.58606E-1,8.946465E-3,5.0576884E-1,-9.170098E-1,9.601273E-1,-7.685888E-1,-2.2229894E-1,9.639736E-1,2.9665422E-1,1.525272E-1,6.031473E-1,4.0998292E-1,-4.2741087E-1,7.663831E-1,-1.5456607E0,-5.198937E-1,8.2513255E-1,-1.3941162E0,-3.3276024E-1,-1.0423486E0,9.833649E-2,-1.5832449E0,5.404053E-1,-1.0202844E0,-6.493804E-2,1.7348747E0,-1.4415536E0,7.08345E-2,-9.305819E-1,1.2900178E-1,-4.9042448E-1,9.7369504E-1,-1.8316358E0,-1.7917218E0,4.9182105E-1,2.1400894E-1,-1.3570527E0,6.2735116E-1,-1.8294617E0,7.0871776E-1,-1.2912709E0,-5.504702E-1,4.3391272E-1,1.2894381E0,3.1329003E-1,-7.7032954E-1,1.5432398E0,-1.589459E0,1.1038258E0,-1.770715E0,-2.6443982E-1,-1.1317688E0,-3.1071452E-2,1.201885E0,-1.3248224E0,-1.3550687E-1,5.21159E-1,4.415614E-1,1.2333252E0,-7.550744E-1,-1.4574851E0,7.005275E-1,-1.0180944E0,1.9960079E0,-8.473937E-1,-1.5051177E0,5.755553E-1,-7.0089144E-1,-1.5282631E0,-1.6339264E0,2.132518E-1,-2.908077E-1,-1.0938202E0,1.1242086E0,7.9487634E-1,-1.8645364E0,6.0299075E-1,1.15374364E-1,8.595401E-1,-1.9900564E0,5.598856E-1,6.475211E-1,-1.8521482E0,2.1275157E-1,1.2076962E0,1.3693525E0,-1.6940378E0,7.181706E-1,-6.4146024E-1,7.9944515E-1,-1.1887903E0,-1.3629092E0,1.4062538E0,-1.2614379E0,8.705136E-1],"categories":[],"categories_nodes":[],"categories_segments":[],"categories_sizes":[],"default_left":[1,1,1,1,1,1,1,1,1,1,1,1,1,1,1,1,1,1,1,1,1,1,1,1,1,1,1,1,1,1,0,1,1,1,1,1,1,0,1,1,1,1,0,1,1,1,1,1,0,0,1,1,1,1,0,1,1,1,1,1,1,0,0,0,0,0,0,0,0,0,0,0,0,0,0,0,0,0,0,0,0,0,0,0,0,0,0,0,0,0,0,0,0,0,0,0,0,0,0,0,0,0,0,0,0,0,0,0,0,0,0],"id":2,"left_children":[1,3,5,7,9,11,13,15,17,19,21,23,25,27,29,31,33,35,37,39,41,43,45,47,49,51,53,55,57,59,-1,61,63,65,67,69,71,-1,73,75,77,79,-1,81,83,85,87,89,-1,-1,91,93,95,97,-1,99,101,103,105,107,109,-1,-1,-1,-1,-1,-1,-1,-1,-1,-1,-1,-1,-1,-1,-1,-1,-1,-1,-1,-1,-1,-1,-1,-1,-1,-1,-1,-1,-1,-1,-1,-1,-1,-1,-1,-1,-1,-1,-1,-1,-1,-1,-1,-1,-1,-1,-1,-1,-1,-1],"loss_changes":[6.5519916E2,4.0017316E2,2.9648123E2,1.1584107E2,1.2152106E2,1.289375E2,1.08923676E2,6.234658E1,8.4911476E1,6.904089E1,9.650412E1,3.8838318E1,8.1560165E1,1.0205488E2,3.960527E1,7.490476E1,6.76344E1,7.4665726E1,4.4844513E1,6.560919E1,4.0361122E1,6.220981E1,1.0476657E2,1.8929016E1,4.306822E1,7.9606255E1,4.590619E1,9.430082E1,7.4643814E1,3.4782913E1,0E0,4.2149277E1,6.0133495E1,3.206894E1,6.876307E1,4.1063675E1,7.246342E1,0E0,4.0466446E1,7.607416E1,6.0357185E1,1.23714485E1,0E0,6.04081E1,5.1528168E1,7.1931526E1,7.5640274E1,1.6044922E1,0E0,0E0,2.6126377E1,5.2239605E1,4.186072E1,3.887973E1,0E0,3.8584106E1,3.211123E1,7.141316E1,5.3333954E1,2.31697E1,7.2066414E1,0E0,0E0,0E0,0E0,0E0,0E0,0E0,0E0,0E0,0E0,0E0,0E0,0E0,0E0,0E0,0E0,0E0,0E0,0E0,0E0,0E0,0E0,0E0,0E0,0E0,0E0,0E0,0E0,0E0,0E0,0E0,0E0,0E0,0E0,0E0,0E0,0E0,0E0,0E0,0E0,0E0,0E0,0E0,0E0,0E0,0E0,0E0,0E0,0E0,0E0],"parents":[2147483647,0,0,1,1,2,2,3,3,4,4,5,5,6,6,7,7,8,8,9,9,10,10,11,11,12,12,13,13,14,14,15,15,16,16,17,17,18,18,19,19,20,20,21,21,22,22,23,23,24,24,25,25,26,26,27,27,28,28,29,29,31,31,32,32,33,33,34,34,35,35,36,36,38,38,39,39,40,40,41,41,43,43,44,44,45,45,46,46,47,47,50,50,51,51,52,52,53,53,55,55,56,56,57,57,58,58,59,59,60,60],"right_children":[2,4,6,8,10,12,14,16,18,20,22,24,26,28,30,32,34,36,38,40,42,44,46,48,50,52,54,56,58,60,-1,62,64,66,68,70,72,-1,74,76,78,80,-1,82,84,86,88,90,-1,-1,92,94,96,98,-1,100,102,104,106,108,110,-1,-1,-1,-1,-1,-1,-1,-1,-1,-1,-1,-1,-1,-1,-1,-1,-1,-1,-1,-1,-1,-1,-1,-1,-1,-1,-1,-1,-1,-1,-1,-1,-1,-1,-1,-1,-1,-1,-1,-1,-1,-1,-1,-1,-1,-1,-1,-1,-1,-1],"split_conditions":[6.75E1,1.2935E0,1.5115E0,5.2833336E1,2.39116E1,4.5365E0,1.113E3,8.97E2,5E-1,8.0645E0,5.75E1,1.425E1,1.035E3,1.65E1,2.95E0,4.25E1,9.87E2,2.358775E1,7.3E1,4.485E2,4.075E2,8.5E0,1.2166666E1,9.05E1,1.015E2,8.025E-1,7.95E1,6.8125E0,7.35E1,9.34E2,-4.6369824E-1,8.636499E0,9.525E1,2.285E2,2.05E1,8.865E-1,1.095E3,-4.749735E-1,8.385E2,6.35E1,1.785E2,6.5E1,-4.324661E-1,4.85E2,5.95E1,6.13E2,1.7255E0,7.45E1,-5.4949075E-1,-5.375166E-1,5.475E2,1.4369801E1,7.45E1,6.55E1,-5.4883856E-1,2.77689E1,3.25E1,9.5E0,5.75E1,6.735E2,4.35E2,-2.3109888E-1,4.6297196E-1,-4.768377E-1,3.3114776E-1,-5.3121454E-1,-7.933195E-2,-3.3953065E-1,-9.321436E-3,3.605655E-1,-3.9744675E-1,-4.0652063E-2,1.563477E-1,1.3246843E-1,3.699976E-1,-2.2652233E-1,-4.3724555E-1,2.1015826E-1,-3.0542833E-1,5.988024E-1,-2.5421813E-1,-4.515353E-1,1.7266661E-1,-2.1026744E-1,-4.5847896E-1,-4.9017793E-1,6.397554E-2,-8.724231E-2,-3.2814607E-1,3.3726257E-1,2.3846291E-1,-5.593609E-1,1.8089724E-1,3.461231E-2,2.5786203E-1,-5.9701693E-1,1.679657E-1,1.9425634E-1,-5.5564445E-1,6.382547E-2,3.6230886E-1,4.1080576E-1,-5.082114E-1,2.1545118E-1,-1.9243808E-1,2.3983355E-1,-3.5663712E-1,-4.0887278E-1,4.2187616E-1,-3.7843138E-1,2.611541E-1],"split_indices":[6,3,3,47,5,4,21,15,2,4,6,53,15,18,39,18,15,5,12,14,14,18,53,37,42,51,34,4,18,15,0,4,50,36,32,3,15,0,27,16,36,34,0,29,41,21,3,44,0,0,24,35,43,41,0,5,31,16,17,29,13,0,0,0,0,0,0,0,0,0,0,0,0,0,0,0,0,0,0,0,0,0,0,0,0,0,0,0,0,0,0,0,0,0,0,0,0,0,0,0,0,0,0,0,0,0,0,0,0,0,0],"split_type":[0,0,0,0,0,0,0,0,0,0,0,0,0,0,0,0,0,0,0,0,0,0,0,0,0,0,0,0,0,0,0,0,0,0,0,0,0,0,0,0,0,0,0,0,0,0,0,0,0,0,0,0,0,0,0,0,0,0,0,0,0,0,0,0,0,0,0,0,0,0,0,0,0,0,0,0,0,0,0,0,0,0,0,0,0,0,0,0,0,0,0,0,0,0,0,0,0,0,0,0,0,0,0,0,0,0,0,0,0,0,0],"sum_hessian":[7.6378105E3,4.254575E3,3.3832354E3,1.9233027E3,2.3312725E3,2.3451533E3,1.0380822E3,5.239175E2,1.3993851E3,7.6468097E2,1.5665914E3,7.323794E2,1.6127738E3,8.837233E2,1.543588E2,1.6402933E2,3.5988818E2,7.924343E2,6.069508E2,7.453337E2,1.9347334E1,4.56005E2,1.1105864E3,6.298738E2,1.02505646E2,8.535898E2,7.59184E2,1.8274915E2,7.009742E2,1.4747252E2,6.8862705E0,7.8275894E1,8.5753426E1,7.547983E1,2.8440836E2,6.1263855E1,7.311705E2,9.170074E0,5.9778076E2,6.645857E2,8.074794E1,1.4838341E1,4.508992E0,7.385622E1,3.8214877E2,4.8095428E2,6.2963214E2,6.2834045E2,1.533289E0,8.06166E0,9.4443985E1,8.2101013E2,3.2579636E1,7.524395E2,6.744473E0,1.5594849E2,2.6800652E1,6.1366003E2,8.731413E1,6.75947E1,7.9877815E1,7.0361595E1,7.9143014E0,8.386834E0,7.736659E1,5.618279E1,1.9297037E1,7.7199E1,2.0720935E2,6.4851303E0,5.4778725E1,4.7123303E2,2.5993744E2,5.245866E2,7.319417E1,4.1535474E2,2.4923097E2,4.493021E1,3.581773E1,1.3681796E1,1.1565453E0,1.7434923E1,5.6421295E1,2.776282E2,1.0452057E2,2.109744E1,4.5985684E2,4.742286E2,1.5540349E2,3.3830157E2,2.9003888E2,3.5444148E0,9.089957E1,7.132128E2,1.0779733E2,2.4463312E1,8.116322E0,7.4710095E2,5.338567E0,7.892567E1,7.702283E1,3.208155E0,2.3592495E1,4.0606453E1,5.730536E2,7.16757E1,1.5638435E1,2.4014595E0,6.5193245E1,2.054718E1,5.9330635E1],"tree_param":{"num_deleted":"0","num_feature":"57","num_nodes":"111","size_leaf_vector":"0"}},{"base_weights":[-3.3681924E-3,-2.889571E-1,1.8893637E-1,-5.8777344E-1,-1.3626295E-1,-2.038628E-1,3.1249025E-1,-9.2109567E-1,-3.1863987E-1,5.3540623E-1,-2.4713854E-1,5.6879062E-2,-5.7737964E-1,7.213729E-1,2.043899E-1,1.0050665E0,-1.0087918E0,-6.4142334E-1,3.0262676E-1,6.785394E-1,-1.4137981E0,-3.664591E-1,2.8125677E-1,5.097227E-1,-2.7461955E-1,-3.7732705E-2,-8.945087E-1,-5.701849E-1,7.693576E-1,4.9670422E-1,6.9304794E-2,-1.1914403E0,1.9297833E0,-1.0643807E-2,-1.1629162E0,-8.2892257E-1,3.9034706E-1,-1.3972809E0,4.828806E-1,2.6700264E-1,1.0692974E0,-1.9209126E0,1.0002707E0,-4.450213E-1,3.3909738E-1,6.6985637E-1,-2.634679E-1,-1.487157E0,6.019042E-1,2.6313394E-1,-8.1995314E-1,2.8731814E-1,-1.1122963E0,-1.0892448E0,3.1262356E-1,-2.0053172E0,2.6895142E-1,8.5352093E-1,2.7510875E-1,6.9820946E-1,1.9732106E-1,5.2265944E-3,8.985863E-1,-8.1415343E-1,2.2123296E0,-1.3734653E0,5.3232074E-1,-1.2231878E0,8.3135647E-1,6.280911E-1,-9.578976E-1,-1.4648443E0,1.1916255E0,1.6818614E0,1.7805967E-1,-5.245482E-1,6.825655E-1,1.1060513E-1,1.2588633E0,-6.8326855E-1,-2.0034471E-1,1.07329E0,-2.575715E-1,1.3083506E0,2.8832412E-1,-9.123333E-1,7.045139E-1,-1.4287857E0,6.8688893E-1,1.3433961E0,1.5921293E-2,-1.0843198E0,4.001214E-1,-1.3578138E0,6.0548425E-1,-1.712726E0,6.911827E-1,9.310196E-2,-1.2586534E0,1.0410476E0,-1.5949286E0,1.0375948E0,-1.8826728E0,-2.1762772E0,8.673315E-1,-1.9953097E0,4.264302E-1,8.7081486E-1,2.5124583E-2,-2.0261397E0,2.6610956E-1,8.945961E-2,-4.731864E-1,9.7337717E-1,-1.6457776E0],"categories":[],"categories_nodes":[],"categories_segments":[],"categories_sizes":[],"default_left":[1,1,1,1,1,1,1,1,1,1,1,1,1,1,1,1,1,1,1,1,1,1,1,1,1,1,1,1,1,1,1,0,1,1,1,1,1,0,1,1,1,0,0,1,1,1,1,0,1,1,1,1,1,1,1,0,1,1,1,1,1,1,1,0,0,0,0,0,0,0,0,0,0,0,0,0,0,0,0,0,0,0,0,0,0,0,0,0,0,0,0,0,0,0,0,0,0,0,0,0,0,0,0,0,0,0,0,0,0,0,0,0,0,0,0],"id":3,"left_children":[1,3,5,7,9,11,13,15,17,19,21,23,25,27,29,31,33,35,37,39,41,43,45,47,49,51,53,55,57,59,61,-1,63,65,67,69,71,-1,73,75,77,-1,-1,79,81,83,85,-1,87,89,91,93,95,97,99,-1,101,103,105,107,109,111,113,-1,-1,-1,-1,-1,-1,-1,-1,-1,-1,-1,-1,-1,-1,-1,-1,-1,-1,-1,-1,-1,-1,-1,-1,-1,-1,-1,-1,-1,-1,-1,-1,-1,-1,-1,-1,-1,-1,-1,-1,-1,-1,-1,-1,-1,-1,-1,-1,-1,-1,-1,-1],"loss_changes":[4.0215662E2,1.3436617E2,2.1243828E2,8.907352E1,1.4545714E2,1.0206971E2,1.4700812E2,7.609744E1,1.1102898E2,7.818621E1,1.0574741E2,9.289774E1,7.3691574E1,4.3557983E1,1.0399615E2,4.2632217E1,6.546799E1,7.0749954E1,5.8787525E1,4.1291153E1,2.5499607E1,7.594406E1,6.56367E1,4.903154E1,1.0502481E2,5.6380135E1,6.411458E1,3.124516E1,2.7687866E1,5.0085632E1,9.580553E1,0E0,1.2931156E1,4.360597E1,4.5333984E1,5.8552063E1,8.597556E1,0E0,6.264063E1,4.2217644E1,2.3901947E1,0E0,0E0,7.161067E1,6.0540054E1,4.3658936E1,8.196396E1,0E0,4.42426E1,4.8237278E1,5.7747803E1,6.573699E1,4.1769726E1,4.6953766E1,5.5105232E1,0E0,3.0021275E1,2.5868225E1,3.491456E1,5.7742355E1,5.1977512E1,6.752954E1,2.6210838E1,0E0,0E0,0E0,0E0,0E0,0E0,0E0,0E0,0E0,0E0,0E0,0E0,0E0,0E0,0E0,0E0,0E0,0E0,0E0,0E0,0E0,0E0,0E0,0E0,0E0,0E0,0E0,0E0,0E0,0E0,0E0,0E0,0E0,0E0,0E0,0E0,0E0,0E0,0E0,0E0,0E0,0E0,0E0,0E0,0E0,0E0,0E0,0E0,0E0,0E0,0E0,0E0],"parents":[2147483647,0,0,1,1,2,2,3,3,4,4,5,5,6,6,7,7,8,8,9,9,10,10,11,11,12,12,13,13,14,14,15,15,16,16,17,17,18,18,19,19,20,20,21,21,22,22,23,23,24,24,25,25,26,26,27,27,28,28,29,29,30,30,32,32,33,33,34,34,35,35,36,36,38,38,39,39,40,40,43,43,44,44,45,45,46,46,48,48,49,49,50,50,51,51,52,52,53,53,54,54,56,56,57,57,58,58,59,59,60,60,61,61,62,62],"right_children":[2,4,6,8,10,12,14,16,18,20,22,24,26,28,30,32,34,36,38,40,42,44,46,48,50,52,54,56,58,60,62,-1,64,66,68,70,72,-1,74,76,78,-1,-1,80,82,84,86,-1,88,90,92,94,96,98,100,-1,102,104,106,108,110,112,114,-1,-1,-1,-1,-1,-1,-1,-1,-1,-1,-1,-1,-1,-1,-1,-1,-1,-1,-1,-1,-1,-1,-1,-1,-1,-1,-1,-1,-1,-1,-1,-1,-1,-1,-1,-1,-1,-1,-1,-1,-1,-1,-1,-1,-1,-1,-1,-1,-1,-1,-1,-1],"split_conditions":[5E-1,6.15E1,6.05E1,2.35E1,4.6555004E0,7.355E2,4.3885E0,2.95E0,4.375E2,8.19E2,2.595E2,1.495E2,1.0625E0,1.075E1,5.85E1,5.965E2,8.5E0,2.575E1,5.9E2,7.89E2,9.815E2,1.8875E2,1.6455E0,6.7341948E0,1.95E1,7.75E1,7.3815002E0,1.095E2,7.45E1,7.225E-1,7.95E1,-3.5743213E-1,6.5E1,6.915E2,8.9E1,1.0185E0,6.375E2,-4.191843E-1,5.38E2,1.82E2,2.4932251E1,-5.762738E-1,3.0008122E-1,4.55E1,2.85E1,2.725E2,6.765E2,-4.461471E-1,6.125E-1,3.825E2,8.45E1,1.375E1,8.79E2,4.75E1,4.05E1,-6.0159516E-1,1E0,7.3E1,2.445655E1,5.05E0,9.25E0,6.602E0,8.85E1,-2.4424604E-1,6.636989E-1,-4.120396E-1,1.5969622E-1,-3.6695635E-1,2.4940695E-1,1.8842734E-1,-2.8736928E-1,-4.3945333E-1,3.5748765E-1,5.0455844E-1,5.3417902E-2,-1.5736446E-1,2.0476966E-1,3.318154E-2,3.7765902E-1,-2.0498057E-1,-6.0103416E-2,3.21987E-1,-7.727145E-2,3.925052E-1,8.649724E-2,-2.737E-1,2.1135418E-1,-4.2863572E-1,2.0606668E-1,4.0301883E-1,4.776388E-3,-3.2529595E-1,1.2003642E-1,-4.0734416E-1,1.8164527E-1,-5.1381785E-1,2.0735481E-1,2.793059E-2,-3.7759605E-1,3.1231427E-1,-4.784786E-1,3.1127846E-1,-5.648019E-1,-6.528832E-1,2.6019946E-1,-5.9859294E-1,1.2792906E-1,2.6124448E-1,7.537375E-3,-6.0784197E-1,7.983287E-2,2.6837885E-2,-1.4195593E-1,2.9201317E-1,-4.937333E-1],"split_indices":[0,6,6,33,4,21,4,40,14,23,36,42,3,45,34,29,18,46,21,22,28,55,3,35,17,49,4,55,34,51,18,0,47,21,43,3,23,0,25,36,5,0,0,31,18,36,28,0,51,14,49,45,24,41,31,0,17,12,5,40,45,4,47,0,0,0,0,0,0,0,0,0,0,0,0,0,0,0,0,0,0,0,0,0,0,0,0,0,0,0,0,0,0,0,0,0,0,0,0,0,0,0,0,0,0,0,0,0,0,0,0,0,0,0,0],"split_type":[0,0,0,0,0,0,0,0,0,0,0,0,0,0,0,0,0,0,0,0,0,0,0,0,0,0,0,0,0,0,0,0,0,0,0,0,0,0,0,0,0,0,0,0,0,0,0,0,0,0,0,0,0,0,0,0,0,0,0,0,0,0,0,0,0,0,0,0,0,0,0,0,0,0,0,0,0,0,0,0,0,0,0,0,0,0,0,0,0,0,0,0,0,0,0,0,0,0,0,0,0,0,0,0,0,0,0,0,0,0,0,0,0,0,0],"sum_hessian":[7.320589E3,2.9456062E3,4.3749824E3,9.951966E2,1.9504097E3,1.0466981E3,3.3282844E3,4.4349957E2,5.51697E2,2.758031E2,1.6746066E3,6.169029E2,4.2979526E2,6.9475287E2,2.6335317E3,1.885725E1,4.246423E2,3.6304303E2,1.8865402E2,2.5754318E2,1.8259916E1,1.3663649E3,3.0824173E2,2.605039E2,3.56399E2,1.5949959E2,2.7029565E2,2.4497427E1,6.702555E2,8.315156E2,1.802016E3,5.501334E0,1.3355917E1,5.6941822E1,3.677005E2,3.0738065E2,5.5662365E1,1.7439236E1,1.7121478E2,1.2625637E2,1.3128682E2,1.5258834E1,3.0010827E0,1.2297987E3,1.365662E2,1.797679E2,1.2847383E2,1.08271885E1,2.4967671E2,1.7970718E2,1.7669179E2,1.2301938E2,3.6480213E1,2.3283249E2,3.746317E1,8.526037E0,1.5971391E1,5.721071E2,9.814833E1,4.9620425E2,3.3531137E2,1.6736965E3,1.2831946E2,1.071229E0,1.2284688E1,1.57871275E1,4.1154694E1,3.5728903E2,1.0411464E1,2.4681969E1,2.8269867E2,1.6539803E1,3.9122562E1,3.3789566E1,1.3742522E2,4.3374935E1,8.288144E1,2.1935541E1,1.0935127E2,6.2217755E2,6.076211E2,6.0868973E1,7.569721E1,6.633203E1,1.1343587E2,7.694974E1,5.1524082E1,9.39412E0,2.402826E2,3.2640697E1,1.4706648E2,1.453159E2,3.137589E1,1.9406603E1,1.0361278E2,2.740622E1,9.073994E0,2.923616E1,2.0359633E2,2.7439342E1,1.0023826E1,1.2149044E1,3.8223462E0,1.8854841E0,5.702217E2,5.371328E0,9.2777E1,3.9469513E2,1.0150912E2,9.208517E0,3.2610284E2,1.4238208E3,2.498757E2,1.25255066E2,3.064402E0],"tree_param":{"num_deleted":"0","num_feature":"57","num_nodes":"115","size_leaf_vector":"0"}},{"base_weights":[-4.6745846E-3,2.8034866E-1,-1.3242659E-1,-1.7909816E-1,3.7846574E-1,1.726471E-1,-2.3232801E-1,8.049015E-2,-7.6774377E-1,3.1303522E-1,8.278238E-1,-4.57091E-1,2.9135394E-1,-2.7410275E-1,6.9672555E-1,-1.5057826E0,2.0486115E-1,8.387581E-1,-1.1331493E0,6.14501E-1,2.1514888E-1,5.450925E-1,1.1112835E0,2.513351E-1,-8.674659E-1,4.269247E-1,-5.4546792E-2,-6.7968696E-1,-1.8093477E-1,-1.4317656E0,8.1940484E-1,2.8028047E-1,-1.427046E0,-1.1824436E0,1.4645526E0,-1.3794868E0,4.982984E-1,7.2409767E-1,-4.0015912E-1,3.867293E-2,5.296974E-1,6.154444E-1,-1.8790152E0,1.1693356E0,-1.2844527E0,-1.3130589E0,7.614974E-1,-1.0306438E0,1.5982826E0,6.528534E-1,1.55361E-1,8.503879E-2,-1.5168952E0,-7.5725335E-1,4.8741624E-1,-5.280853E-1,-4.8290394E-2,-1.0107576E0,9.292844E-1,9.95732E-1,1.07132465E-1,-8.611873E-1,1.6997428E0,-1.6160376E0,8.829069E-1,1.3736664E0,-1.2521557E0,-1.9027596E0,7.490456E-1,-1.0753243E0,1.0023688E0,-2.3268789E-1,4.095352E-1,6.2626845E-1,-6.5951484E-1,6.787266E-1,-1.4332507E0,1.204438E0,-1.2054096E0,1.3502365E0,-1.9006833E-2,-1.1822923E0,6.908522E-1,6.913409E-1,-1.7347984E0,3.9604676E-1,-6.708476E-1,9.97408E-1,-1.07392736E-1,-8.5808754E-1,9.9672794E-2,-1.6095269E0,1.2692077E0,5.390343E-2,-7.2149354E-1,1.1323501E0,-9.3799904E-2,7.973277E-1,-1.5397295E0,-1.2610439E0,9.99279E-1],"categories":[],"categories_nodes":[],"categories_segments":[],"categories_sizes":[],"default_left":[1,1,1,1,1,1,1,1,1,1,1,1,1,1,1,0,1,1,1,1,1,1,1,1,1,1,1,1,1,0,1,1,0,0,1,1,1,1,1,1,1,1,0,1,0,0,1,1,0,1,1,1,0,1,1,1,1,1,1,0,0,0,0,0,0,0,0,0,0,0,0,0,0,0,0,0,0,0,0,0,0,0,0,0,0,0,0,0,0,0,0,0,0,0,0,0,0,0,0,0,0],"id":4,"left_children":[1,3,5,7,9,11,13,15,17,19,21,23,25,27,29,-1,31,33,35,37,39,41,43,45,47,49,51,53,55,-1,57,59,-1,-1,61,63,65,67,69,71,73,75,-1,77,-1,-1,79,81,-1,83,85,87,-1,89,91,93,95,97,99,-1,-1,-1,-1,-1,-1,-1,-1,-1,-1,-1,-1,-1,-1,-1,-1,-1,-1,-1,-1,-1,-1,-1,-1,-1,-1,-1,-1,-1,-1,-1,-1,-1,-1,-1,-1,-1,-1,-1,-1,-1,-1],"loss_changes":[2.5519443E2,9.7849625E1,1.4753062E2,5.849221E1,5.2302612E1,8.941751E1,1.4169518E2,5.283928E1,6.970124E1,4.596431E1,1.7555649E1,5.54032E1,4.717758E1,1.3174829E2,4.2213448E1,0E0,3.089709E1,2.9909168E1,3.9204346E1,4.2808502E1,6.5522995E1,2.0839344E1,1.710617E1,5.71873E1,5.0099022E1,4.4228363E1,5.8105022E1,5.9351837E1,1.3071613E2,0E0,3.095108E1,2.9336685E1,0E0,0E0,1.1012714E1,4.613112E1,2.2110939E1,2.4063171E1,3.6982983E1,7.632418E1,4.913942E1,1.56115265E1,0E0,1.0626938E1,0E0,0E0,2.4711657E1,3.0461418E1,0E0,3.7414017E1,6.5776215E1,4.579418E1,0E0,5.2909058E1,6.960421E1,8.838229E1,1.1054506E2,9.7701025E0,2.2924309E1,0E0,0E0,0E0,0E0,0E0,0E0,0E0,0E0,0E0,0E0,0E0,0E0,0E0,0E0,0E0,0E0,0E0,0E0,0E0,0E0,0E0,0E0,0E0,0E0,0E0,0E0,0E0,0E0,0E0,0E0,0E0,0E0,0E0,0E0,0E0,0E0,0E0,0E0,0E0,0E0,0E0,0E0],"parents":[2147483647,0,0,1,1,2,2,3,3,4,4,5,5,6,6,7,7,8,8,9,9,10,10,11,11,12,12,13,13,14,14,16,16,17,17,18,18,19,19,20,20,21,21,22,22,23,23,24,24,25,25,26,26,27,27,28,28,30,30,31,31,34,34,35,35,36,36,37,37,38,38,39,39,40,40,41,41,43,43,46,46,47,47,49,49,50,50,51,51,53,53,54,54,55,55,56,56,57,57,58,58],"right_children":[2,4,6,8,10,12,14,16,18,20,22,24,26,28,30,-1,32,34,36,38,40,42,44,46,48,50,52,54,56,-1,58,60,-1,-1,62,64,66,68,70,72,74,76,-1,78,-1,-1,80,82,-1,84,86,88,-1,90,92,94,96,98,100,-1,-1,-1,-1,-1,-1,-1,-1,-1,-1,-1,-1,-1,-1,-1,-1,-1,-1,-1,-1,-1,-1,-1,-1,-1,-1,-1,-1,-1,-1,-1,-1,-1,-1,-1,-1,-1,-1,-1,-1,-1,-1],"split_conditions":[1.1735001E0,5.75E1,5.95E1,7.55E1,6.95E1,5.95E1,9.15E1,5.35E1,3.815E2,4.267E0,7.45E1,2.25E0,1.6335E0,2.05E1,6.325E-1,-4.517348E-1,8.65E1,2.83854E1,6.35E1,7.85E1,5.9224997E0,9.45E1,3.1722E1,6.02E2,8.632E0,1.1525E2,5.95E1,1.1525E3,2.4185E1,-4.295297E-1,1.65E1,7.75E0,-4.281138E-1,-3.547331E-1,9.763969E0,1.067E3,5.195E2,7.9E2,4.575E2,6.95E1,1.3275E2,6.6000004E0,-5.637046E-1,1.629075E1,-3.8533583E-1,-3.9391768E-1,6.715E2,9.3E1,4.794848E-1,7.85E1,7.95E1,4.95E1,-4.5506856E-1,7.3025E0,4.95E1,9.5E0,3.15E1,-5.2E1,5.395E2,2.987196E-1,3.213974E-2,-2.5835618E-1,5.0992286E-1,-4.848113E-1,2.6487207E-1,4.1209993E-1,-3.756467E-1,-5.708279E-1,2.247137E-1,-3.225973E-1,3.0071065E-1,-6.980637E-2,1.22860566E-1,1.8788055E-1,-1.9785446E-1,2.0361799E-1,-4.299752E-1,3.613314E-1,-3.616229E-1,4.05071E-1,-5.7020504E-3,-3.5468772E-1,2.0725568E-1,2.0740229E-1,-5.2043957E-1,1.1881403E-1,-2.012543E-1,2.992224E-1,-3.2217823E-2,-2.5742626E-1,2.990184E-2,-4.828581E-1,3.8076234E-1,1.617103E-2,-2.1644807E-1,3.3970505E-1,-2.8139973E-2,2.3919831E-1,-4.6191886E-1,-3.7831318E-1,2.997837E-1],"split_indices":[3,6,34,37,18,6,18,38,14,4,37,39,3,32,51,0,49,5,41,34,4,17,5,26,4,50,38,21,5,0,33,45,0,0,35,26,25,15,14,6,50,40,0,35,0,0,26,47,0,17,37,41,0,4,18,17,43,17,25,0,0,0,0,0,0,0,0,0,0,0,0,0,0,0,0,0,0,0,0,0,0,0,0,0,0,0,0,0,0,0,0,0,0,0,0,0,0,0,0,0,0],"split_type":[0,0,0,0,0,0,0,0,0,0,0,0,0,0,0,0,0,0,0,0,0,0,0,0,0,0,0,0,0,0,0,0,0,0,0,0,0,0,0,0,0,0,0,0,0,0,0,0,0,0,0,0,0,0,0,0,0,0,0,0,0,0,0,0,0,0,0,0,0,0,0,0,0,0,0,0,0,0,0,0,0,0,0,0,0,0,0,0,0,0,0,0,0,0,0,0,0,0,0,0,0],"sum_hessian":[7.00645E3,2.1680938E3,4.8383564E3,3.8138422E2,1.7867096E3,1.193372E3,3.6449844E3,2.6526678E2,1.1611741E2,1.5610968E3,2.2561285E2,1.888222E2,1.0045498E3,3.4888152E3,1.5616904E2,1.8478474E1,2.4678831E2,2.127716E1,9.484025E1,3.8135123E2,1.1797455E3,1.1441494E2,1.1119792E2,6.940192E1,1.1942029E2,7.215245E2,2.8302527E2,6.505422E2,2.838273E3,7.929041E0,1.4824E2,2.3667838E2,1.0109945E1,4.819985E0,1.6457176E1,8.253279E1,1.2307452E1,3.4443417E2,3.691706E1,7.5646014E2,4.2328537E2,1.1191314E2,2.5017998E0,1.0906698E2,2.1309392E0,1.6679876E1,5.272204E1,1.1255375E2,6.8665447E0,3.9308853E2,3.2843597E2,2.5922345E2,2.3801815E1,6.1033044E2,4.0211742E1,7.8384644E2,2.0544265E3,7.931618E0,1.4030838E2,4.5192238E1,1.9148613E2,1.2669492E0,1.5190227E1,7.4978874E1,7.553924E0,8.348021E0,3.9594314E0,2.532283E0,3.419019E2,2.5078012E1,1.183905E1,4.3704547E2,3.1941467E2,3.919316E2,3.1353764E1,1.09208496E2,2.7046437E0,1.0796393E2,1.1030575E0,2.9636839E1,2.3085201E1,1.03729324E2,8.82442E0,3.8755188E2,5.5366497E0,2.5474573E2,7.369024E1,4.44223E1,2.1480116E2,5.460729E2,6.425757E1,1.0632957E1,2.9578787E1,1.9569571E2,5.8815076E2,7.5365265E1,1.9790614E3,1.6804241E0,6.251194E0,3.817943E0,1.3649043E2],"tree_param":{"num_deleted":"0","num_feature":"57","num_nodes":"101","size_leaf_vector":"0"}},{"base_weights":[-4.3892553E-3,-1.3084897E-1,1.9158751E-1,-3.3579627E-1,1.4671861E-2,6.6777414E-1,1.1195582E-1,-3.6975104E-1,6.7362463E-1,-2.1610498E-1,1.4845261E-1,-1.4698572E0,7.4296427E-1,2.759364E-1,-6.822276E-2,-1.632102E-1,-5.7451487E-1,-1.3385488E0,8.954421E-1,-4.1820595E-1,2.0234022E-1,2.2784519E-1,-5.2875286E-1,-1.8665864E0,7.6154506E-1,-8.481316E-1,8.026136E-1,-1.5538026E0,3.0794066E-1,4.0569086E-2,-5.201644E-1,-4.011275E-1,2.2020736E-1,-1.6303775E-1,-8.3494115E-1,1.0855423E0,-1.4525806E0,4.614092E-1,-5.5082625E-1,4.6846053E-1,-4.7911432E-1,4.1068295E-1,-9.912862E-2,-8.1530833E-1,7.67071E-1,-1.7458236E0,1.193225E0,8.328027E-1,-1.8204429E0,-1.971969E0,9.210292E-1,4.4911957E-1,1.042518E-1,1.4227271E-1,-4.7682762E-1,-1.0210544E0,3.9043367E-2,-8.8836896E-1,-6.671553E-4,3.4710392E-1,-1.2465113E0,4.8180748E-2,-8.484386E-1,6.490236E-1,-8.8926077E-1,-1.1748716E0,1.2244114E0,1.2266878E0,-3.452627E-1,1.5141505E-1,-7.378892E-1,-7.02999E-2,9.812891E-1,6.6951406E-1,-1.0198144E0,-9.002611E-1,4.681049E-1,-3.0607575E-1,4.1834053E-1,7.908694E-2,-1.2037302E0,1.166046E0,-1.6968305E0,-1.129603E0,8.585422E-1,4.3506944E-1,-2.2541277E0,5.175602E-1,-3.5910952E-1,-5.787302E-1,2.575465E-1,4.3702994E-2,8.796564E-1,-1.0946387E0,1.3618957E-1,-1.5020047E0,-9.6108675E-2,-2.10016E0,2.7803066E-1],"categories":[],"categories_nodes":[],"categories_segments":[],"categories_sizes":[],"default_left":[1,1,1,1,1,1,1,1,1,1,1,1,1,1,1,1,1,0,1,1,1,1,1,0,0,1,1,1,1,1,1,1,1,1,1,1,0,1,1,1,1,1,1,1,1,0,0,1,0,1,0,1,1,1,1,1,1,0,0,0,0,0,0,0,0,0,0,0,0,0,0,0,0,0,0,0,0,0,0,0,0,0,0,0,0,0,0,0,0,0,0,0,0,0,0,0,0,0,0],"id":5,"left_children":[1,3,5,7,9,11,13,15,17,19,21,23,25,27,29,31,33,-1,35,37,39,41,43,-1,-1,45,47,49,51,53,55,57,59,61,63,65,-1,67,69,71,73,75,77,79,81,-1,-1,83,-1,85,-1,87,89,91,93,95,97,-1,-1,-1,-1,-1,-1,-1,-1,-1,-1,-1,-1,-1,-1,-1,-1,-1,-1,-1,-1,-1,-1,-1,-1,-1,-1,-1,-1,-1,-1,-1,-1,-1,-1,-1,-1,-1,-1,-1,-1,-1,-1],"loss_changes":[1.6748738E2,1.22509094E2,1.0043263E2,5.8707092E1,7.422052E1,6.2095E1,6.714693E1,6.9718445E1,2.6130552E1,7.469261E1,8.193794E1,1.3135504E1,3.5541107E1,7.014473E1,5.3286133E1,7.518098E1,8.864838E1,0E0,2.4301914E1,6.9689995E1,5.2452637E1,8.151161E1,6.00318E1,0E0,0E0,2.72963E1,2.9591965E1,2.3151932E1,3.3599792E1,4.606283E1,5.893349E1,9.918585E1,5.9220158E1,4.671096E1,4.1457825E1,1.6402588E1,0E0,4.8901657E1,6.811792E1,5.7433098E1,5.1222984E1,6.623047E1,5.2553112E1,4.5777832E1,3.0965458E1,0E0,0E0,1.8709427E1,0E0,1.317498E1,0E0,3.839589E1,5.0433903E1,5.3112114E1,5.461799E1,4.921173E1,5.1866074E1,0E0,0E0,0E0,0E0,0E0,0E0,0E0,0E0,0E0,0E0,0E0,0E0,0E0,0E0,0E0,0E0,0E0,0E0,0E0,0E0,0E0,0E0,0E0,0E0,0E0,0E0,0E0,0E0,0E0,0E0,0E0,0E0,0E0,0E0,0E0,0E0,0E0,0E0,0E0,0E0,0E0,0E0],"parents":[2147483647,0,0,1,1,2,2,3,3,4,4,5,5,6,6,7,7,8,8,9,9,10,10,11,11,12,12,13,13,14,14,15,15,16,16,18,18,19,19,20,20,21,21,22,22,25,25,26,26,27,27,28,28,29,29,30,30,31,31,32,32,33,33,34,34,35,35,37,37,38,38,39,39,40,40,41,41,42,42,43,43,44,44,47,47,49,49,51,51,52,52,53,53,54,54,55,55,56,56],"right_children":[2,4,6,8,10,12,14,16,18,20,22,24,26,28,30,32,34,-1,36,38,40,42,44,-1,-1,46,48,50,52,54,56,58,60,62,64,66,-1,68,70,72,74,76,78,80,82,-1,-1,84,-1,86,-1,88,90,92,94,96,98,-1,-1,-1,-1,-1,-1,-1,-1,-1,-1,-1,-1,-1,-1,-1,-1,-1,-1,-1,-1,-1,-1,-1,-1,-1,-1,-1,-1,-1,-1,-1,-1,-1,-1,-1,-1,-1,-1,-1,-1,-1,-1],"split_conditions":[6.85E1,2.5821499E1,4.65E1,9.55E1,5E-1,2.2316551E1,1.3594999E0,1.4395001E0,1.85E1,1.2625E2,8.45E1,4.83E2,6.05E1,8.875E1,1.12369995E1,8.09E2,1.575E1,-4.0156466E-1,7.35E1,4.3385E0,5.55E1,5.45E0,7.95E1,-5.59976E-1,2.2846353E-1,9.15E1,3.96E2,4.15E1,7.15E1,1.4416666E1,1.75E2,4.21E2,5.95E0,4.35E2,4.45E1,6.7E1,-4.3577418E-1,8.725E1,3.65E0,7.15E1,5.435E2,5.85E1,1.5416666E1,5.65E1,1.71E2,-5.237471E-1,3.5796753E-1,4.215E2,-5.461329E-1,9.24E-1,2.7630877E-1,1.0183333E2,1.385E2,6.85E1,5.85E1,2.8115398E1,1.449E0,-2.665107E-1,-2.001466E-4,1.04131185E-1,-3.739534E-1,1.4454225E-2,-2.545316E-1,1.9470708E-1,-2.6677823E-1,-3.524615E-1,3.6732343E-1,3.6800635E-1,-1.0357881E-1,4.5424517E-2,-2.2136676E-1,-2.1089971E-2,2.9438674E-1,2.0085423E-1,-3.0594432E-1,-2.7007833E-1,1.4043148E-1,-9.182273E-2,1.2550217E-1,2.3726081E-2,-3.611191E-1,3.4981382E-1,-5.090492E-1,-3.3888093E-1,2.5756267E-1,1.3052084E-1,-6.7623836E-1,1.5526806E-1,-1.0773286E-1,-1.7361908E-1,7.726396E-2,1.3110898E-2,2.638969E-1,-3.283916E-1,4.085687E-2,-4.5060143E-1,-2.8832603E-2,-6.30048E-1,8.3409205E-2],"split_indices":[6,5,41,18,0,5,3,3,33,50,49,13,43,50,35,22,45,0,49,4,16,40,54,0,0,7,42,45,49,53,10,13,40,13,44,8,0,55,40,37,24,44,53,43,10,0,0,28,0,3,0,52,56,7,41,5,3,0,0,0,0,0,0,0,0,0,0,0,0,0,0,0,0,0,0,0,0,0,0,0,0,0,0,0,0,0,0,0,0,0,0,0,0,0,0,0,0,0,0],"split_type":[0,0,0,0,0,0,0,0,0,0,0,0,0,0,0,0,0,0,0,0,0,0,0,0,0,0,0,0,0,0,0,0,0,0,0,0,0,0,0,0,0,0,0,0,0,0,0,0,0,0,0,0,0,0,0,0,0,0,0,0,0,0,0,0,0,0,0,0,0,0,0,0,0,0,0,0,0,0,0,0,0,0,0,0,0,0,0,0,0,0,0,0,0,0,0,0,0,0,0],"sum_hessian":[6.756099E3,4.106556E3,2.6495427E3,1.7045751E3,2.4019812E3,3.7853992E2,2.2710027E3,1.6497158E3,5.485926E1,8.8122296E2,1.5207582E3,1.2232251E1,3.6630768E2,1.1886661E3,1.0823367E3,8.221887E2,8.275271E2,4.9472055E0,4.9912056E1,5.9422455E2,2.869984E2,1.3617734E3,1.5898474E2,1.0524545E1,1.707706E0,1.2758806E1,3.5354886E2,1.9616356E1,1.1690497E3,8.730786E2,2.0925812E2,5.0733334E2,3.1485538E2,3.213755E2,5.0615158E2,4.6671154E1,3.240903E0,7.752886E1,5.166957E2,2.0662154E2,8.0376884E1,8.7322565E2,4.885478E2,1.3049762E2,2.8487122E1,8.962358E0,3.796448E0,3.5020087E2,3.3479984E0,1.6954742E1,2.6616123E0,6.897629E2,4.7928683E2,7.3025824E2,1.4282036E2,1.0994922E2,9.930891E1,2.2831876E2,2.7901456E2,2.904866E2,2.436877E1,2.4637909E2,7.499641E1,1.7486534E1,4.8866504E2,2.2695022E0,4.440165E1,3.9518E1,3.801086E1,1.0872571E2,4.0796997E2,1.01183975E2,1.0543756E2,2.5649818E1,5.4727062E1,3.6027996E1,8.3719763E2,3.4927405E2,1.3927376E2,3.975428E1,9.074335E1,2.4970451E1,3.5166707E0,3.9786446E0,3.4622223E2,1.7220817E0,1.5232661E1,6.362454E2,5.3517467E1,8.734752E1,3.919393E2,6.450857E2,8.5172516E1,7.074075E1,7.2079605E1,7.192566E1,3.8023563E1,9.197074E0,9.011183E1],"tree_param":{"num_deleted":"0","num_feature":"57","num_nodes":"99","size_leaf_vector":"0"}},{"base_weights":[-5.141719E-3,2.8565016E-1,-6.7209974E-2,-1.1422548E-1,4.07199E-1,-1.0048537E-1,4.4628263E-1,-3.9683887E-1,8.678793E-1,5.500627E-1,1.7354763E-1,2.2748524E-1,-1.5413344E-1,-2.093926E-1,7.496816E-1,-8.24654E-1,1.6509E-1,1.216676E0,-7.3815703E-1,5.7249874E-1,-1.4025575E0,6.3479024E-1,-4.861843E-2,4.1007414E-1,-4.068873E-1,-1.8873401E-1,3.3541787E-1,7.3165673E-1,-1.2808238E0,1.8197893E-1,9.7276056E-1,7.935002E-1,-9.905262E-1,6.77039E-1,-9.0002656E-1,1.3471164E0,-1.1218013E0,8.676204E-1,-1.1900519E0,8.444342E-1,4.2939574E-1,-2.090811E0,6.601261E-1,6.965715E-1,-1.9134772E0,2.211968E-2,-2.7615952E0,-6.74791E-1,4.7452003E-1,1.3425735E-1,-8.343435E-1,-1.6407529E-1,-9.058318E-1,-4.7640112E-1,4.9628052E-1,-1.7673161E0,9.0078324E-1,-1.8889043E0,-2.117035E-1,5.014291E-1,-1.5466256E0,-6.471655E-1,1.0634464E0,1.3493775E0,-1.0067521E0,1.5805183E-1,-1.3452052E0,1.1976496E0,-5.290498E-1,-1.3085488E0,9.0678513E-1,-9.578827E-1,1.4732786E0,-1.7497324E0,8.7541395E-1,-4.0869617E-1,5.220904E-1,-4.9431148E-1,8.2071584E-1,7.765982E-2,-2.5887406E0,-8.7273437E-1,-3.0321987E0,-1.5011657E0,6.7067206E-1,5.072469E-1,-1.5538598E0,5.8747065E-1,-9.607328E-1,-1.3431449E0,-1.7746477E-1,-4.0127805E-1,-9.516984E-2,3.1979385E-1,-1.1807319E0,9.8137724E-1,-8.1371874E-1,-1.3373983E0,5.4884005E-1,-1.2962477E0,1.025908E0,1.2673435E0,-1.2408764E0,7.5852025E-1,-1.358389E0,1.2588438E0,-1.6354059E0,1.1208253E0,-7.000155E-1],"categories":[],"categories_nodes":[],"categories_segments":[],"categories_sizes":[],"default_left":[1,1,1,1,1,1,1,1,1,1,1,1,1,1,1,1,1,1,1,1,1,1,1,1,1,1,1,1,1,1,1,1,1,1,1,1,0,0,0,1,1,0,0,1,0,1,1,1,1,1,1,1,1,1,1,0,1,0,1,1,0,1,1,0,0,0,0,0,0,0,0,0,0,0,0,0,0,0,0,0,0,0,0,0,0,0,0,0,0,0,0,0,0,0,0,0,0,0,0,0,0,0,0,0,0,0,0,0,0],"id":6,"left_children":[1,3,5,7,9,11,13,15,17,19,21,23,25,27,29,31,33,35,37,39,41,43,45,47,49,51,53,55,57,59,61,63,65,67,69,71,-1,-1,-1,73,75,-1,-1,77,-1,79,81,83,85,87,89,91,93,95,97,-1,99,-1,101,103,-1,105,107,-1,-1,-1,-1,-1,-1,-1,-1,-1,-1,-1,-1,-1,-1,-1,-1,-1,-1,-1,-1,-1,-1,-1,-1,-1,-1,-1,-1,-1,-1,-1,-1,-1,-1,-1,-1,-1,-1,-1,-1,-1,-1,-1,-1,-1,-1],"loss_changes":[1.1764993E2,5.577585E1,9.1829796E1,7.474648E1,2.9263458E1,8.881288E1,6.522703E1,5.034327E1,3.4629177E1,2.4693863E1,3.4378235E1,8.237331E1,7.352519E1,1.0605711E2,2.81707E1,3.2656616E1,5.02886E1,1.671653E1,9.280439E0,2.0645828E1,1.0586314E1,1.8498867E1,4.3653843E1,3.8885185E1,3.691958E1,7.148869E1,3.7670498E1,2.532022E1,3.1530464E1,3.632379E1,2.4261292E1,1.2962059E1,4.426821E1,3.9627846E1,2.3333597E1,1.5273582E1,0E0,0E0,0E0,1.6408005E1,2.785054E1,0E0,0E0,1.625243E1,0E0,3.2446507E1,3.0813217E-1,3.585557E1,3.5390404E1,3.5840996E1,2.9520123E1,6.3996567E1,4.5679695E1,2.436081E1,2.3838879E1,0E0,1.5967373E1,0E0,3.0392756E1,2.7370985E1,0E0,1.925318E1,1.6198853E1,0E0,0E0,0E0,0E0,0E0,0E0,0E0,0E0,0E0,0E0,0E0,0E0,0E0,0E0,0E0,0E0,0E0,0E0,0E0,0E0,0E0,0E0,0E0,0E0,0E0,0E0,0E0,0E0,0E0,0E0,0E0,0E0,0E0,0E0,0E0,0E0,0E0,0E0,0E0,0E0,0E0,0E0,0E0,0E0,0E0,0E0],"parents":[2147483647,0,0,1,1,2,2,3,3,4,4,5,5,6,6,7,7,8,8,9,9,10,10,11,11,12,12,13,13,14,14,15,15,16,16,17,17,18,18,19,19,20,20,21,21,22,22,23,23,24,24,25,25,26,26,27,27,28,28,29,29,30,30,31,31,32,32,33,33,34,34,35,35,39,39,40,40,43,43,45,45,46,46,47,47,48,48,49,49,50,50,51,51,52,52,53,53,54,54,56,56,58,58,59,59,61,61,62,62],"right_children":[2,4,6,8,10,12,14,16,18,20,22,24,26,28,30,32,34,36,38,40,42,44,46,48,50,52,54,56,58,60,62,64,66,68,70,72,-1,-1,-1,74,76,-1,-1,78,-1,80,82,84,86,88,90,92,94,96,98,-1,100,-1,102,104,-1,106,108,-1,-1,-1,-1,-1,-1,-1,-1,-1,-1,-1,-1,-1,-1,-1,-1,-1,-1,-1,-1,-1,-1,-1,-1,-1,-1,-1,-1,-1,-1,-1,-1,-1,-1,-1,-1,-1,-1,-1,-1,-1,-1,-1,-1,-1,-1],"split_conditions":[4.5365E0,6.05E1,5E-1,4.405E2,6.75E1,8.5E0,7.15E1,9.725E1,2.005E2,9.05E1,9.1E1,7.35E1,7.95E1,1.95E0,1.385E2,1.145E2,7.225E-1,3.55E0,7.535E-1,5.345E2,2.941625E1,2.03E2,9.765E2,5.36E2,1.51E2,2.1865E0,6.25E1,1.1875E2,7.85E1,7.15E1,5.05E1,5.3E1,5.05E1,7.115E2,7.4E1,2.22428E1,-3.365404E-1,2.6028612E-1,-3.5701558E-1,4.875E2,2.316235E1,-6.2724334E-1,1.9803783E-1,2.416705E1,-5.7404315E-1,4.43E2,1.04E2,5.95E1,3.506945E1,1.4885E0,6.75E1,9.341667E1,3.91E2,1.8499999E0,6.075E-1,-5.301949E-1,2.4E1,-5.666713E-1,7.25E1,1.11E2,-4.639877E-1,9.0250003E-1,3.225E1,4.0481326E-1,-3.0202565E-1,4.741555E-2,-4.0356156E-1,3.592949E-1,-1.5871495E-1,-3.9256465E-1,2.7203554E-1,-2.873648E-1,4.419836E-1,-5.2491975E-1,2.626242E-1,-1.22608855E-1,1.5662712E-1,-1.4829345E-1,2.4621476E-1,2.3297947E-2,-7.7662224E-1,-2.6182032E-1,-9.096596E-1,-4.5034975E-1,2.0120163E-1,1.5217409E-1,-4.6615797E-1,1.762412E-1,-2.8821987E-1,-4.029435E-1,-5.323943E-2,-1.2038342E-1,-2.8550955E-2,9.593816E-2,-3.542196E-1,2.9441318E-1,-2.4411564E-1,-4.0121952E-1,1.6465202E-1,-3.8887432E-1,3.077724E-1,3.8020307E-1,-3.7226295E-1,2.2755608E-1,-4.0751672E-1,3.7765315E-1,-4.9062178E-1,3.362476E-1,-2.1000466E-1],"split_indices":[4,6,1,14,34,18,44,52,36,37,8,34,18,39,56,36,51,39,3,27,5,10,26,25,10,3,6,48,7,34,43,7,6,21,17,5,0,0,0,25,5,0,0,5,0,13,42,16,5,3,6,55,13,39,51,0,16,0,38,8,0,3,45,0,0,0,0,0,0,0,0,0,0,0,0,0,0,0,0,0,0,0,0,0,0,0,0,0,0,0,0,0,0,0,0,0,0,0,0,0,0,0,0,0,0,0,0,0,0],"split_type":[0,0,0,0,0,0,0,0,0,0,0,0,0,0,0,0,0,0,0,0,0,0,0,0,0,0,0,0,0,0,0,0,0,0,0,0,0,0,0,0,0,0,0,0,0,0,0,0,0,0,0,0,0,0,0,0,0,0,0,0,0,0,0,0,0,0,0,0,0,0,0,0,0,0,0,0,0,0,0,0,0,0,0,0,0,0,0,0,0,0,0,0,0,0,0,0,0,0,0,0,0,0,0,0,0,0,0,0,0],"sum_hessian":[6.516319E3,1.1455898E3,5.370729E3,2.6706152E2,8.7852826E2,5.044631E3,3.260983E2,2.0784683E2,5.92147E1,5.4434186E2,3.3418637E2,7.0872015E2,4.3359106E3,1.0325781E2,2.228405E2,1.1773996E2,9.010687E1,4.8848324E1,1.0366374E1,5.388571E2,5.484782E0,1.0803527E2,2.2615111E2,5.505975E2,1.5812268E2,4.0502603E3,2.856504E2,5.5142605E1,4.8115208E1,6.3375366E1,1.5946513E2,1.0595228E1,1.0714473E2,6.110234E1,2.900453E1,4.6669056E1,2.179269E0,2.0745702E0,8.291803E0,1.841052E2,3.547519E2,4.102327E0,1.3824555E0,1.0618747E2,1.8478059E0,2.2137093E2,4.780175E0,3.0342869E1,5.202546E2,7.008431E1,8.8038376E1,3.9168025E3,1.3345767E2,4.6916622E1,2.3873375E2,2.8964014E0,5.22462E1,3.0181932E1,1.7933273E1,5.4089436E1,9.285931E0,8.1285305E0,1.513366E2,8.286878E0,2.3083503E0,2.5410564E1,8.173417E1,4.2684494E1,1.8417849E1,2.3880817E1,5.1237125E0,2.079728E0,4.458933E1,1.5179254E0,1.8258727E2,3.498933E1,3.1976257E2,9.743071E0,9.64444E1,2.177099E2,3.6610305E0,1.1284603E0,3.6517148E0,1.8725847E1,1.1617021E1,5.127318E2,7.522743E0,4.9895996E1,2.0188316E1,4.9022255E1,3.901612E1,8.8059265E2,3.03621E3,2.4419863E1,1.0903781E2,8.457344E0,3.8459282E1,5.971082E0,2.3276268E2,2.310857E0,4.9935345E1,7.263426E0,1.06698475E1,4.8040703E1,6.0487337E0,2.6819868E0,5.4465437E0,1.4692056E2,4.4160266E0],"tree_param":{"num_deleted":"0","num_feature":"57","num_nodes":"109","size_leaf_vector":"0"}},{"base_weights":[-4.6895836E-3,3.0251333E-1,-4.3897677E-2,4.390818E-1,-2.651746E-1,-2.9348513E-1,4.403877E-3,-5.041553E-1,4.9733797E-1,1.360533E0,-4.0437523E-1,-1.7920761E-1,-6.0236245E-1,2.1206354E-1,-5.8360208E-2,-1.2855995E0,8.531878E-1,1.9621532E-1,6.8087447E-1,-8.0479586E-1,1.6816713E0,5.561422E-1,-7.248798E-1,2.1345936E-1,-3.4876433E-1,1.5758001E0,-7.031828E-1,-1.1152668E0,2.3812307E-1,-2.2488634E-1,2.9791027E-2,6.533085E-1,-1.678005E0,1.1662182E0,-1.0417198E0,-6.059296E-1,4.2915753E-1,7.0637673E-1,-1.9858203E0,-1.0508546E0,7.626093E-1,-1.1624358E0,9.944423E-2,-9.073368E-1,4.2072022E-1,-4.2639303E-1,6.974752E-1,6.852329E-1,5.017018E0,-9.1333556E-1,3.1370693E-1,6.048408E-1,-2.621868E0,3.4133685E-1,-2.6974862E-2,3.039908E-1,-3.8451344E-1,-3.7769988E-1,1.10109925E-1,7.7281034E-1,2.1797761E-1,4.218566E-1,1.3218366E0,-1.1692721E0,1.1055489E0,-9.5752454E-1,5.698572E-1,8.706019E-1,3.935829E-1,8.569668E-1,-8.994768E-1,1.0551722E0,-1.3566651E0,7.451864E-1,-1.7116812E0,-1.3051977E0,1.3556997E0,-6.83409E-1,5.9128803E-1,-4.729763E-1,1.5525128E0,-1.2435502E0,1.0443106E0,-9.402908E-1,1.492801E0,-9.706335E-1,9.146409E-1,-1.1815875E0,1.4070026E0,9.7582996E-1,-1.4971296E0,4.6222395E-1,4.2873684E-2,5.8791757E-2,-1.9506632E0,-1.0623522E0,4.800969E-1,-4.2532805E-1,1.0235614E0,-8.8322043E-1,1.740696E-2,-1.8020524E-1,2.1191233E-1],"categories":[],"categories_nodes":[],"categories_segments":[],"categories_sizes":[],"default_left":[1,1,1,1,1,1,1,1,1,1,1,1,1,1,1,1,1,1,1,0,0,1,1,1,1,1,1,1,1,1,1,1,0,1,0,1,1,1,0,0,1,1,1,1,1,1,1,1,0,1,1,1,0,1,1,1,1,1,1,0,0,0,0,0,0,0,0,0,0,0,0,0,0,0,0,0,0,0,0,0,0,0,0,0,0,0,0,0,0,0,0,0,0,0,0,0,0,0,0,0,0,0,0],"id":7,"left_children":[1,3,5,7,9,11,13,15,17,19,21,23,25,27,29,31,33,35,37,-1,-1,39,41,43,45,47,49,51,53,55,57,59,-1,61,-1,63,65,67,-1,-1,69,71,73,75,77,79,81,83,-1,85,87,89,-1,91,93,95,97,99,101,-1,-1,-1,-1,-1,-1,-1,-1,-1,-1,-1,-1,-1,-1,-1,-1,-1,-1,-1,-1,-1,-1,-1,-1,-1,-1,-1,-1,-1,-1,-1,-1,-1,-1,-1,-1,-1,-1,-1,-1,-1,-1,-1,-1],"loss_changes":[7.627809E1,5.5686897E1,6.770433E1,3.2020126E1,3.2146076E1,3.2034935E1,6.135281E1,3.729558E1,2.998854E1,9.170139E0,4.023242E1,4.44244E1,5.5020576E1,3.8055977E1,5.3070198E1,1.7878353E1,8.9676485E0,3.9088753E1,2.4404404E1,0E0,0E0,1.1729194E1,3.526213E1,4.7192154E1,3.8113495E1,3.0791882E1,5.0577156E1,5.655896E1,2.9349842E1,1.0575607E2,7.7429825E1,6.213355E-2,0E0,7.9638577E-1,0E0,4.6781082E1,3.2079266E1,1.6904877E1,0E0,0E0,5.4389324E0,2.8883125E1,4.186898E1,3.037005E1,3.2560448E1,4.0748642E1,2.3205414E1,1.4571794E1,0E0,2.134143E1,6.876909E1,9.818237E0,0E0,2.783039E1,4.984693E1,7.0451225E1,5.5700684E1,7.7821106E1,5.8437096E1,0E0,0E0,0E0,0E0,0E0,0E0,0E0,0E0,0E0,0E0,0E0,0E0,0E0,0E0,0E0,0E0,0E0,0E0,0E0,0E0,0E0,0E0,0E0,0E0,0E0,0E0,0E0,0E0,0E0,0E0,0E0,0E0,0E0,0E0,0E0,0E0,0E0,0E0,0E0,0E0,0E0,0E0,0E0,0E0],"parents":[2147483647,0,0,1,1,2,2,3,3,4,4,5,5,6,6,7,7,8,8,9,9,10,10,11,11,12,12,13,13,14,14,15,15,16,16,17,17,18,18,21,21,22,22,23,23,24,24,25,25,26,26,27,27,28,28,29,29,30,30,31,31,33,33,35,35,36,36,37,37,40,40,41,41,42,42,43,43,44,44,45,45,46,46,47,47,49,49,50,50,51,51,53,53,54,54,55,55,56,56,57,57,58,58],"right_children":[2,4,6,8,10,12,14,16,18,20,22,24,26,28,30,32,34,36,38,-1,-1,40,42,44,46,48,50,52,54,56,58,60,-1,62,-1,64,66,68,-1,-1,70,72,74,76,78,80,82,84,-1,86,88,90,-1,92,94,96,98,100,102,-1,-1,-1,-1,-1,-1,-1,-1,-1,-1,-1,-1,-1,-1,-1,-1,-1,-1,-1,-1,-1,-1,-1,-1,-1,-1,-1,-1,-1,-1,-1,-1,-1,-1,-1,-1,-1,-1,-1,-1,-1,-1,-1,-1],"split_conditions":[4.75E1,4.15E1,5.75E1,4.35E1,4.67E2,1.4875E0,1.1235E0,1.56E2,6.75E1,4.55E1,4.459E0,1.285E2,4.95E1,-4.25E1,1.635E2,3.5015001E0,1.3499999E0,6.55E1,1.51E2,-2.4143876E-1,5.045014E-1,6.35E1,9.46E2,5.195E2,7.75E1,1.0395E3,1.13E2,1.155E2,8.055E2,1.205E2,1.75E1,1.0135E0,-5.034015E-1,6.788E0,-3.1251594E-1,3.45E1,2.85E1,6.85E1,-5.957461E-1,-3.152564E-1,2.85E0,4.85E1,9.88294E0,1.429435E1,1.215E2,1.4814999E0,6.025E2,1.995E2,1.5051054E0,1.0105E3,6.65E1,6.425E1,-7.865604E-1,7.115E2,6.45E0,8.925E1,1.835E2,2.605E2,6.235E2,2.3184311E-1,6.5393284E-2,1.2655699E-1,3.9655098E-1,-3.5078162E-1,3.3166468E-1,-2.8725737E-1,1.7095716E-1,2.6118058E-1,1.1807488E-1,2.5709006E-1,-2.6984307E-1,3.165517E-1,-4.0699956E-1,2.2355592E-1,-5.135044E-1,-3.9155933E-1,4.067099E-1,-2.0502271E-1,1.7738642E-1,-1.418929E-1,4.6575385E-1,-3.7306505E-1,3.132932E-1,-2.8208727E-1,4.478403E-1,-2.9119006E-1,2.7439228E-1,-3.5447624E-1,4.2210078E-1,2.92749E-1,-4.4913888E-1,1.386672E-1,1.2862106E-2,1.7637528E-2,-5.85199E-1,-3.1870568E-1,1.4402908E-1,-1.2759842E-1,3.070684E-1,-2.6496613E-1,5.2220877E-3,-5.4061573E-2,6.35737E-2],"split_indices":[41,17,6,44,23,3,3,48,6,41,4,42,34,17,36,4,39,44,50,0,0,6,22,24,16,21,8,42,26,36,32,3,0,4,0,17,16,34,0,0,39,6,35,35,56,3,26,42,0,19,54,47,0,23,40,52,56,36,25,0,0,0,0,0,0,0,0,0,0,0,0,0,0,0,0,0,0,0,0,0,0,0,0,0,0,0,0,0,0,0,0,0,0,0,0,0,0,0,0,0,0,0,0],"split_type":[0,0,0,0,0,0,0,0,0,0,0,0,0,0,0,0,0,0,0,0,0,0,0,0,0,0,0,0,0,0,0,0,0,0,0,0,0,0,0,0,0,0,0,0,0,0,0,0,0,0,0,0,0,0,0,0,0,0,0,0,0,0,0,0,0,0,0,0,0,0,0,0,0,0,0,0,0,0,0,0,0,0,0,0,0,0,0,0,0,0,0,0,0,0,0,0,0,0,0,0,0,0,0],"sum_hessian":[6.3307407E3,7.1577686E2,5.614964E3,5.77157E2,1.3861989E2,9.0962177E2,4.7053423E3,3.3127594E1,5.4402936E2,1.0241121E1,1.2837877E2,6.651221E2,2.4449968E2,1.0915359E3,3.6138064E3,2.1057379E1,1.2070215E1,2.0680307E2,3.3722632E2,1.12817E0,9.112951E0,3.1935709E1,9.6443054E1,2.0051096E2,4.646111E2,1.0169259E1,2.3433043E2,2.0212738E1,1.0713231E3,1.2503065E3,2.3635E3,3.4324546E0,1.7624924E1,1.06889925E1,1.3812225E0,4.617986E1,1.6062321E2,3.3476004E2,2.466283E0,3.1703331E0,2.8765375E1,6.2733555E1,3.3709503E1,3.0765242E1,1.6974571E2,4.3307065E2,3.154045E1,9.03117E0,1.1380891E0,1.9428159E2,4.004884E1,9.717113E0,1.04956255E1,7.708941E2,3.0042905E2,2.8966913E2,9.606374E2,3.8854556E2,1.9749545E3,2.0849063E0,1.3475484E0,2.489922E0,8.19907E0,3.498211E1,1.1197747E1,1.4261536E1,1.4636168E2,2.1834155E2,1.16418465E2,2.767846E1,1.0869169E0,4.6950746E0,5.803848E1,2.5283445E1,8.426057E0,2.6525148E1,4.2400923E0,2.2311434E1,1.4743428E2,4.2385416E2,9.216502E0,4.389528E0,2.715092E1,2.9429886E0,6.088181E0,1.8883167E2,5.4499216E0,1.688059E1,2.316825E1,8.714749E0,1.0023631E0,5.4827606E2,2.2261801E2,2.8853433E2,1.18947115E1,3.2497833E1,2.571713E2,9.342549E2,2.638248E1,1.6991365E2,2.186319E2,5.12542E2,1.4624125E3],"tree_param":{"num_deleted":"0","num_feature":"57","num_nodes":"103","size_leaf_vector":"0"}},{"base_weights":[-4.673026E-3,2.7501243E-1,-3.73284E-2,3.2198602E-1,-9.8243594E-1,-1.21949084E-1,7.9899974E-2,2.8706387E-1,1.7880652E0,4.3633237E-1,-1.8727932E0,2.3741046E-1,-1.7757018E-1,4.7497275E-1,2.3266887E-2,-1.6340733E-1,4.082412E-1,2.3068628E0,-1.0302529E0,-1.0315218E0,9.5749205E-1,-2.299894E0,5.9584725E-1,2.8278086E-1,-2.4948628E0,-1.577126E-1,-1.0810752E0,9.1598314E-1,1.1596434E-1,-2.3793528E-2,5.50832E-1,-7.1477574E-1,6.9005245E-1,5.328958E-1,3.6759898E-2,3.1367555E0,1.2413721E0,4.5035726E-1,1.1230001E0,-1.238935E0,-3.37537E0,-8.144185E-1,3.8443327E-1,-1.7066278E-1,1.0813543E0,-1.2556508E0,8.523617E-1,-1.456482E0,1.0083926E0,-1.4846058E0,4.3956423E-1,3.4719947E-1,-8.1439935E-2,8.14159E-1,-3.1344137E-1,-1.0301192E0,1.7381948E-1,8.5953635E-1,-1.3028207E0,5.5652833E-1,-1.526637E0,-3.4276202E-1,6.906904E-1,-1.5384516E0,1.1012443E0,-6.817401E-1,4.6609315E-1,5.416814E-1,-1.9409877E-1,1.5422798E0,-1.4091452E0,2.3172126E0,-9.271436E-1,7.448049E-1,1.5889581E0,-1.854498E0,5.6347E-1,7.1997833E-1,-4.1789976E-1,5.455275E-1,-1.3024584E0,-4.8303393E-1,5.423851E-4,9.321501E-1,-5.791036E-1,6.3018674E-1,-1.5754987E0],"categories":[],"categories_nodes":[],"categories_segments":[],"categories_sizes":[],"default_left":[1,1,1,1,1,1,1,1,1,1,1,1,1,1,1,1,1,1,0,0,1,1,0,1,0,1,1,1,1,1,1,1,1,1,1,0,0,0,0,0,0,1,1,1,1,0,1,0,1,1,1,1,1,1,1,0,0,0,0,0,0,0,0,0,0,0,0,0,0,0,0,0,0,0,0,0,0,0,0,0,0,0,0,0,0,0,0],"id":8,"left_children":[1,3,5,7,9,11,13,15,17,19,21,23,25,27,29,31,33,35,-1,-1,37,39,-1,41,-1,43,45,47,49,51,53,55,57,59,61,-1,-1,-1,-1,-1,-1,63,65,67,69,-1,71,-1,73,75,77,79,81,83,85,-1,-1,-1,-1,-1,-1,-1,-1,-1,-1,-1,-1,-1,-1,-1,-1,-1,-1,-1,-1,-1,-1,-1,-1,-1,-1,-1,-1,-1,-1,-1,-1],"loss_changes":[5.627515E1,3.8367077E1,5.4740646E1,3.1319626E1,3.0433237E1,6.4096954E1,5.1753674E1,3.3281666E1,2.3247768E1,8.523588E0,1.6757729E1,5.4005066E1,4.9629677E1,4.581118E1,5.0278065E1,6.1525623E1,2.219751E1,7.038887E0,0E0,0E0,1.4797497E-1,1.0249161E1,0E0,4.758459E1,0E0,4.3784874E1,2.1161057E1,2.9969727E1,8.405041E1,3.980111E1,3.800018E1,2.239589E1,1.8485092E1,1.833068E1,3.0420317E1,0E0,0E0,0E0,0E0,0E0,0E0,5.1984463E1,3.414859E1,4.5012398E1,3.459258E1,0E0,1.6550598E1,0E0,1.8055069E1,2.1732368E1,3.2691048E1,8.260161E1,5.302129E1,2.148285E1,4.7977364E1,0E0,0E0,0E0,0E0,0E0,0E0,0E0,0E0,0E0,0E0,0E0,0E0,0E0,0E0,0E0,0E0,0E0,0E0,0E0,0E0,0E0,0E0,0E0,0E0,0E0,0E0,0E0,0E0,0E0,0E0,0E0,0E0],"parents":[2147483647,0,0,1,1,2,2,3,3,4,4,5,5,6,6,7,7,8,8,9,9,10,10,11,11,12,12,13,13,14,14,15,15,16,16,17,17,20,20,21,21,23,23,25,25,26,26,27,27,28,28,29,29,30,30,31,31,32,32,33,33,34,34,41,41,42,42,43,43,44,44,46,46,48,48,49,49,50,50,51,51,52,52,53,53,54,54],"right_children":[2,4,6,8,10,12,14,16,18,20,22,24,26,28,30,32,34,36,-1,-1,38,40,-1,42,-1,44,46,48,50,52,54,56,58,60,62,-1,-1,-1,-1,-1,-1,64,66,68,70,-1,72,-1,74,76,78,80,82,84,86,-1,-1,-1,-1,-1,-1,-1,-1,-1,-1,-1,-1,-1,-1,-1,-1,-1,-1,-1,-1,-1,-1,-1,-1,-1,-1,-1,-1,-1,-1,-1,-1],"split_conditions":[4.2395E0,8.325E-1,5E-1,1.8725E0,5.64E2,5.05E1,4.5E0,6.15E1,1.85E1,4.26E2,1.15E2,1.0255E3,2.1865E0,9.258333E1,9.95E1,1.475E1,1.0275E2,4.38E2,-3.090759E-1,-3.0945656E-1,5E-1,6.4E1,1.7875418E-1,1.225E1,-7.4845886E-1,9.054501E0,8.15E1,2.75E0,1.1975E2,4.265E2,6.05E1,4.1654997E0,7.425E-1,9.15E1,1.685E2,9.410267E-1,3.7241164E-1,1.3510719E-1,3.3690006E-1,-3.716805E-1,-1.012611E0,1.5425E2,1.385E2,3.15E1,1.1475E2,-3.7669525E-1,3.88E2,-4.3694463E-1,5.95E1,4.71E2,1.73E2,1.645E0,5.975E2,1.4675E2,5.85E1,-3.0903578E-1,5.2145846E-2,2.5786093E-1,-3.9084622E-1,1.6695851E-1,-4.579911E-1,-1.02828614E-1,2.0720713E-1,-4.6153548E-1,3.3037332E-1,-2.0452204E-1,1.3982795E-1,1.6250443E-1,-5.8229633E-2,4.6268398E-1,-4.227436E-1,6.951638E-1,-2.7814308E-1,2.2344148E-1,4.7668746E-1,-5.5634946E-1,1.6904101E-1,2.1599351E-1,-1.2536994E-1,1.6365826E-1,-3.9073753E-1,-1.4491019E-1,1.6271553E-4,2.7964506E-1,-1.7373109E-1,1.8905602E-1,-4.7264963E-1],"split_indices":[4,51,2,3,25,38,18,6,32,14,43,25,3,52,54,53,52,13,0,0,0,6,0,45,0,4,43,46,50,28,16,4,51,34,56,0,0,0,0,0,0,55,36,43,50,0,13,0,41,13,10,3,26,50,38,0,0,0,0,0,0,0,0,0,0,0,0,0,0,0,0,0,0,0,0,0,0,0,0,0,0,0,0,0,0,0,0],"split_type":[0,0,0,0,0,0,0,0,0,0,0,0,0,0,0,0,0,0,0,0,0,0,0,0,0,0,0,0,0,0,0,0,0,0,0,0,0,0,0,0,0,0,0,0,0,0,0,0,0,0,0,0,0,0,0,0,0,0,0,0,0,0,0,0,0,0,0,0,0,0,0,0,0,0,0,0,0,0,0,0,0,0,0,0,0,0,0],"sum_hessian":[6.159456E3,6.43198E2,5.5162583E3,6.207529E2,2.2445082E1,3.2036675E3,2.3125906E3,6.074785E2,1.3274396E1,8.851042E0,1.359404E1,4.289591E2,2.7747085E3,2.8901727E2,2.0235734E3,1.2869867E2,4.7877985E2,1.1363982E1,1.9104136E0,2.0625517E0,6.78849E0,1.1647292E1,1.9467483E0,4.228343E2,6.1248126E0,2.7161855E3,5.852283E1,1.290003E2,1.6001698E2,1.8587244E3,1.6484898E2,7.82856E1,5.0413063E1,3.581606E2,1.2061922E2,5.2954745E0,6.0685077E0,2.5859418E0,4.202548E0,6.9465227E0,4.7007694E0,3.525821E1,3.8757608E2,2.688944E3,2.724139E1,5.3997776E1,4.525053E0,4.2828836E0,1.2471742E2,2.6307692E1,1.3370929E2,2.4929866E2,1.6094258E3,1.2639647E2,3.8452515E1,5.766297E1,2.0622627E1,4.6985847E1,3.4272168E0,3.5481897E2,3.3416646E0,7.662448E1,4.3994736E1,2.5730255E1,9.527953E0,2.7050394E1,3.605257E2,8.494363E1,2.6040005E3,2.3308363E1,3.9330275E0,2.3162217E0,2.2088313E0,8.7344345E1,3.737307E1,2.236329E1,3.9443996E0,1.0087934E2,3.2829952E1,2.231411E2,2.6157555E1,2.72022E2,1.3374037E3,1.1683318E2,9.563287E0,2.2288376E1,1.6164139E1],"tree_param":{"num_deleted":"0","num_feature":"57","num_nodes":"87","size_leaf_vector":"0"}},{"base_weights":[-3.7512581E-3,-2.9142614E-2,3.0072942E-1,-4.837796E-2,4.5125997E-1,3.2790262E-1,-2.169533E0,-6.226454E-2,6.363399E-1,6.867246E-1,-4.6271056E-1,-1.5862582E0,3.6298153E-1,-1.01213595E-2,-2.8401935E-1,7.6719695E-1,-1.7118032E0,7.339926E-1,-1.5796409E0,3.1560788E-1,-1.3823329E0,3.9199823E-1,-9.6909755E-1,9.566231E-3,-7.693708E-1,-1.9985387E-1,-9.2767143E-1,1.2744436E0,4.2815542E-1,8.947256E-1,3.843604E-2,-1.8251435E0,6.38033E-1,6.2367487E-1,-1.9198958E0,3.260039E-1,9.474299E-1,-1.4911137E0,8.152093E-1,-1.0181599E-1,1.01457246E-1,6.075545E-1,-1.028679E0,-1.4626607E-1,-1.1267092E0,2.5559938E0,-1.0243064E0,1.424597E0,-1.0352337E0,-4.3803746E-1,8.769045E-1,9.9564576E-1,3.3634597E-1,4.8094344E-1,-9.604145E-1,8.085179E-1,-1.2312461E0,1.4051096E-1,8.323517E-1,3.538476E-1,-2.060995E0,1.1017584E0,-1.0724063E-1],"categories":[],"categories_nodes":[],"categories_segments":[],"categories_sizes":[],"default_left":[1,1,1,1,1,1,0,1,1,1,1,0,1,1,1,1,0,1,0,1,1,1,1,1,1,1,1,1,1,1,1,0,1,1,0,1,1,0,0,0,0,0,0,0,0,0,0,0,0,0,0,0,0,0,0,0,0,0,0,0,0,0,0],"id":9,"left_children":[1,3,5,7,9,11,-1,13,15,17,19,-1,21,23,25,27,-1,29,-1,31,33,35,37,39,41,43,45,47,49,51,53,-1,55,57,-1,59,61,-1,-1,-1,-1,-1,-1,-1,-1,-1,-1,-1,-1,-1,-1,-1,-1,-1,-1,-1,-1,-1,-1,-1,-1,-1,-1],"loss_changes":[4.6652546E1,5.149001E1,3.1889854E1,5.0968422E1,4.648479E1,3.148336E1,0E0,6.071029E1,3.4055313E1,1.9475952E1,3.231836E1,0E0,1.7882893E1,6.3566704E1,5.3963554E1,1.693127E1,0E0,1.8766808E1,0E0,1.8378262E1,2.3415756E1,1.596199E1,1.0475643E1,4.2440712E1,3.9001804E1,4.380324E1,4.143802E1,1.5418655E1,2.4645676E1,7.3603897E0,1.4876286E1,0E0,8.138968E0,3.981887E-1,0E0,2.71996E1,7.705551E0,0E0,0E0,0E0,0E0,0E0,0E0,0E0,0E0,0E0,0E0,0E0,0E0,0E0,0E0,0E0,0E0,0E0,0E0,0E0,0E0,0E0,0E0,0E0,0E0,0E0,0E0],"parents":[2147483647,0,0,1,1,2,2,3,3,4,4,5,5,7,7,8,8,9,9,10,10,12,12,13,13,14,14,15,15,17,17,19,19,20,20,21,21,22,22,23,23,24,24,25,25,26,26,27,27,28,28,29,29,30,30,32,32,33,33,35,35,36,36],"right_children":[2,4,6,8,10,12,-1,14,16,18,20,-1,22,24,26,28,-1,30,-1,32,34,36,38,40,42,44,46,48,50,52,54,-1,56,58,-1,60,62,-1,-1,-1,-1,-1,-1,-1,-1,-1,-1,-1,-1,-1,-1,-1,-1,-1,-1,-1,-1,-1,-1,-1,-1,-1,-1],"split_conditions":[5E-1,1.29E2,9.855E2,1.265E2,7.35E1,2.2277351E1,-6.5085995E-1,5.45E0,1.0545E3,8.75E1,4.85E1,-4.7587746E-1,9.55E1,2.1785E0,6.7155E0,6.65E1,-5.13541E-1,4.65E1,-4.7389227E-1,2.15E1,4.13E0,1.1865E3,4.67E2,5E-1,5.3967752E0,8.14E2,-2.65E1,1.14E2,7.135E2,9.55E1,1.05E2,-5.4754305E-1,8.35E1,7.45E1,-5.7596874E-1,1.12E2,5.7834997E0,-4.473341E-1,2.445628E-1,-3.0544799E-2,3.0437175E-2,1.8226635E-1,-3.086037E-1,-4.3879822E-2,-3.3801278E-1,7.667982E-1,-3.0729192E-1,4.2737913E-1,-3.1057012E-1,-1.3141124E-1,2.6307136E-1,2.9869375E-1,1.00903794E-1,1.4428304E-1,-2.8812438E-1,2.4255536E-1,-3.6937386E-1,4.215329E-2,2.4970551E-1,1.06154285E-1,-6.1829853E-1,3.305275E-1,-3.2172192E-2],"split_indices":[1,12,29,44,49,5,0,40,22,37,41,0,34,3,4,37,0,31,0,33,4,21,14,0,35,30,16,43,23,44,8,0,54,6,0,44,4,0,0,0,0,0,0,0,0,0,0,0,0,0,0,0,0,0,0,0,0,0,0,0,0,0,0],"split_type":[0,0,0,0,0,0,0,0,0,0,0,0,0,0,0,0,0,0,0,0,0,0,0,0,0,0,0,0,0,0,0,0,0,0,0,0,0,0,0,0,0,0,0,0,0,0,0,0,0,0,0,0,0,0,0,0,0,0,0,0,0,0,0],"sum_hessian":[6.0322056E3,5.568721E3,4.634844E2,5.3551978E3,2.1352313E2,4.5929932E2,4.1850867E0,5.24964E3,1.05557465E2,1.699801E2,4.3543034E1,7.4698577E0,4.5182944E2,4.2510894E3,9.985508E2,1.0062322E2,4.9342446E0,1.671697E2,2.8104043E0,2.3939093E1,1.9603941E1,4.4288776E2,8.941707E0,4.144606E3,1.0648361E2,8.8423645E2,1.1431437E2,3.920656E1,6.1416664E1,1.3555788E2,3.1611813E1,2.5235083E0,2.1415585E1,4.1092772E0,1.5494663E1,3.9727228E2,4.561547E1,7.0449553E0,1.8967516E0,1.8735477E3,2.271058E3,1.6662558E1,8.982105E1,8.370015E2,4.7234924E1,2.3985186E0,1.11915855E2,3.717312E1,2.0334394E0,2.0967756E1,4.0448906E1,1.1414458E2,2.1413301E1,2.2266075E1,9.345738E0,2.0145697E1,1.2698884E0,1.7441858E0,2.3650918E0,3.9353357E2,3.7387033E0,3.975372E1,5.861754E0],"tree_param":{"num_deleted":"0","num_feature":"57","num_nodes":"63","size_leaf_vector":"0"}},{"base_weights":[-3.118218E-3,-2.3575462E-2,3.2355863E-1,1.1616174E-1,-7.155736E-2,4.3406102E-1,-4.685572E-1,1.7485553E-1,-4.308579E-1,2.6628971E-2,-1.945258E-1,-1.2991669E0,4.7557023E-1,7.8195465E-1,-1.1707721E0,-7.7063066E-1,2.1655701E-1,1.3319091E-1,-1.2240148E0,-6.123592E-1,6.431506E-2,-1.18581586E-1,-6.513362E-1,-1.38333E0,5.110556E-1,-9.7709197E-1,1.0384208E0,-1.4644036E0,6.720354E-1,-1.1760451E0,3.8033152E-1,2.495764E-1,-5.4642904E-1,-1.4887024E-1,2.3661504E0,-1.4700751E0,1.9312988E-1,1.3932031E0,-7.358962E-1,-4.6989205E-3,3.7874258E-1,-8.7731206E-1,-5.995426E-2,-8.0730534E-1,4.8133576E-1,-7.3492944E-1,5.5313444E-1,-7.5418216E-1,1.2295505E0,7.762555E-2,-1.6403414E0,-1.4282268E0,1.2665805E0,8.129191E-1,-1.1825753E0,8.444273E-1,1.9739331E-1,-1.4640181E0,4.889562E-1,-6.5833974E-1,7.802419E-1,-8.4791183E-1,2.933318E0,-1.6620716E0,6.1020046E-1,-1.2393674E0,9.5868E-1,6.742104E-1,1.9738585E0,-1.20459E0,-1.4794213E-1,5.4829918E-2,-3.8101608E-1,-1.2179005E0,4.3656388E-1,-1.0681483E0,2.9713088E-1,6.2559116E-1,-1.1665001E-1,4.7471854E-1,-9.276468E-1,7.9832345E-1,-1.8641666E0,7.4859846E-1,-1.8150427E0,-5.736202E-1,6.025734E-1,7.27485E-1,-6.726258E-1],"categories":[],"categories_nodes":[],"categories_segments":[],"categories_sizes":[],"default_left":[1,1,1,1,1,1,1,1,1,1,1,0,1,1,1,1,1,1,1,1,1,1,1,0,1,0,1,1,0,1,1,1,1,1,1,1,1,1,1,1,1,1,1,1,1,1,1,0,0,1,0,0,0,0,0,0,0,0,0,0,0,0,0,0,0,0,0,0,0,0,0,0,0,0,0,0,0,0,0,0,0,0,0,0,0,0,0,0,0],"id":10,"left_children":[1,3,5,7,9,11,13,15,17,19,21,-1,23,25,27,29,31,33,35,37,39,41,43,-1,45,-1,47,49,-1,51,53,55,57,59,61,63,65,67,69,71,73,75,77,79,81,83,85,-1,-1,87,-1,-1,-1,-1,-1,-1,-1,-1,-1,-1,-1,-1,-1,-1,-1,-1,-1,-1,-1,-1,-1,-1,-1,-1,-1,-1,-1,-1,-1,-1,-1,-1,-1,-1,-1,-1,-1,-1,-1],"loss_changes":[3.9642555E1,3.7436226E1,3.0802387E1,4.589863E1,5.018385E1,2.2726696E1,3.8919113E1,5.1014793E1,6.2163857E1,5.570807E1,6.3938698E1,0E0,2.0551933E1,8.306183E0,1.6197525E1,2.5969814E1,3.1273758E1,5.193074E1,2.040207E1,3.2947407E1,4.7391907E1,7.038254E1,4.6818756E1,0E0,1.592263E1,0E0,5.9263973E0,6.792053E0,0E0,2.687561E1,1.1105069E1,3.6628113E1,4.972165E1,3.5375767E1,1.9337276E1,2.0694832E1,1.1517884E1,1.9345694E0,3.344715E1,4.016045E1,3.6820908E1,2.5756477E1,5.7244637E1,3.613826E1,2.56046E1,1.7538496E1,1.6324455E1,0E0,0E0,2.1814468E0,0E0,0E0,0E0,0E0,0E0,0E0,0E0,0E0,0E0,0E0,0E0,0E0,0E0,0E0,0E0,0E0,0E0,0E0,0E0,0E0,0E0,0E0,0E0,0E0,0E0,0E0,0E0,0E0,0E0,0E0,0E0,0E0,0E0,0E0,0E0,0E0,0E0,0E0,0E0],"parents":[2147483647,0,0,1,1,2,2,3,3,4,4,5,5,6,6,7,7,8,8,9,9,10,10,12,12,13,13,14,14,15,15,16,16,17,17,18,18,19,19,20,20,21,21,22,22,24,24,26,26,27,27,29,29,30,30,31,31,32,32,33,33,34,34,35,35,36,36,37,37,38,38,39,39,40,40,41,41,42,42,43,43,44,44,45,45,46,46,49,49],"right_children":[2,4,6,8,10,12,14,16,18,20,22,-1,24,26,28,30,32,34,36,38,40,42,44,-1,46,-1,48,50,-1,52,54,56,58,60,62,64,66,68,70,72,74,76,78,80,82,84,86,-1,-1,88,-1,-1,-1,-1,-1,-1,-1,-1,-1,-1,-1,-1,-1,-1,-1,-1,-1,-1,-1,-1,-1,-1,-1,-1,-1,-1,-1,-1,-1,-1,-1,-1,-1,-1,-1,-1,-1,-1,-1],"split_conditions":[7.85E1,1.95E1,7.35E1,8.15E1,5.65E1,6.025E-1,7.1E1,3.875E2,7.505E2,5.25E1,1.5158334E2,-3.897501E-1,2.0351849E1,4.35E2,3.5807297E1,1.335E2,8.75E1,9.55E2,6.15E1,4.95E1,5.85E1,5.295E2,1.21E2,-4.14999E-1,3.925E2,-2.931276E-1,6.45E1,4.96E2,2.0161062E-1,7.9E1,9.726191E0,1.185E2,1.11E2,5.45E1,6.12E2,1.125E2,1.35E1,9.05E2,7.65E1,1.7214999E0,9.275E1,7.85E1,3.05E0,5.125E2,9.43E2,5.1E1,-4.15E1,-2.2625466E-1,3.6886516E-1,1.181E0,-4.9210244E-1,-4.2846808E-1,3.7997416E-1,2.4387573E-1,-3.5477263E-1,2.533282E-1,5.9217997E-2,-4.3920544E-1,1.4668687E-1,-1.9750193E-1,2.3407258E-1,-2.5437355E-1,8.799954E-1,-4.986215E-1,1.8306014E-1,-3.7181023E-1,2.87604E-1,2.0226313E-1,5.9215754E-1,-3.61377E-1,-4.438264E-2,1.6448976E-2,-1.14304826E-1,-3.6537015E-1,1.3096917E-1,-3.204445E-1,8.913927E-2,1.8767735E-1,-3.4995005E-2,1.4241557E-1,-2.7829406E-1,2.3949705E-1,-5.5925E-1,2.2457954E-1,-5.4451287E-1,-1.7208606E-1,1.8077202E-1,2.182455E-1,-2.0178774E-1],"split_indices":[18,18,17,34,16,51,8,28,22,6,48,0,5,13,5,55,49,19,41,34,18,25,8,0,14,0,49,24,0,6,35,36,8,31,26,44,18,21,34,3,50,16,40,24,19,34,17,0,0,3,0,0,0,0,0,0,0,0,0,0,0,0,0,0,0,0,0,0,0,0,0,0,0,0,0,0,0,0,0,0,0,0,0,0,0,0,0,0,0],"split_type":[0,0,0,0,0,0,0,0,0,0,0,0,0,0,0,0,0,0,0,0,0,0,0,0,0,0,0,0,0,0,0,0,0,0,0,0,0,0,0,0,0,0,0,0,0,0,0,0,0,0,0,0,0,0,0,0,0,0,0,0,0,0,0,0,0,0,0,0,0,0,0,0,0,0,0,0,0,0,0,0,0,0,0,0,0,0,0,0,0],"sum_hessian":[5.929791E3,5.5812104E3,3.4858023E2,1.4262208E3,4.1549897E3,3.0630222E2,4.2278E1,1.288634E3,1.3758676E2,2.31073E3,1.8442599E3,6.455442E0,2.9984677E2,1.5162644E1,2.7115355E1,5.3696995E1,1.2349371E3,8.089257E1,5.6694195E1,1.2784244E2,2.1828875E3,1.5824406E3,2.6181934E2,4.9051933E0,2.949416E2,1.571848E0,1.3590796E1,2.3565748E1,3.5496068E0,3.969356E1,1.4003433E1,1.1843552E3,5.05819E1,7.264907E1,8.243496E0,4.827483E1,8.419363E0,6.8214784E0,1.2102096E2,1.7908068E3,3.9208072E2,1.1250344E2,1.4699371E3,2.3038283E2,3.1436508E1,9.09734E0,2.8584424E2,1.0256181E0,1.2565178E1,2.4706063E0,2.1095142E1,3.6355442E1,3.3381224E0,1.1343579E1,2.6598537E0,9.429345E1,1.0900618E3,2.659693E1,2.3984972E1,4.7108837E1,2.5540234E1,1.1622404E0,7.0812554E0,4.437988E1,3.8949516E0,2.716787E0,5.7025757E0,4.0132356E0,2.8082433E0,6.675652E1,5.4264435E1,1.5469519E3,2.4385484E2,1.3001516E1,3.790792E2,9.6855774E1,1.5647667E1,1.1151401E2,1.3584231E3,1.9517193E1,2.1086565E2,2.827488E1,3.1616297E0,3.9622052E0,5.135134E0,1.156923E1,2.7427502E2,1.3401382E0,1.1304681E0],"tree_param":{"num_deleted":"0","num_feature":"57","num_nodes":"89","size_leaf_vector":"0"}},{"base_weights":[-3.7962701E-3,-1.3284194E-2,6.3136095E-1,-6.187626E-1,-3.0565863E-3,7.81167E-1,-1.5937328E0,-1.4461067E-1,-1.2244822E0,-6.7118965E-2,8.563781E-2,1.0999548E0,-5.996968E-3,-9.3937135E-1,4.0637434E-1,-1.4785783E0,3.150734E-1,2.3222642E-1,-1.0844084E-1,1.1433585E-1,-5.4206574E-1,-1.1222218E0,1.2176875E0,-1.83855E0,8.412991E-1,1.0651706E0,-1.3109907E0,6.705226E-1,-1.2126307E0,-1.4188365E0,1.1030922E0,-4.7731265E-1,4.525918E-1,-3.178362E-1,-4.127892E-2,-8.345525E-1,1.3421418E-1,6.212962E-1,-1.1826378E0,4.1652185E-1,1.3685482E0,1.208884E0,-1.3233255E0,-1.0729506E0,9.5130235E-1,4.8115903E-1,-1.2461743E0,6.674826E-1,-3.892824E-2,1.0565697E-1,-5.221946E-1,6.136302E-1,-8.3844714E-2,7.844055E-1,-1.5133953E0,7.580025E-2,4.4145706E-1,1.2715156E0,-3.4683144E-1,9.6858686E-1,-1.3409127E0,-1.6036762E0,8.558811E-1,2.3189383E-2,1.4136983E0,3.732931E-1,1.3230646E0],"categories":[],"categories_nodes":[],"categories_segments":[],"categories_sizes":[],"default_left":[1,1,1,1,1,1,0,1,1,1,1,1,1,1,1,0,1,1,1,1,1,0,1,0,1,0,0,1,0,0,0,1,1,1,1,1,1,1,1,1,1,1,0,0,0,0,0,0,0,0,0,0,0,0,0,0,0,0,0,0,0,0,0,0,0,0,0],"id":11,"left_children":[1,3,5,7,9,11,-1,13,15,17,19,21,23,25,27,-1,29,31,33,35,37,-1,39,-1,41,-1,-1,43,-1,-1,-1,45,47,49,51,53,55,57,59,61,63,65,-1,-1,-1,-1,-1,-1,-1,-1,-1,-1,-1,-1,-1,-1,-1,-1,-1,-1,-1,-1,-1,-1,-1,-1,-1],"loss_changes":[3.5071877E1,3.5504795E1,2.9796875E1,2.71759E1,3.20492E1,2.0313526E1,0E0,2.427156E1,1.6772385E1,4.053522E1,4.267381E1,1.6436829E1,3.9309902E1,1.8260365E1,1.4890244E1,0E0,1.0759913E1,6.2378357E1,4.0467327E1,4.279568E1,7.7935196E1,0E0,6.099823E0,0E0,1.5378773E1,0E0,0E0,1.5189522E1,0E0,0E0,0E0,7.038718E1,3.2121098E1,6.053901E1,6.0838043E1,5.237016E1,3.9761658E1,2.4010393E1,2.41633E1,1.0410206E1,2.7615356E0,9.683342E-1,0E0,0E0,0E0,0E0,0E0,0E0,0E0,0E0,0E0,0E0,0E0,0E0,0E0,0E0,0E0,0E0,0E0,0E0,0E0,0E0,0E0,0E0,0E0,0E0,0E0],"parents":[2147483647,0,0,1,1,2,2,3,3,4,4,5,5,7,7,8,8,9,9,10,10,11,11,12,12,13,13,14,14,16,16,17,17,18,18,19,19,20,20,22,22,24,24,27,27,31,31,32,32,33,33,34,34,35,35,36,36,37,37,38,38,39,39,40,40,41,41],"right_children":[2,4,6,8,10,12,-1,14,16,18,20,22,24,26,28,-1,30,32,34,36,38,-1,40,-1,42,-1,-1,44,-1,-1,-1,46,48,50,52,54,56,58,60,62,64,66,-1,-1,-1,-1,-1,-1,-1,-1,-1,-1,-1,-1,-1,-1,-1,-1,-1,-1,-1,-1,-1,-1,-1,-1,-1],"split_conditions":[1.1455E3,4.416667E0,3.0738998E1,2.25E1,5E-1,7.225E-1,-4.7811988E-1,1.95E1,4.585E2,9.616667E1,8.75E1,6.475E-1,7.575E-1,4.81E2,9.7E1,-4.435735E-1,1.2525E2,8.625E1,2.4156849E1,7.1E1,8.35E2,-3.3666655E-1,1.405E2,-5.51565E-1,1.0585E3,3.195512E-1,-3.9329723E-1,6.815E2,-3.6378923E-1,-4.2565095E-1,3.3092767E-1,2.45E1,4.65E1,9.1E1,2.443185E1,2.95E0,1.0841667E2,6.155E2,4.25E1,3.55E1,3.995E2,9.5E0,-3.9699766E-1,-3.218852E-1,2.853907E-1,1.4434771E-1,-3.738523E-1,2.002448E-1,-1.1678472E-2,3.169709E-2,-1.566584E-1,1.8408906E-1,-2.5153415E-2,2.3532167E-1,-4.5401862E-1,2.2740075E-2,1.3243712E-1,3.814547E-1,-1.0404944E-1,2.9057607E-1,-4.0227383E-1,-4.8110288E-1,2.5676435E-1,6.9568153E-3,4.2410952E-1,1.1198793E-1,3.969194E-1],"split_indices":[23,45,5,32,2,51,0,32,14,50,49,51,51,22,44,0,50,50,5,12,15,0,56,0,27,0,0,21,0,0,0,18,17,8,5,40,52,24,7,18,14,11,0,0,0,0,0,0,0,0,0,0,0,0,0,0,0,0,0,0,0,0,0,0,0,0,0],"split_type":[0,0,0,0,0,0,0,0,0,0,0,0,0,0,0,0,0,0,0,0,0,0,0,0,0,0,0,0,0,0,0,0,0,0,0,0,0,0,0,0,0,0,0,0,0,0,0,0,0,0,0,0,0,0,0,0,0,0,0,0,0,0,0,0,0,0,0],"sum_hessian":[5.8173877E3,5.732732E3,8.465597E1,9.423913E1,5.6384927E3,7.9923965E1,4.732007E0,5.3555275E1,4.0683853E1,3.2739907E3,2.364502E3,5.6603252E1,2.3320711E1,2.1638388E1,3.1916887E1,3.4954407E1,5.729448E0,3.965645E2,2.8774263E3,2.2619075E3,1.02594536E2,2.418709E0,5.4184544E1,7.003489E0,1.6317223E1,3.0922527E0,1.8546135E1,2.7943602E1,3.9732854E0,1.540129E0,4.189319E0,9.37001E1,3.028644E2,6.978764E2,2.1795498E3,4.5571613E1,2.2163357E3,3.6441723E1,6.615281E1,9.182205E0,4.500234E1,1.4325988E1,1.9912348E0,3.4846575E0,2.4458944E1,4.1873867E1,5.182624E1,2.1048369E2,9.238071E1,2.2730788E2,4.7056854E2,1.3219572E2,2.0473541E3,1.3417351E1,3.2154263E1,1.8633221E3,3.5301364E2,2.1612703E1,1.4829021E1,4.1827316E0,6.1970078E1,1.1668642E0,8.015341E0,1.5103811E0,4.3491955E1,2.2355099E0,1.2090478E1],"tree_param":{"num_deleted":"0","num_feature":"57","num_nodes":"67","size_leaf_vector":"0"}},{"base_weights":[-3.8082493E-3,4.9540377E-1,-1.462206E-2,6.9312334E-1,-1.3223873E0,-9.229605E-3,-8.996136E-1,1.1070349E0,5.0126694E-2,3.3425412E-1,-2.2746705E-2,-1.1594394E0,8.063341E-1,1.517182E0,4.816226E-1,-6.7920387E-1,8.2567704E-1,-1.3754156E0,4.1561928E-1,-8.823287E-2,6.312662E-2,-1.3454971E0,8.126939E-1,1.6713301E0,-6.649829E-1,-1.2805251E0,8.5195255E-1,-1.3546543E0,6.344203E-1,1.4291787E0,-4.6979895E-1,4.0361595E-1,-1.6794963E0,1.325372E-1,8.097869E-1,-2.7167374E-1,-2.0571029E-2,1.06948435E-1,-3.2801336E-1,1.9883788E0,1.0742079E0,-1.4066248E0,4.5301598E-1,1.1988841E0,-9.0880644E-1,1.1162109E0,-9.2210615E-1,8.6130136E-1,-1.4137437E0,-2.4908315E-1,8.386789E-1,8.8015413E-1,-1.7198286E0,-2.3103978E-2,-4.528017E-1,4.2319942E-2,-3.346847E-1,3.0156446E-1,1.2052097E-2,3.346934E-1,-6.255921E-1],"categories":[],"categories_nodes":[],"categories_segments":[],"categories_sizes":[],"default_left":[1,1,1,1,0,1,1,1,1,1,1,1,0,1,1,1,1,1,1,1,1,0,0,1,1,0,1,0,1,0,1,0,0,1,1,1,1,1,1,0,0,0,0,0,0,0,0,0,0,0,0,0,0,0,0,0,0,0,0,0,0],"id":12,"left_children":[1,3,5,7,-1,9,11,13,15,17,19,21,-1,23,25,27,29,31,33,35,37,-1,-1,39,41,-1,43,-1,45,-1,47,-1,-1,49,51,53,55,57,59,-1,-1,-1,-1,-1,-1,-1,-1,-1,-1,-1,-1,-1,-1,-1,-1,-1,-1,-1,-1,-1,-1],"loss_changes":[3.1021212E1,4.470668E1,2.6831978E1,2.9364529E1,0E0,2.5966803E1,1.6028275E1,1.6507713E1,2.5640018E1,3.002925E1,3.0262304E1,1.2087109E1,0E0,1.4607361E1,1.9416527E1,2.1620832E1,1.7824305E1,6.007601E0,2.2533638E1,3.788768E1,3.994541E1,0E0,0E0,5.0124817E0,3.4253068E0,0E0,1.5631538E1,0E0,7.498669E0,0E0,1.0924123E1,0E0,0E0,3.2355286E1,1.6575848E1,3.702392E1,4.4095284E1,3.86801E1,4.6519966E1,0E0,0E0,0E0,0E0,0E0,0E0,0E0,0E0,0E0,0E0,0E0,0E0,0E0,0E0,0E0,0E0,0E0,0E0,0E0,0E0,0E0,0E0],"parents":[2147483647,0,0,1,1,2,2,3,3,5,5,6,6,7,7,8,8,9,9,10,10,11,11,13,13,14,14,15,15,16,16,17,17,18,18,19,19,20,20,23,23,24,24,26,26,28,28,30,30,33,33,34,34,35,35,36,36,37,37,38,38],"right_children":[2,4,6,8,-1,10,12,14,16,18,20,22,-1,24,26,28,30,32,34,36,38,-1,-1,40,42,-1,44,-1,46,-1,48,-1,-1,50,52,54,56,58,60,-1,-1,-1,-1,-1,-1,-1,-1,-1,-1,-1,-1,-1,-1,-1,-1,-1,-1,-1,-1,-1,-1],"split_conditions":[3.45E1,5.15E1,9.375E-1,7.15E1,-3.967162E-1,4.95E1,3.382425E1,6.6E2,9.3E1,5.535E2,4.45E1,1.43E2,2.4190024E-1,2.825E1,8.275E2,8.03E2,3.81E2,3.655E2,2.74822E1,6.15E1,9.35E1,-4.0364915E-1,2.4380818E-1,8.7E1,3.25E1,-3.8415754E-1,7.455E2,-4.063963E-1,5.165E0,4.2875364E-1,1.25E1,1.2108479E-1,-5.038489E-1,2.25E1,5.25E1,1.625E1,6.6025E0,4.15E1,6.57E2,5.965136E-1,3.2226238E-1,-4.2198744E-1,1.359048E-1,3.5966524E-1,-2.7264196E-1,3.348633E-1,-2.7663186E-1,2.5839043E-1,-4.2412314E-1,-7.472495E-2,2.516037E-1,2.6404625E-1,-5.159486E-1,-6.9311936E-3,-1.3584052E-1,1.2695983E-2,-1.0040542E-1,9.046934E-2,3.6156294E-3,1.00408025E-1,-1.8767764E-1],"split_indices":[37,17,51,34,0,34,5,24,12,25,31,12,0,45,21,26,13,30,5,6,44,0,0,12,37,0,30,0,4,0,32,0,0,32,7,45,4,16,21,0,0,0,0,0,0,0,0,0,0,0,0,0,0,0,0,0,0,0,0,0,0],"split_type":[0,0,0,0,0,0,0,0,0,0,0,0,0,0,0,0,0,0,0,0,0,0,0,0,0,0,0,0,0,0,0,0,0,0,0,0,0,0,0,0,0,0,0,0,0,0,0,0,0,0,0,0,0,0,0,0,0,0,0,0,0],"sum_hessian":[5.744046E3,1.20837875E2,5.623208E3,1.0954181E2,1.1296067E1,5.5901562E3,3.3051666E1,6.620345E1,4.3338352E1,2.1076132E2,5.379395E3,2.8961079E1,4.090588E0,3.9121548E1,2.7081907E1,2.239873E1,2.0939623E1,8.852189E0,2.0190912E2,3.0519673E3,2.327428E3,2.6754698E1,2.2063818E0,3.6758987E1,2.3625605E0,4.2762675E0,2.280564E1,1.4771935E1,7.626794E0,1.421453E1,6.7250924E0,1.2444097E0,7.607779E0,1.182913E2,8.361783E1,8.21567E2,2.2304001E3,2.0935962E3,2.3383182E2,2.2488522E1,1.4270467E1,1.2651445E0,1.0974159E0,1.9318352E1,3.4872866E0,6.0400915E0,1.5867021E0,2.8266513E0,3.8984413E0,7.721126E1,4.108004E1,8.198917E1,1.6286612E0,3.467856E2,4.747814E2,1.8590514E3,3.7134882E2,6.855249E2,1.4080712E3,7.242249E1,1.6140933E2],"tree_param":{"num_deleted":"0","num_feature":"57","num_nodes":"61","size_leaf_vector":"0"}},{"base_weights":[-2.8792825E-3,-5.6151366E-1,5.444788E-3,-1.1219668E0,2.959852E-1,-2.8878503E-2,1.3560489E-1,9.0247756E-1,-1.2409393E0,8.286607E-1,-1.4166602E0,5.47275E-2,-1.4130484E-1,2.576746E-1,-1.8651204E-1,-1.3895231E0,3.2586914E-1,1.099142E0,-1.2519906E0,8.491804E-2,-5.8915454E-1,-9.2336434E-1,-1.0694905E-1,7.2714096E-1,1.919895E-1,-4.806283E-1,4.3668002E-1,5.4984033E-1,-1.4764851E0,1.2786977E0,-9.1055423E-1,1.2542809E0,-1.1533859E0,-4.6478983E-2,2.1271227E-1,-7.0431066E-1,1.9834969E0,5.561816E-1,-1.2445023E0,-1.4704978E-1,4.437625E-1,9.8273546E-1,-6.8486893E-1,4.7831398E-1,5.577949E-2,3.0319366E-1,-8.048708E-1,-2.863209E-1,9.173504E-1,-1.2346368E0,-1.7376293E0,1.4152871E0,-4.6090636E-1,-7.0032686E-2,1.2427454E0,-1.8379056E0,2.2675921E-1,4.4262746E-1,-9.60117E-1,2.310409E0,3.7903714E-1,1.2848632E0,-1.3732513E0,-1.381137E0,8.4290403E-1,-1.3753636E0,-1.2621021E-1,1.0086429E0,1.8380512E-1,1.0854344E0,-1.0548866E0,-1.323868E0,1.3544525E0,5.327318E-1,-1.8960915E0,5.272617E-1,-7.467221E-2,-1.138778E0,9.829591E-1,1.2163558E-1,-1.0601513E0,1.2624124E-1,-1.486597E0,1.4502761E0,2.5085708E-1],"categories":[],"categories_nodes":[],"categories_segments":[],"categories_sizes":[],"default_left":[1,1,1,1,1,1,1,0,1,1,0,1,1,1,1,1,1,1,0,1,1,1,1,1,1,1,1,0,1,0,0,1,0,1,1,1,1,1,1,1,1,1,1,1,1,1,1,1,1,0,0,0,0,0,0,0,0,0,0,0,0,0,0,0,0,0,0,0,0,0,0,0,0,0,0,0,0,0,0,0,0,0,0,0,0],"id":13,"left_children":[1,3,5,7,9,11,13,-1,15,17,-1,19,21,23,25,27,29,31,-1,33,35,37,39,41,43,45,47,-1,49,-1,-1,51,-1,53,55,57,59,61,63,65,67,69,71,73,75,77,79,81,83,-1,-1,-1,-1,-1,-1,-1,-1,-1,-1,-1,-1,-1,-1,-1,-1,-1,-1,-1,-1,-1,-1,-1,-1,-1,-1,-1,-1,-1,-1,-1,-1,-1,-1,-1,-1],"loss_changes":[2.6430435E1,4.0437035E1,2.502526E1,1.3325043E1,3.1986542E1,4.1674137E1,4.6009914E1,0E0,1.1693176E1,1.6229717E1,0E0,4.9483505E1,5.0704807E1,2.6012741E1,5.9195076E1,8.2814865E0,7.0456305E0,9.794981E0,0E0,4.081332E1,3.517672E1,3.843615E1,4.0090195E1,3.8111614E1,2.9042099E1,5.5929337E1,3.6303238E1,0E0,5.490265E-1,0E0,0E0,6.9567375E0,0E0,3.649328E1,3.5905815E1,3.2661564E1,1.8240547E0,2.2654284E1,1.9868248E1,4.3089767E1,1.7915226E1,1.9611755E1,2.328033E1,3.2038788E1,3.1173944E1,6.4676834E1,3.685193E1,2.10727E1,2.1846478E1,0E0,0E0,0E0,0E0,0E0,0E0,0E0,0E0,0E0,0E0,0E0,0E0,0E0,0E0,0E0,0E0,0E0,0E0,0E0,0E0,0E0,0E0,0E0,0E0,0E0,0E0,0E0,0E0,0E0,0E0,0E0,0E0,0E0,0E0,0E0,0E0],"parents":[2147483647,0,0,1,1,2,2,3,3,4,4,5,5,6,6,8,8,9,9,11,11,12,12,13,13,14,14,15,15,16,16,17,17,19,19,20,20,21,21,22,22,23,23,24,24,25,25,26,26,28,28,31,31,33,33,34,34,35,35,36,36,37,37,38,38,39,39,40,40,41,41,42,42,43,43,44,44,45,45,46,46,47,47,48,48],"right_children":[2,4,6,8,10,12,14,-1,16,18,-1,20,22,24,26,28,30,32,-1,34,36,38,40,42,44,46,48,-1,50,-1,-1,52,-1,54,56,58,60,62,64,66,68,70,72,74,76,78,80,82,84,-1,-1,-1,-1,-1,-1,-1,-1,-1,-1,-1,-1,-1,-1,-1,-1,-1,-1,-1,-1,-1,-1,-1,-1,-1,-1,-1,-1,-1,-1,-1,-1,-1,-1,-1,-1],"split_conditions":[1.19E2,6.52E2,5.85E1,7.405E-1,1.4125E0,7.15E1,6.05E1,2.7074328E-1,9.815E2,4.8E0,-4.2499807E-1,4.545E2,3.95E2,5.395E2,9.22E2,3.09E2,6E1,6.15E1,-3.7559718E-1,2.1416668E1,1.005E2,1.55E1,2.035E2,5.85E1,1.6166668E1,5.665E2,7.05E1,1.649521E-1,6.25E1,3.8360932E-1,-2.7316627E-1,8E1,-3.4601578E-1,2.2625E2,-4.85E1,4.65E1,5E-1,3.63E2,8.66E2,-1.95E1,4.95E1,2.325E2,1.386E3,9.54E2,1.0583334E1,6.35E1,5.15E1,2.55E0,7.89E2,-3.7039104E-1,-5.212888E-1,4.2458615E-1,-1.3827191E-1,-2.1009807E-2,3.7282363E-1,-5.513717E-1,6.8027765E-2,1.3278824E-1,-2.880351E-1,6.9312274E-1,1.1371115E-1,3.8545898E-1,-4.119754E-1,-4.1434112E-1,2.5287122E-1,-4.126091E-1,-3.7863065E-2,3.0259287E-1,5.514154E-2,3.2563034E-1,-3.1646597E-1,-3.9716044E-1,4.0633577E-1,1.5981954E-1,-5.6882745E-1,1.5817851E-1,-2.2401663E-2,-3.416334E-1,2.9488775E-1,3.6490675E-2,-3.180454E-1,3.7872374E-2,-4.459791E-1,4.3508285E-1,7.525713E-2],"split_indices":[10,29,18,3,3,49,17,0,22,40,0,14,28,24,19,30,8,41,0,45,7,32,42,41,45,26,49,0,6,0,0,37,0,55,17,41,0,28,29,18,38,36,21,24,53,6,54,39,21,0,0,0,0,0,0,0,0,0,0,0,0,0,0,0,0,0,0,0,0,0,0,0,0,0,0,0,0,0,0,0,0,0,0,0,0],"split_type":[0,0,0,0,0,0,0,0,0,0,0,0,0,0,0,0,0,0,0,0,0,0,0,0,0,0,0,0,0,0,0,0,0,0,0,0,0,0,0,0,0,0,0,0,0,0,0,0,0,0,0,0,0,0,0,0,0,0,0,0,0,0,0,0,0,0,0,0,0,0,0,0,0,0,0,0,0,0,0,0,0,0,0,0,0],"sum_hessian":[5.6821704E3,8.244977E1,5.59972E3,4.967454E1,3.2775227E1,4.431824E3,1.1678964E3,2.391693E0,4.728285E1,2.5393398E1,7.3818297E0,2.5419858E3,1.8898381E3,8.470845E2,3.208119E2,4.329065E1,3.9921985E0,2.2889528E1,2.5038695E0,2.428964E3,1.130219E2,7.843786E1,1.8114003E3,1.0273614E2,7.443484E2,2.181055E2,1.027064E2,1.6294322E0,4.1661217E1,2.2353632E0,1.7568353E0,2.1829245E1,1.0602837E0,1.1979143E3,1.2310497E3,1.0887472E2,4.1471786E0,1.38582535E1,6.4579605E1,1.6891367E3,1.2226357E2,8.724714E1,1.5488995E1,2.3914163E2,5.0520673E2,6.3841156E1,1.5426434E2,4.117592E1,6.1530476E1,2.4603476E1,1.7057741E1,2.0115807E1,1.7134386E0,1.1773502E3,2.0564121E1,7.4920673E0,1.2235576E3,1.9721354E1,8.915336E1,3.0796924E0,1.0674864E0,1.0301716E1,3.5565379E0,6.0929703E1,3.649906E0,2.7095448E1,1.6620413E3,3.7625134E1,8.463844E1,8.3505646E1,3.7414963E0,1.2060727E1,3.428268E0,2.3454192E2,4.5997124E0,1.0882967E2,3.9637704E2,2.0237192E1,4.3603966E1,3.3436085E1,1.20828255E2,3.1309095E1,9.866824E0,3.3537792E1,2.7992683E1],"tree_param":{"num_deleted":"0","num_feature":"57","num_nodes":"85","size_leaf_vector":"0"}},{"base_weights":[-2.8704065E-3,1.6962633E-1,-2.8489491E-2,2.5651422E-1,-3.3793518E-1,-2.0796809E-1,2.816019E-2,4.47223E-1,-6.751138E-2,-1.3318937E0,4.5616947E-2,7.402974E-2,-3.416818E-1,2.0490831E-1,-2.664815E-2,5.5674124E-1,-1.3847736E-1,-2.279844E-1,8.290238E-1,4.1096735E-1,-9.917256E-1,1.549478E-1,-1.4807181E0,-9.276979E-1,-2.3003478E-1,2.4030367E-1,-1.0579586E0,6.179343E-2,-1.5159643E-1,1.2773827E-1,6.9501317E-1,1.7507114E-1,-1.4053994E0,2.9672503E-1,-5.364861E-1,1.0080378E0,-1.4871732E0,6.879678E-1,-1.248928E0,-1.168629E0,6.963774E-1,2.6716357E-1,-8.6854756E-1,-1.2083138E-1,-1.5632044E0,-1.0101488E-1,-1.3780622E0,-2.9700202E-1,7.2356784E-1,1.3807174E0,2.0084806E-1,-1.6701603E0,3.205436E-1,-2.7149898E-1,1.3009018E-1,-3.5048947E-1,7.175117E-2,-6.693811E-1,6.796343E-1,7.430177E-1,-1.2569132E0,-1.3030018E0,4.9290136E-1,-1.6402243E0,5.613066E-1,-1.0108918E0,6.0596323E-1,-9.6166223E-1,5.2314218E-2,1.1754091E0,2.2842767E-2,-1.0292783E0,9.103312E-1,4.1643947E-1,-6.076827E-1,7.648048E-1,-1.3832637E0,-9.744738E-1,6.4163035E-1,-1.5209297E0,-1.2093365E0,1.1831437E0,-3.393925E-1,9.289624E-1,-1.1733292E0,1.7270321E0,-1.2324866E0,2.2740589E-1,-1.140061E0,9.58453E-1,-1.1665274E0,-1.6889395E-1,-2.1234605E0,-3.9990318E-1,1.8371612E-1,1.16419956E-1,-5.096788E-1,4.1891396E-1,-8.362576E-2],"categories":[],"categories_nodes":[],"categories_segments":[],"categories_sizes":[],"default_left":[1,1,1,1,1,1,1,1,1,0,1,1,1,1,1,1,1,1,1,1,1,1,1,1,1,1,1,1,1,1,1,1,1,1,1,1,0,1,0,0,0,1,1,0,0,1,1,1,1,1,1,0,1,1,1,1,1,0,0,0,0,0,0,0,0,0,0,0,0,0,0,0,0,0,0,0,0,0,0,0,0,0,0,0,0,0,0,0,0,0,0,0,0,0,0,0,0,0,0],"id":14,"left_children":[1,3,5,7,9,11,13,15,17,-1,19,21,23,25,27,29,31,33,35,37,39,41,43,45,47,49,51,53,55,57,59,61,63,65,67,69,-1,71,-1,-1,-1,73,75,-1,-1,77,79,81,83,85,87,-1,89,91,93,95,97,-1,-1,-1,-1,-1,-1,-1,-1,-1,-1,-1,-1,-1,-1,-1,-1,-1,-1,-1,-1,-1,-1,-1,-1,-1,-1,-1,-1,-1,-1,-1,-1,-1,-1,-1,-1,-1,-1,-1,-1,-1,-1],"loss_changes":[2.4760773E1,3.2039818E1,4.9606007E1,3.829401E1,4.0599335E1,4.416082E1,3.593421E1,2.5088753E1,3.3320175E1,0E0,2.9853111E1,4.7697666E1,5.174724E1,3.9499847E1,3.1303371E1,1.940931E1,2.4964745E1,3.1904034E1,1.6084747E1,2.7602829E1,6.944544E0,4.1527058E1,1.9155312E0,4.7055565E1,4.289998E1,3.8187862E1,2.0892578E1,3.7796215E1,5.2176437E1,3.624066E1,2.420501E1,2.449286E1,6.673115E0,3.023407E1,3.1056469E1,5.45578E0,0E0,2.021716E1,0E0,0E0,0E0,4.2668205E1,3.1122692E1,0E0,0E0,3.0323475E1,1.3682556E-1,3.963322E1,1.8291655E1,2.784563E1,2.9725971E1,0E0,8.951052E0,5.331164E1,3.92223E1,4.6228363E1,2.9909132E1,0E0,0E0,0E0,0E0,0E0,0E0,0E0,0E0,0E0,0E0,0E0,0E0,0E0,0E0,0E0,0E0,0E0,0E0,0E0,0E0,0E0,0E0,0E0,0E0,0E0,0E0,0E0,0E0,0E0,0E0,0E0,0E0,0E0,0E0,0E0,0E0,0E0,0E0,0E0,0E0,0E0,0E0],"parents":[2147483647,0,0,1,1,2,2,3,3,4,4,5,5,6,6,7,7,8,8,10,10,11,11,12,12,13,13,14,14,15,15,16,16,17,17,18,18,19,19,20,20,21,21,22,22,23,23,24,24,25,25,26,26,27,27,28,28,29,29,30,30,31,31,32,32,33,33,34,34,35,35,37,37,41,41,42,42,45,45,46,46,47,47,48,48,49,49,50,50,52,52,53,53,54,54,55,55,56,56],"right_children":[2,4,6,8,10,12,14,16,18,-1,20,22,24,26,28,30,32,34,36,38,40,42,44,46,48,50,52,54,56,58,60,62,64,66,68,70,-1,72,-1,-1,-1,74,76,-1,-1,78,80,82,84,86,88,-1,90,92,94,96,98,-1,-1,-1,-1,-1,-1,-1,-1,-1,-1,-1,-1,-1,-1,-1,-1,-1,-1,-1,-1,-1,-1,-1,-1,-1,-1,-1,-1,-1,-1,-1,-1,-1,-1,-1,-1,-1,-1,-1,-1,-1,-1],"split_conditions":[4.61E2,1.6155E0,5.345E2,7.35E1,1.85E1,6.25E1,7.355E2,5.85E2,7.25E1,-3.995681E-1,7.25E1,8.125E-1,2.05E1,3.195E2,7.1833336E-1,6.616667E-1,7.15E2,1.1975E2,7.05E1,6.065E2,1.25E2,1.7005E0,1.5E0,4.935E0,7.1499996E0,-1.05E1,2.225E1,5.785E2,9.1E1,1.825E1,5.35E1,8.275E2,7.55E1,9.94E2,9.3E1,1.685E2,-4.4615197E-1,1.47E2,-3.746784E-1,-3.5058874E-1,2.0891322E-1,8.25E1,4.07E2,-3.6249414E-2,-4.6896133E-1,6.95E1,1.45E0,1.9277802E1,6.35E1,6.495E2,2.1735E0,-5.010481E-1,4.055E2,8.555E2,1.75E1,7.083375E0,2.05E1,-2.0081434E-1,2.038903E-1,2.2290531E-1,-3.7707397E-1,-3.9090055E-1,1.478704E-1,-4.920673E-1,1.6839199E-1,-3.0326754E-1,1.8178898E-1,-2.8849867E-1,1.5694266E-2,3.5262275E-1,6.8528303E-3,-3.087835E-1,2.7309936E-1,1.2493185E-1,-1.8230481E-1,2.2944145E-1,-4.1497913E-1,-2.9234216E-1,1.9248912E-1,-4.5627892E-1,-3.6280096E-1,3.5494313E-1,-1.0181776E-1,2.7868873E-1,-3.5199878E-1,5.181096E-1,-3.69746E-1,6.822177E-2,-3.420183E-1,2.875359E-1,-3.4995824E-1,-5.0668187E-2,-6.370382E-1,-1.19970955E-1,5.511484E-2,3.492599E-2,-1.5290365E-1,1.2567419E-1,-2.5087731E-2],"split_indices":[28,3,29,37,17,34,21,30,6,0,34,51,32,36,51,51,20,48,34,23,18,3,45,4,40,16,46,29,12,45,31,22,6,15,12,36,0,10,0,0,0,37,13,0,0,54,3,5,16,24,3,0,14,24,32,35,33,0,0,0,0,0,0,0,0,0,0,0,0,0,0,0,0,0,0,0,0,0,0,0,0,0,0,0,0,0,0,0,0,0,0,0,0,0,0,0,0,0,0],"split_type":[0,0,0,0,0,0,0,0,0,0,0,0,0,0,0,0,0,0,0,0,0,0,0,0,0,0,0,0,0,0,0,0,0,0,0,0,0,0,0,0,0,0,0,0,0,0,0,0,0,0,0,0,0,0,0,0,0,0,0,0,0,0,0,0,0,0,0,0,0,0,0,0,0,0,0,0,0,0,0,0,0,0,0,0,0,0,0,0,0,0,0,0,0,0,0,0,0,0,0],"sum_hessian":[5.6008945E3,7.235454E2,4.877349E3,6.1821045E2,1.0533492E2,1.169487E3,3.707862E3,3.889245E2,2.2928595E2,2.8640863E1,7.669406E1,3.7630936E2,7.931777E2,8.7698553E2,2.8308765E3,3.2769864E2,6.1225876E1,1.9510867E2,3.4177277E1,5.7164604E1,1.9529457E1,3.5854877E2,1.776061E1,1.2576252E2,6.6741516E2,8.5386334E2,2.3122173E1,1.6578872E3,1.1729894E3,8.034469E1,2.4735394E2,4.9770157E1,1.1455722E1,7.225436E1,1.22854324E2,3.224956E1,1.9277139E0,4.9491146E1,7.673461E0,1.7955545E1,1.5739108E0,3.2378772E2,3.4761036E1,1.1566522E0,1.6603958E1,4.478325E1,8.097927E1,6.242644E2,4.3150738E1,2.7416958E1,8.264464E2,1.5864895E1,7.2572775E0,2.814446E2,1.3764425E3,6.2016113E2,5.528283E2,3.278275E1,4.7561943E1,2.4202115E2,5.332788E0,8.259515E0,4.1510643E1,1.0382102E1,1.07362E0,1.3385339E1,5.8869015E1,7.097187E1,5.1882454E1,2.7401367E1,4.8481927E0,5.2578125E0,4.4233334E1,2.770401E2,4.674763E1,8.212951E0,2.6548086E1,2.043571E1,2.4347538E1,3.9510113E1,4.146916E1,1.6631546E1,6.076329E2,3.9395317E1,3.755422E0,2.4508133E1,2.9088254E0,8.112101E2,1.5236284E1,5.32744E0,1.929838E0,2.6770407E2,1.3740526E1,1.2588129E2,1.2505613E3,1.5774796E2,4.6241318E2,1.7040092E2,3.8242737E2],"tree_param":{"num_deleted":"0","num_feature":"57","num_nodes":"99","size_leaf_vector":"0"}},{"base_weights":[-4.517112E-3,-3.4215905E-2,1.2558453E-1,-9.040329E-3,-5.752463E-1,3.5954222E-1,-5.624566E-2,6.080744E-1,-2.0614026E-2,-1.0569915E0,-7.689358E-2,-6.0603607E-1,4.7492024E-1,-1.8512669E-1,3.6495498E-1,-2.6054543E-1,1.0850127E0,-3.6806125E-2,4.2977643E-1,-4.1751465E-1,-1.5426537E0,-7.7331626E-1,3.7855247E-1,5.0745703E-2,-1.5155711E0,7.3268753E-1,2.0799099E-1,-6.5868106E-3,-9.3009025E-1,4.6626022E-1,-1.4381227E0,7.341888E-1,-1.5126094E0,-3.8244474E-1,1.3316046E0,-5.409331E-2,3.8322082E-1,-1.3362234E0,4.973755E-1,5.854557E-1,-8.1557375E-1,4.3552166E-1,-1.6604215E0,9.901781E-1,-1.0733452E0,-1.3966128E0,6.526789E-1,-1.0735521E0,5.2674294E-1,8.5036314E-1,-5.4514635E-1,-9.4089633E-1,3.5062087E-1,-6.391093E-1,1.5719385E-1,1.3533303E0,-1.0535206E0,-6.257073E-1,6.109261E-1,1.3236867E0,-1.3115823E0,-1.2915981E0,8.7299865E-1,1.4490594E0,-8.983521E-1,1.2218041E-2,-1.972064E-1,-1.428734E0,4.6808267E-1,5.881635E-1,-7.9455376E-1,-1.2707227E0,9.6993065E-1,-1.3269668E0,8.300108E-1,7.6323193E-1,-1.8959574E-1,-1.7350307E0,3.461455E-1,-1.6951544E0,-2.0352386E-1,4.8487562E-1,-1.7365434E0,9.956262E-1,-7.9451257E-1,-1.2305838E0,-1.11563385E-1,1.1424066E0,-3.41377E-1,-1.3586E0,9.089082E-1,3.4108138E-1,-1.2571388E0,-1.828247E0,-2.9865002E-2,8.503793E-1,8.305984E-2,-1.1058528E0,3.1165272E-1,4.4065002E-1,-2.6237562E-1,2.9376605E-1,-1.2151641E0,-1.1887813E0,9.1418874E-1,-1.1078221E0,7.0573556E-1],"categories":[],"categories_nodes":[],"categories_segments":[],"categories_sizes":[],"default_left":[1,1,1,1,1,1,1,1,1,1,1,1,1,1,1,1,1,1,1,1,1,1,1,1,0,1,1,1,1,1,0,1,0,1,1,1,1,0,1,1,1,1,1,0,1,1,1,1,1,1,1,1,1,1,1,0,1,1,1,0,0,0,0,0,0,0,0,0,0,0,0,0,0,0,0,0,0,0,0,0,0,0,0,0,0,0,0,0,0,0,0,0,0,0,0,0,0,0,0,0,0,0,0,0,0,0,0],"id":15,"left_children":[1,3,5,7,9,11,13,15,17,19,21,23,25,27,29,31,33,35,37,39,41,43,45,47,-1,49,51,53,55,57,-1,59,-1,61,63,65,67,-1,69,71,73,75,77,-1,79,81,83,85,87,89,91,93,95,97,99,-1,101,103,105,-1,-1,-1,-1,-1,-1,-1,-1,-1,-1,-1,-1,-1,-1,-1,-1,-1,-1,-1,-1,-1,-1,-1,-1,-1,-1,-1,-1,-1,-1,-1,-1,-1,-1,-1,-1,-1,-1,-1,-1,-1,-1,-1,-1,-1,-1,-1,-1],"loss_changes":[2.1239094E1,6.0949703E1,4.3479416E1,3.0561466E1,4.7686157E1,5.0074673E1,3.1319338E1,3.291648E1,3.0641146E1,3.075142E1,3.1654358E1,2.8833773E1,2.7352928E1,5.8713318E1,2.5369986E1,3.6889973E1,1.8980576E1,2.9461496E1,1.8071821E1,1.844583E1,1.4021698E1,2.192189E1,3.032854E1,1.6043137E1,0E0,3.0984276E1,3.273978E1,3.7098038E1,2.547934E1,2.0726002E1,0E0,2.1854437E1,0E0,1.0396196E1,1.2806435E1,3.696789E1,2.5333319E1,0E0,1.702501E1,1.0773528E1,2.8566725E1,9.640653E-1,8.697403E0,0E0,1.8137115E1,6.217577E0,2.711873E1,1.2119474E0,1.1608389E1,2.5320908E1,1.161289E1,1.7822334E1,2.355288E1,3.3028595E1,3.3949272E1,0E0,1.8112473E1,1.4577948E1,1.9394802E1,0E0,0E0,0E0,0E0,0E0,0E0,0E0,0E0,0E0,0E0,0E0,0E0,0E0,0E0,0E0,0E0,0E0,0E0,0E0,0E0,0E0,0E0,0E0,0E0,0E0,0E0,0E0,0E0,0E0,0E0,0E0,0E0,0E0,0E0,0E0,0E0,0E0,0E0,0E0,0E0,0E0,0E0,0E0,0E0,0E0,0E0,0E0,0E0],"parents":[2147483647,0,0,1,1,2,2,3,3,4,4,5,5,6,6,7,7,8,8,9,9,10,10,11,11,12,12,13,13,14,14,15,15,16,16,17,17,18,18,19,19,20,20,21,21,22,22,23,23,25,25,26,26,27,27,28,28,29,29,31,31,33,33,34,34,35,35,36,36,38,38,39,39,40,40,41,41,42,42,44,44,45,45,46,46,47,47,48,48,49,49,50,50,51,51,52,52,53,53,54,54,56,56,57,57,58,58],"right_children":[2,4,6,8,10,12,14,16,18,20,22,24,26,28,30,32,34,36,38,40,42,44,46,48,-1,50,52,54,56,58,-1,60,-1,62,64,66,68,-1,70,72,74,76,78,-1,80,82,84,86,88,90,92,94,96,98,100,-1,102,104,106,-1,-1,-1,-1,-1,-1,-1,-1,-1,-1,-1,-1,-1,-1,-1,-1,-1,-1,-1,-1,-1,-1,-1,-1,-1,-1,-1,-1,-1,-1,-1,-1,-1,-1,-1,-1,-1,-1,-1,-1,-1,-1,-1,-1,-1,-1,-1,-1],"split_conditions":[1.0841667E2,1.585E2,7.65E2,9.95E1,1.045E3,4.265E2,4.445E2,6.55E1,9.15E1,5.545E2,5E-1,4.415E2,1.1258333E2,2.65E1,8.05E1,5.279E0,5.448E0,9.965E2,8.075E1,1.06E0,3.25E0,3.75E1,7.505E2,4.87E2,-4.5467135E-1,1.625E1,6.15E1,1.275E1,1.33E2,5.345E2,-4.3143684E-1,1.0025E2,-4.5378283E-1,5E-1,4.05E1,7.15E1,3.895E2,-4.0086702E-1,7.85E1,9.4E1,1.4075E2,5E-1,1.5205E3,2.9705346E-1,1.0475E2,5.34E2,7.12E2,7.05E1,4.9E2,1.65E1,1.33E2,5.5E2,1.0166666E1,1.064E3,4.175E2,4.059991E-1,5.65E1,1.315E2,4.65E1,3.9710602E-1,-3.9347473E-1,-3.8747945E-1,2.6189962E-1,4.3471783E-1,-2.6950565E-1,3.6654125E-3,-5.916192E-2,-4.286202E-1,1.404248E-1,1.7644906E-1,-2.3836614E-1,-3.8121685E-1,2.909792E-1,-3.9809003E-1,2.4900325E-1,2.2896959E-1,-5.6878727E-2,-5.2050924E-1,1.0384366E-1,-5.0854635E-1,-6.105716E-2,1.4546269E-1,-5.209631E-1,2.9868788E-1,-2.3835377E-1,-3.6917514E-1,-3.3469018E-2,3.42722E-1,-1.024131E-1,-4.0758002E-1,2.7267247E-1,1.0232442E-1,-3.7714168E-1,-5.4847413E-1,-8.959501E-3,2.551138E-1,2.4917953E-2,-3.3175588E-1,9.3495816E-2,1.3219501E-1,-7.871269E-2,8.812982E-2,-3.6454922E-1,-3.5663438E-1,2.7425665E-1,-3.3234662E-1,2.1172068E-1],"split_indices":[52,56,20,36,15,27,14,44,18,27,2,28,52,33,37,4,4,24,52,3,4,43,20,24,0,53,34,46,48,30,0,55,0,1,31,49,14,0,49,54,50,1,19,0,47,23,27,6,23,32,36,28,46,22,14,0,37,18,41,0,0,0,0,0,0,0,0,0,0,0,0,0,0,0,0,0,0,0,0,0,0,0,0,0,0,0,0,0,0,0,0,0,0,0,0,0,0,0,0,0,0,0,0,0,0,0,0],"split_type":[0,0,0,0,0,0,0,0,0,0,0,0,0,0,0,0,0,0,0,0,0,0,0,0,0,0,0,0,0,0,0,0,0,0,0,0,0,0,0,0,0,0,0,0,0,0,0,0,0,0,0,0,0,0,0,0,0,0,0,0,0,0,0,0,0,0,0,0,0,0,0,0,0,0,0,0,0,0,0,0,0,0,0,0,0,0,0,0,0,0,0,0,0,0,0,0,0,0,0,0,0,0,0,0,0,0,0],"sum_hessian":[5.4947437E3,4.47415E3,1.0205941E3,4.276184E3,1.9796548E2,4.458935E2,5.747006E2,7.777265E1,4.1984116E3,1.0009E2,9.787548E1,4.7139423E1,3.9875406E2,4.4048065E2,1.3421994E2,2.7727634E1,5.0045013E1,4.053598E3,1.4481363E2,4.4006214E1,5.6083786E1,3.8423763E1,5.945172E1,2.7921394E1,1.9218029E1,2.0197078E2,1.967833E2,3.5613684E2,8.434382E1,1.2778197E2,6.4379745E0,1.5682159E1,1.2045476E1,7.1204743E0,4.2924538E1,3.8941946E3,1.5940338E2,4.6469493E0,1.4016667E2,1.2369244E1,3.1636969E1,2.999659E0,5.3084126E1,5.2522264E0,3.3171535E1,7.404901E0,5.2046818E1,7.9316316E0,1.9989763E1,1.8524602E2,1.672476E1,2.1113855E1,1.7566943E2,7.265198E1,2.8348486E2,3.814397E0,8.052943E1,1.4559405E1,1.13222565E2,1.2448138E1,3.234021E0,4.1130977E0,3.0073767E0,4.1109436E1,1.8151026E0,2.6617769E3,1.2324177E3,6.4230723E0,1.529803E2,1.3147243E2,8.694251E0,1.7269142E0,1.064233E1,2.4283945E1,7.3530235E0,1.8230207E0,1.1766384E0,5.131156E1,1.7725669E0,1.8790161E1,1.4381376E1,1.0678794E0,6.337022E0,4.232816E1,9.71866E0,6.5785627E0,1.3530688E0,1.151059E1,8.479173E0,4.2095485E0,1.8103647E2,7.6828055E0,9.041955E0,1.0185916E1,1.0927938E1,6.049563E1,1.15173805E2,4.8620373E1,2.4031603E1,1.691553E2,1.1432956E2,8.539119E0,7.19903E1,1.082806E1,3.7313454E0,5.3604894E0,1.07862076E2],"tree_param":{"num_deleted":"0","num_feature":"57","num_nodes":"107","size_leaf_vector":"0"}},{"base_weights":[-4.46894E-3,1.8248576E-1,-2.5118986E-2,2.5601146E-1,-3.4387222E-1,1.8183164E-2,-1.511494E-1,-1.3918644E0,2.861206E-1,-7.2757405E-1,3.5294023E-1,-7.3760813E-1,2.818825E-2,-1.2783785E-1,-1.5226535E0,1.2709404E0,2.3750983E-1,-2.6564745E-2,-1.6418108E0,7.797413E-1,-8.5952294E-1,6.6679823E-1,-1.1039919E0,4.7753322E-1,6.4566154E-3,-6.4751565E-2,-6.2058043E-1,6.716534E-1,-1.7106097E0,1.4247086E0,8.475941E-2,2.8799623E-1,-7.35133E-1,3.563882E-1,-2.1294935E0,-6.816851E-1,-2.3433218E0,9.1788363E-1,-4.6617663E-1,-1.6931628E0,7.410266E-1,1.3228325E0,-1.0030737E0,-1.3079078E0,1.0090701E-2,-1.2156609E0,5.887865E-1,-1.1981794E-1,6.8431236E-2,1.7764466E-1,-1.7976138E-1,-1.3262949E0,-3.0508384E-1,3.8609913E-1,1.4852619E0,2.9406436E-2,4.6105385E-1,-1.8295232E0,2.3639756E-1,-6.6761386E-1,9.714023E-1,5.85147E-1,-1.2422942E0,-9.902348E-1,-2.6196933E0,-5.179116E-2,1.0406637E0,-4.4723928E-1,-1.9765267E0,5.0325537E-1,1.4400505E0,-1.3981705E0,5.67944E-1,7.661039E-1,-9.1587865E-1,-1.4569746E-1,7.741676E-1,-1.7814068E-1,6.6179454E-1,2.9344188E-2,5.388627E-1,1.2882478E0,-4.823738E-3,3.487259E-2,-5.0092125E-1,1.4948109E-1,-1.4067516E0,9.399119E-1,-7.327104E-1],"categories":[],"categories_nodes":[],"categories_segments":[],"categories_sizes":[],"default_left":[1,1,1,1,1,1,1,0,1,1,1,1,1,1,1,1,1,1,1,1,1,1,1,1,1,1,1,0,0,1,0,1,1,1,0,1,1,1,0,1,0,1,0,1,1,0,1,1,1,1,1,1,1,0,0,0,0,0,0,0,0,0,0,0,0,0,0,0,0,0,0,0,0,0,0,0,0,0,0,0,0,0,0,0,0,0,0,0,0],"id":16,"left_children":[1,3,5,7,9,11,13,-1,15,17,19,21,23,25,27,29,31,33,35,37,39,41,43,45,47,49,51,-1,-1,53,-1,55,57,59,-1,61,63,65,-1,67,-1,69,-1,71,73,-1,75,77,79,81,83,85,87,-1,-1,-1,-1,-1,-1,-1,-1,-1,-1,-1,-1,-1,-1,-1,-1,-1,-1,-1,-1,-1,-1,-1,-1,-1,-1,-1,-1,-1,-1,-1,-1,-1,-1,-1,-1],"loss_changes":[2.088517E1,2.0913128E1,2.6588419E1,2.3852999E1,1.8004799E1,2.7444565E1,3.9637863E1,0E0,2.1962425E1,2.7600899E1,1.3216899E1,2.513548E1,3.4957783E1,3.8074406E1,9.698853E0,3.8274612E0,2.2035315E1,2.1238983E1,1.1000332E1,3.6046743E0,1.0312206E1,1.2757885E1,8.642395E0,3.182536E1,2.674177E1,3.0365389E1,3.0554596E1,0E0,0E0,6.277046E-1,0E0,1.8925629E1,2.4048695E1,1.4736507E1,0E0,7.3364754E0,1.2939568E0,2.0721493E0,0E0,7.9933834E-1,0E0,3.6414146E-2,0E0,6.2317696E0,5.510342E0,0E0,2.130465E1,5.1401398E1,4.2130527E1,7.106276E1,5.0919746E1,5.2754974E0,5.2538002E1,0E0,0E0,0E0,0E0,0E0,0E0,0E0,0E0,0E0,0E0,0E0,0E0,0E0,0E0,0E0,0E0,0E0,0E0,0E0,0E0,0E0,0E0,0E0,0E0,0E0,0E0,0E0,0E0,0E0,0E0,0E0,0E0,0E0,0E0,0E0,0E0],"parents":[2147483647,0,0,1,1,2,2,3,3,4,4,5,5,6,6,8,8,9,9,10,10,11,11,12,12,13,13,14,14,15,15,16,16,17,17,18,18,19,19,20,20,21,21,22,22,23,23,24,24,25,25,26,26,29,29,31,31,32,32,33,33,35,35,36,36,37,37,39,39,41,41,43,43,44,44,46,46,47,47,48,48,49,49,50,50,51,51,52,52],"right_children":[2,4,6,8,10,12,14,-1,16,18,20,22,24,26,28,30,32,34,36,38,40,42,44,46,48,50,52,-1,-1,54,-1,56,58,60,-1,62,64,66,-1,68,-1,70,-1,72,74,-1,76,78,80,82,84,86,88,-1,-1,-1,-1,-1,-1,-1,-1,-1,-1,-1,-1,-1,-1,-1,-1,-1,-1,-1,-1,-1,-1,-1,-1,-1,-1,-1,-1,-1,-1,-1,-1,-1,-1,-1,-1],"split_conditions":[4.2395E0,1.262965E1,4.65E1,8.875E1,7.75E1,1.75E0,1.236E3,-4.1755936E-1,1.085E2,1.195E2,7.55E1,4.85E1,1.115E2,9.55E1,4.55E1,2.75E1,1.095E3,6.45E2,1.310345E1,4.71E2,3.15E1,1.575E2,5.15E1,5.345E2,6.75E1,9.07E2,7.65E2,2.0149602E-1,-5.1318294E-1,5.98E2,2.5427824E-2,7.6E2,9.07E2,1.115E2,-6.3884807E-1,3.0960002E0,6.2E1,1.59E2,