{"learner":{"attributes":{"best_iteration":"1499","best_ntree_limit":"1500","scikit_learn":"{\"use_label_encoder\": null, \"n_estimators\": 1500, \"objective\": \"binary:logistic\", \"max_depth\": 3, \"max_leaves\": null, \"max_bin\": null, \"grow_policy\": null, \"learning_rate\": 0.3, \"verbosity\": null, \"booster\": null, \"tree_method\": null, \"gamma\": null, \"min_child_weight\": null, \"max_delta_step\": null, \"subsample\": 0.8000000000000003, \"sampling_method\": null, \"colsample_bytree\": 0.4, \"colsample_bylevel\": 0.7999999999999999, \"colsample_bynode\": null, \"reg_alpha\": null, \"reg_lambda\": null, \"scale_pos_weight\": null, \"base_score\": null, \"missing\": NaN, \"num_parallel_tree\": null, \"random_state\": null, \"n_jobs\": null, \"monotone_constraints\": null, \"interaction_constraints\": null, \"importance_type\": null, \"gpu_id\": null, \"validate_parameters\": null, \"predictor\": null, \"enable_categorical\": false, \"feature_types\": null, \"max_cat_to_onehot\": null, \"max_cat_threshold\": null, \"eval_metric\": null, \"early_stopping_rounds\": null, \"callbacks\": null, \"classes_\": [0, 1], \"n_classes_\": 2, \"_estimator_type\": \"classifier\"}"},"feature_names":["Diabetes status","Smoking status","HDL","Cholesterol","BMI","Age","Ventricular rate","P duration","PP interval","PQ interval","QRS number","QRS duration","QT interval","QTC interval","RR interval","P axis","R axis","T axis","Max carotid IMT 120 deg","Max carotid IMT 150 deg","Max carotid IMT 210 deg","Max carotid IMT 240 deg","Mean carotid IMT 120 deg","Mean carotid IMT 150 deg","Mean carotid IMT 210 deg","Mean carotid IMT 240 deg","Min carotid IMT 120 deg","Min carotid IMT 150 deg","Min carotid IMT 210 deg","Min carotid IMT 240 deg","Position of pulse wave notch","Position of pulse wave peak","Position of the shoulder on the pulse waveform","Pulse rate","Pulse wave Arterial Stiffness index","Pulse wave peak to peak time","Pulse wave reflection index","Average heart rate","Cardiac index","Cardiac output","LV ejection fraction","LV end diastolic volume","LV end systolic volume","LV stroke volume","Augmentation index for PWA","Central augmentation pressure during PWA","Central pulse pressure during PWA","Central systolic blood pressure during PWA","Diastolic blood pressure during PWA","End systolic blood pressure during PWA","End systolic pressure index during PWA","Mean arterial pressure during PWA","Number of beats in waveform average for PWA","Peripheral pulse pressure during PWA","Stroke volume during PWA","Systolic brachial blood pressure during PWA"],"feature_types":["float","float","float","float","float","float","float","float","float","float","float","float","float","float","float","float","float","float","float","float","float","float","float","float","float","float","float","float","float","float","float","float","float","float","float","float","float","float","float","float","float","float","float","float","float","float","float","float","float","float","float","float","float","float","float","float"],"gradient_booster":{"model":{"gbtree_model_param":{"num_parallel_tree":"1","num_trees":"1500","size_leaf_vector":"0"},"tree_info":[0,0,0,0,0,0,0,0,0,0,0,0,0,0,0,0,0,0,0,0,0,0,0,0,0,0,0,0,0,0,0,0,0,0,0,0,0,0,0,0,0,0,0,0,0,0,0,0,0,0,0,0,0,0,0,0,0,0,0,0,0,0,0,0,0,0,0,0,0,0,0,0,0,0,0,0,0,0,0,0,0,0,0,0,0,0,0,0,0,0,0,0,0,0,0,0,0,0,0,0,0,0,0,0,0,0,0,0,0,0,0,0,0,0,0,0,0,0,0,0,0,0,0,0,0,0,0,0,0,0,0,0,0,0,0,0,0,0,0,0,0,0,0,0,0,0,0,0,0,0,0,0,0,0,0,0,0,0,0,0,0,0,0,0,0,0,0,0,0,0,0,0,0,0,0,0,0,0,0,0,0,0,0,0,0,0,0,0,0,0,0,0,0,0,0,0,0,0,0,0,0,0,0,0,0,0,0,0,0,0,0,0,0,0,0,0,0,0,0,0,0,0,0,0,0,0,0,0,0,0,0,0,0,0,0,0,0,0,0,0,0,0,0,0,0,0,0,0,0,0,0,0,0,0,0,0,0,0,0,0,0,0,0,0,0,0,0,0,0,0,0,0,0,0,0,0,0,0,0,0,0,0,0,0,0,0,0,0,0,0,0,0,0,0,0,0,0,0,0,0,0,0,0,0,0,0,0,0,0,0,0,0,0,0,0,0,0,0,0,0,0,0,0,0,0,0,0,0,0,0,0,0,0,0,0,0,0,0,0,0,0,0,0,0,0,0,0,0,0,0,0,0,0,0,0,0,0,0,0,0,0,0,0,0,0,0,0,0,0,0,0,0,0,0,0,0,0,0,0,0,0,0,0,0,0,0,0,0,0,0,0,0,0,0,0,0,0,0,0,0,0,0,0,0,0,0,0,0,0,0,0,0,0,0,0,0,0,0,0,0,0,0,0,0,0,0,0,0,0,0,0,0,0,0,0,0,0,0,0,0,0,0,0,0,0,0,0,0,0,0,0,0,0,0,0,0,0,0,0,0,0,0,0,0,0,0,0,0,0,0,0,0,0,0,0,0,0,0,0,0,0,0,0,0,0,0,0,0,0,0,0,0,0,0,0,0,0,0,0,0,0,0,0,0,0,0,0,0,0,0,0,0,0,0,0,0,0,0,0,0,0,0,0,0,0,0,0,0,0,0,0,0,0,0,0,0,0,0,0,0,0,0,0,0,0,0,0,0,0,0,0,0,0,0,0,0,0,0,0,0,0,0,0,0,0,0,0,0,0,0,0,0,0,0,0,0,0,0,0,0,0,0,0,0,0,0,0,0,0,0,0,0,0,0,0,0,0,0,0,0,0,0,0,0,0,0,0,0,0,0,0,0,0,0,0,0,0,0,0,0,0,0,0,0,0,0,0,0,0,0,0,0,0,0,0,0,0,0,0,0,0,0,0,0,0,0,0,0,0,0,0,0,0,0,0,0,0,0,0,0,0,0,0,0,0,0,0,0,0,0,0,0,0,0,0,0,0,0,0,0,0,0,0,0,0,0,0,0,0,0,0,0,0,0,0,0,0,0,0,0,0,0,0,0,0,0,0,0,0,0,0,0,0,0,0,0,0,0,0,0,0,0,0,0,0,0,0,0,0,0,0,0,0,0,0,0,0,0,0,0,0,0,0,0,0,0,0,0,0,0,0,0,0,0,0,0,0,0,0,0,0,0,0,0,0,0,0,0,0,0,0,0,0,0,0,0,0,0,0,0,0,0,0,0,0,0,0,0,0,0,0,0,0,0,0,0,0,0,0,0,0,0,0,0,0,0,0,0,0,0,0,0,0,0,0,0,0,0,0,0,0,0,0,0,0,0,0,0,0,0,0,0,0,0,0,0,0,0,0,0,0,0,0,0,0,0,0,0,0,0,0,0,0,0,0,0,0,0,0,0,0,0,0,0,0,0,0,0,0,0,0,0,0,0,0,0,0,0,0,0,0,0,0,0,0,0,0,0,0,0,0,0,0,0,0,0,0,0,0,0,0,0,0,0,0,0,0,0,0,0,0,0,0,0,0,0,0,0,0,0,0,0,0,0,0,0,0,0,0,0,0,0,0,0,0,0,0,0,0,0,0,0,0,0,0,0,0,0,0,0,0,0,0,0,0,0,0,0,0,0,0,0,0,0,0,0,0,0,0,0,0,0,0,0,0,0,0,0,0,0,0,0,0,0,0,0,0,0,0,0,0,0,0,0,0,0,0,0,0,0,0,0,0,0,0,0,0,0,0,0,0,0,0,0,0,0,0,0,0,0,0,0,0,0,0,0,0,0,0,0,0,0,0,0,0,0,0,0,0,0,0,0,0,0,0,0,0,0,0,0,0,0,0,0,0,0,0,0,0,0,0,0,0,0,0,0,0,0,0,0,0,0,0,0,0,0,0,0,0,0,0,0,0,0,0,0,0,0,0,0,0,0,0,0,0,0,0,0,0,0,0,0,0,0,0,0,0,0,0,0,0,0,0,0,0,0,0,0,0,0,0,0,0,0,0,0,0,0,0,0,0,0,0,0,0,0,0,0,0,0,0,0,0,0,0,0,0,0,0,0,0,0,0,0,0,0,0,0,0,0,0,0,0,0,0,0,0,0,0,0,0,0,0,0,0,0,0,0,0,0,0,0,0,0,0,0,0,0,0,0,0,0,0,0,0,0,0,0,0,0,0,0,0,0,0,0,0,0,0,0,0,0,0,0,0,0,0,0,0,0,0,0,0,0,0,0,0,0,0,0,0,0,0,0,0,0,0,0,0,0,0,0,0,0,0,0,0,0,0,0,0,0,0,0,0,0,0,0,0,0,0,0,0,0,0,0,0,0,0,0,0,0,0,0,0,0,0,0,0,0,0,0,0,0,0,0,0,0,0,0,0,0,0,0,0,0,0,0,0,0,0,0,0,0,0,0,0,0,0,0,0,0,0,0,0,0,0,0,0,0,0,0,0,0,0,0,0,0,0,0,0,0,0,0,0,0,0,0,0,0,0,0,0,0,0,0,0,0,0,0,0,0,0,0,0,0,0,0,0,0,0,0,0,0,0,0,0,0,0,0,0,0,0,0,0,0,0,0,0,0,0,0,0,0,0,0,0,0,0,0,0,0,0,0,0,0,0,0,0,0,0,0,0,0,0,0,0,0,0,0,0,0,0,0,0,0,0,0,0,0,0,0,0,0,0,0,0,0,0,0,0,0,0,0,0,0,0,0,0,0,0,0,0,0,0,0,0,0,0,0,0,0,0,0,0,0,0,0,0,0,0,0,0,0,0,0,0,0,0,0,0,0,0,0,0,0,0,0,0,0,0,0,0,0,0,0,0,0,0,0,0,0,0,0,0,0,0,0,0,0],"trees":[{"base_weights":[-4.8850575E-3,-4.4503453E-1,5.137672E-1,-7.3667896E-1,1.8947369E-1,1.3315291E0,2.6758844E-1,-8.371999E-1,1.6730769E0,1.0151188E0,-1.0438413E-2,1.020173E0,1.5989847E0,-1.6666668E-2,5.376685E-1],"categories":[],"categories_nodes":[],"categories_segments":[],"categories_sizes":[],"default_left":[1,1,1,1,1,1,1,0,0,0,0,0,0,0,0],"id":0,"left_children":[1,3,5,7,9,11,13,-1,-1,-1,-1,-1,-1,-1,-1],"loss_changes":[7.9465875E2,3.4859018E2,3.2134604E2,3.1393927E2,9.801286E1,2.9138489E1,9.43997E1,0E0,0E0,0E0,0E0,0E0,0E0,0E0,0E0],"parents":[2147483647,0,0,1,1,2,2,3,3,4,4,5,5,6,6],"right_children":[2,4,6,8,10,12,14,-1,-1,-1,-1,-1,-1,-1,-1],"split_conditions":[6.65E1,2.8718899E1,4.8215E0,1.31E2,3.65E0,2.6945301E1,8.05E1,-2.5116E-1,5.019231E-1,3.0453566E-1,-3.1315242E-3,3.060519E-1,4.7969544E-1,-5.0000004E-3,1.6130057E-1],"split_indices":[5,4,3,11,39,4,53,0,0,0,0,0,0,0,0],"split_type":[0,0,0,0,0,0,0,0,0,0,0,0,0,0,0],"sum_hessian":[3.479E3,1.882E3,1.597E3,1.28925E3,5.9275E2,3.685E2,1.2285E3,1.23825E3,5.1E1,1.1475E2,4.78E2,1.725E2,1.96E2,5.99E2,6.295E2],"tree_param":{"num_deleted":"0","num_feature":"56","num_nodes":"15","size_leaf_vector":"0"}},{"base_weights":[4.87583E-3,-3.819643E-1,2.2942755E-1,-6.5209657E-1,1.02387555E-1,2.1431549E-2,5.095792E-1,-8.803269E-1,-1.4478633E-1,-1.8062966E0,1.8836345E-1,5.006101E-1,-1.6325489E-1,7.640073E-1,2.8054577E-1],"categories":[],"categories_nodes":[],"categories_segments":[],"categories_sizes":[],"default_left":[1,1,1,1,1,1,1,0,0,0,0,0,0,0,0],"id":1,"left_children":[1,3,5,7,9,11,13,-1,-1,-1,-1,-1,-1,-1,-1],"loss_changes":[2.9723514E2,1.6449944E2,1.2614555E2,9.330151E1,7.432141E1,1.1013436E2,5.3539368E1,0E0,0E0,0E0,0E0,0E0,0E0,0E0,0E0],"parents":[2147483647,0,0,1,1,2,2,3,3,4,4,5,5,6,6],"right_children":[2,4,6,8,10,12,14,-1,-1,-1,-1,-1,-1,-1,-1],"split_conditions":[6.255E2,4.365E2,5E-1,1.3575E2,7.625E1,3.55E0,4.95E1,-2.6409808E-1,-4.34359E-2,-5.41889E-1,5.6509037E-2,1.5018304E-1,-4.897647E-2,2.292022E-1,8.416373E-2],"split_indices":[24,13,1,54,54,39,15,0,0,0,0,0,0,0,0],"split_type":[0,0,0,0,0,0,0,0,0,0,0,0,0,0,0],"sum_hessian":[3.4197725E3,1.2557551E3,2.1640176E3,8.0592755E2,4.498275E2,1.2425638E3,9.214537E2,5.5534973E2,2.505778E2,1.8526466E1,4.3130106E2,3.4520386E2,8.9736E2,4.3541974E2,4.860339E2],"tree_param":{"num_deleted":"0","num_feature":"56","num_nodes":"15","size_leaf_vector":"0"}},{"base_weights":[-1.9394122E-3,6.202058E-1,-1.1477882E-1,8.800463E-1,1.6633628E-1,-6.384653E-1,1.3043955E-2,3.321655E-1,1.1814021E0,3.175653E-1,-1.6509626E0,-1.1255875E0,1.2496865E-1,-3.1215096E-1,1.5739381E-1],"categories":[],"categories_nodes":[],"categories_segments":[],"categories_sizes":[],"default_left":[1,1,1,1,1,1,1,0,0,0,0,0,0,0,0],"id":2,"left_children":[1,3,5,7,9,11,13,-1,-1,-1,-1,-1,-1,-1,-1],"loss_changes":[2.3831685E2,6.1317963E1,1.9235873E2,5.4290833E1,5.3010456E1,2.098057E2,1.0851889E2,0E0,0E0,0E0,0E0,0E0,0E0,0E0,0E0],"parents":[2147483647,0,0,1,1,2,2,3,3,4,4,5,5,6,6],"right_children":[2,4,6,8,10,12,14,-1,-1,-1,-1,-1,-1,-1,-1],"split_conditions":[4.5360003E0,7.15E1,1.265E2,7.405E2,1.1875E3,7.95E2,6.225E2,9.964966E-2,3.5442063E-1,9.526959E-2,-4.952888E-1,-3.3767626E-1,3.7490595E-2,-9.364529E-2,4.7218148E-2],"split_indices":[3,43,55,19,8,18,24,0,0,0,0,0,0,0,0],"split_type":[0,0,0,0,0,0,0,0,0,0,0,0,0,0,0],"sum_hessian":[3.3926926E3,5.2017694E2,2.8725156E3,3.301989E2,1.8997798E2,5.6278906E2,2.3097266E3,1.1791871E2,2.1228021E2,1.7614508E2,1.3832901E1,3.4327936E2,2.1950967E2,7.0971063E2,1.600016E3],"tree_param":{"num_deleted":"0","num_feature":"56","num_nodes":"15","size_leaf_vector":"0"}},{"base_weights":[-6.899315E-3,-6.586774E-1,1.4470375E-1,-1.3596371E0,-3.8658965E-1,4.3906268E-1,-3.8192924E-2,1.6827975E-1,-1.6305213E0,-1.0947764E-1,-1.1966044E0,9.5624405E-1,2.8697234E-1,9.4988084E-1,-1.217446E-1],"categories":[],"categories_nodes":[],"categories_segments":[],"categories_sizes":[],"default_left":[1,1,1,1,1,1,1,0,0,0,0,0,0,0,0],"id":3,"left_children":[1,3,5,7,9,11,13,-1,-1,-1,-1,-1,-1,-1,-1],"loss_changes":[3.3073007E2,1.19937225E2,1.4621194E2,7.320859E1,1.0231382E2,8.158768E1,1.3845932E2,0E0,0E0,0E0,0E0,0E0,0E0,0E0,0E0],"parents":[2147483647,0,0,1,1,2,2,3,3,4,4,5,5,6,6],"right_children":[2,4,6,8,10,12,14,-1,-1,-1,-1,-1,-1,-1,-1],"split_conditions":[5.75E1,2.35989E1,1.2166666E1,3.95E1,2.145E2,1.75E1,3.05E1,5.0483927E-2,-4.891564E-1,-3.284329E-2,-3.589813E-1,2.8687322E-1,8.6091705E-2,2.8496426E-1,-3.6523383E-2],"split_indices":[5,4,52,42,35,17,42,0,0,0,0,0,0,0,0],"split_type":[0,0,0,0,0,0,0,0,0,0,0,0,0,0,0],"sum_hessian":[3.3451145E3,6.306129E2,2.7145017E3,1.7521704E2,4.5539587E2,1.0397303E3,1.6747712E3,2.6443237E1,1.487738E2,3.4015985E2,1.1523603E2,2.3507463E2,8.046557E2,1.2976888E2,1.5450024E3],"tree_param":{"num_deleted":"0","num_feature":"56","num_nodes":"15","size_leaf_vector":"0"}},{"base_weights":[4.240615E-3,-4.7407947E-2,9.865045E-1,3.9636838E-1,-3.90595E-1,1.2581918E0,-5.69734E-1,4.5887476E-1,-4.0983886E-1,8.647203E-1,-4.5025533E-1,-1.3827832E0,1.33117E0,1.2795506E0,-1.8127053E0],"categories":[],"categories_nodes":[],"categories_segments":[],"categories_sizes":[],"default_left":[1,1,1,1,1,1,1,0,0,0,0,0,0,0,0],"id":4,"left_children":[1,3,5,7,9,11,13,-1,-1,-1,-1,-1,-1,-1,-1],"loss_changes":[1.6634344E2,4.74582E2,6.996985E1,6.8670746E1,1.3198672E2,2.8776962E1,5.986048E1,0E0,0E0,0E0,0E0,0E0,0E0,0E0,0E0],"parents":[2147483647,0,0,1,1,2,2,3,3,4,4,5,5,6,6],"right_children":[2,4,6,8,10,12,14,-1,-1,-1,-1,-1,-1,-1,-1],"split_conditions":[9.15E1,1.4555E0,5.95E1,3.407525E1,-3.45E1,8.425E1,5.965E2,1.3766244E-1,-1.22951664E-1,2.594161E-1,-1.3507661E-1,-4.1483498E-1,3.99351E-1,3.8386518E-1,-5.438116E-1],"split_indices":[17,2,16,4,16,51,19,0,0,0,0,0,0,0,0],"split_type":[0,0,0,0,0,0,0,0,0,0,0,0,0,0,0],"sum_hessian":[3.2769106E3,3.1141184E3,1.6279219E2,1.3579691E3,1.7561494E3,1.387592E2,2.4032999E1,1.2606592E3,9.730986E1,7.906413E1,1.6770853E3,3.248607E0,1.3551059E2,9.648539E0,1.4384461E1],"tree_param":{"num_deleted":"0","num_feature":"56","num_nodes":"15","size_leaf_vector":"0"}},{"base_weights":[3.8273437E-3,-9.646457E-2,4.256374E-1,-6.5558946E-1,2.4204854E-2,-6.7267317E-1,6.634579E-1,-9.208811E-1,1.2644379E-1,-1.463783E-1,4.1435325E-1,7.303584E-1,-1.1143595E0,6.955822E-1,-1.777403E0],"categories":[],"categories_nodes":[],"categories_segments":[],"categories_sizes":[],"default_left":[1,1,1,1,1,1,1,0,0,0,0,0,0,0,0],"id":5,"left_children":[1,3,5,7,9,11,13,-1,-1,-1,-1,-1,-1,-1,-1],"loss_changes":[1.3783492E2,1.7761842E2,1.6392462E2,9.706575E1,1.4421703E2,7.0156296E1,4.1616165E1,0E0,0E0,0E0,0E0,0E0,0E0,0E0,0E0],"parents":[2147483647,0,0,1,1,2,2,3,3,4,4,5,5,6,6],"right_children":[2,4,6,8,10,12,14,-1,-1,-1,-1,-1,-1,-1,-1],"split_conditions":[2.595E2,2.05E1,5.95E1,8.375E1,6.95E1,3.85E1,7.95E1,-2.7626434E-1,3.7933137E-2,-4.391349E-2,1.2430598E-1,2.1910754E-1,-3.3430785E-1,2.0867467E-1,-5.3322095E-1],"split_indices":[35,32,5,46,5,30,15,0,0,0,0,0,0,0,0],"split_type":[0,0,0,0,0,0,0,0,0,0,0,0,0,0,0],"sum_hessian":[3.2562195E3,2.6313472E3,6.2487244E2,4.6630014E2,2.1650469E3,1.1089675E2,5.1397565E2,3.4805188E2,1.18248276E2,1.5068412E3,6.5820575E2,2.6395857E1,8.450089E1,5.080048E2,5.9708705E0],"tree_param":{"num_deleted":"0","num_feature":"56","num_nodes":"15","size_leaf_vector":"0"}},{"base_weights":[1.162169E-3,4.0194285E-1,-1.0555726E-1,-1.8688205E0,4.3422434E-1,-2.6152837E-1,2.2053222E-1,-4.9805847E-1,5.2431303E-1,-5.513715E-1,-2.5637802E-2,4.6111482E-1,-6.079757E-1],"categories":[],"categories_nodes":[],"categories_segments":[],"categories_sizes":[],"default_left":[1,1,1,0,1,1,1,0,0,0,0,0,0],"id":6,"left_children":[1,3,5,-1,7,9,11,-1,-1,-1,-1,-1,-1],"loss_changes":[1.3619035E2,4.9894203E1,1.27951355E2,0E0,5.577787E1,1.16316414E2,1.625589E2,0E0,0E0,0E0,0E0,0E0,0E0],"parents":[2147483647,0,0,1,1,2,2,4,4,5,5,6,6],"right_children":[2,4,6,-1,8,10,12,-1,-1,-1,-1,-1,-1],"split_conditions":[1.95E1,9.25E0,5.85E1,-5.606462E-1,4.61E2,4.45E1,6.05E1,-1.4941755E-1,1.5729392E-1,-1.6541146E-1,-7.691341E-3,1.3833445E-1,-1.8239272E-1],"split_indices":[17,52,17,0,26,30,16,0,0,0,0,0,0],"split_type":[0,0,0,0,0,0,0,0,0,0,0,0,0],"sum_hessian":[3.1821768E3,6.6858093E2,2.513596E3,8.573977E0,6.6000696E2,1.7004539E3,8.131421E2,5.7759037E1,6.022479E2,7.623736E2,9.380802E2,6.305004E2,1.8264163E2],"tree_param":{"num_deleted":"0","num_feature":"56","num_nodes":"13","size_leaf_vector":"0"}},{"base_weights":[1.6471306E-2,5.6450874E-1,-4.558211E-2,6.332331E-1,-2.1115506E0,-1.0359018E-1,5.4801995E-1,7.4125034E-1,-5.032177E-1,-2.2293855E-2,-6.7072797E-1,1.0108044E0,-3.8975227E-1],"categories":[],"categories_nodes":[],"categories_segments":[],"categories_sizes":[],"default_left":[1,1,1,1,0,1,1,0,0,0,0,0,0],"id":7,"left_children":[1,3,5,7,-1,9,11,-1,-1,-1,-1,-1,-1],"loss_changes":[1.0689463E2,6.0133995E1,9.729058E1,3.8730476E1,0E0,1.1862816E2,1.0955933E2,0E0,0E0,0E0,0E0,0E0,0E0],"parents":[2147483647,0,0,1,1,2,2,3,3,5,5,6,6],"right_children":[2,4,6,8,-1,10,12,-1,-1,-1,-1,-1,-1],"split_conditions":[3.05E0,1.0585E3,1.38724E1,7.75E1,-6.334652E-1,1.111285E1,4.05E1,2.2237511E-1,-1.5096532E-1,-6.6881566E-3,-2.012184E-1,3.0324134E-1,-1.1692569E-1],"split_indices":[39,18,34,48,0,34,17,0,0,0,0,0,0],"split_type":[0,0,0,0,0,0,0,0,0,0,0,0,0],"sum_hessian":[3.141501E3,3.18704E2,2.8227969E3,3.114685E2,7.2355056E0,2.572256E3,2.5054094E2,2.8475125E2,2.6717262E1,2.2506729E3,3.2158322E2,1.677028E2,8.2838135E1],"tree_param":{"num_deleted":"0","num_feature":"56","num_nodes":"13","size_leaf_vector":"0"}},{"base_weights":[-9.512989E-3,-4.3934458E-1,8.3002105E-2,-7.644587E-1,-1.1394981E-1,-3.6085162E-2,2.8555092E-1,-4.195799E-1,-1.1939635E0,-1.12896E0,1.16109155E-1,1.6367735E-1,-2.5024024E-1,-1.6950768E0,3.382058E-1],"categories":[],"categories_nodes":[],"categories_segments":[],"categories_sizes":[],"default_left":[1,1,1,1,1,1,1,0,0,0,0,0,0,0,0],"id":8,"left_children":[1,3,5,7,9,11,13,-1,-1,-1,-1,-1,-1,-1,-1],"loss_changes":[1.2485675E2,5.8742836E1,6.2333565E1,4.067755E1,6.5305435E1,6.968746E1,1.0035435E2,0E0,0E0,0E0,0E0,0E0,0E0,0E0,0E0],"parents":[2147483647,0,0,1,1,2,2,3,3,4,4,5,5,6,6],"right_children":[2,4,6,8,10,12,14,-1,-1,-1,-1,-1,-1,-1,-1],"split_conditions":[5.75E1,6.225E1,1.925E1,5.35E1,2.05E1,5.45E1,1.275E2,-1.2587397E-1,-3.5818908E-1,-3.3868802E-1,3.483275E-2,4.9103208E-2,-7.507207E-2,-5.0852305E-1,1.01461746E-1],"split_indices":[5,46,45,5,32,15,55,0,0,0,0,0,0,0,0],"split_type":[0,0,0,0,0,0,0,0,0,0,0,0,0,0,0],"sum_hessian":[3.1378762E3,5.5509894E2,2.5827773E3,2.7699426E2,2.781047E2,1.6270095E3,9.557679E2,1.5472879E2,1.2226546E2,5.066512E1,2.2743958E2,8.419136E2,7.8509595E2,2.3943266E1,9.318246E2],"tree_param":{"num_deleted":"0","num_feature":"56","num_nodes":"15","size_leaf_vector":"0"}},{"base_weights":[6.155329E-3,3.045247E-1,-2.0215954E-1,7.8992677E-1,1.9925603E-1,-3.8662833E-1,1.6118361E-1,8.7819016E-1,-1.7111473E0,-5.26474E-1,3.4504873E-1,-3.0002537E-1,-1.4513564E0,4.591549E-1,-3.31993E-1],"categories":[],"categories_nodes":[],"categories_segments":[],"categories_sizes":[],"default_left":[1,1,1,1,1,1,1,0,0,0,0,0,0,0,0],"id":9,"left_children":[1,3,5,7,9,11,13,-1,-1,-1,-1,-1,-1,-1,-1],"loss_changes":[1.91163E2,6.4454124E1,1.21454384E2,5.11756E1,1.1026837E2,1.1035791E2,8.987898E1,0E0,0E0,0E0,0E0,0E0,0E0,0E0,0E0],"parents":[2147483647,0,0,1,1,2,2,3,3,4,4,5,5,6,6],"right_children":[2,4,6,8,10,12,14,-1,-1,-1,-1,-1,-1,-1,-1],"split_conditions":[1.4395001E0,4.45E2,6.95E1,3.45E1,6.57E2,2.1865E0,6.263E0,2.6345706E-1,-5.133442E-1,-1.579422E-1,1.0351462E-1,-9.000762E-2,-4.3540695E-1,1.3774648E-1,-9.959791E-2],"split_indices":[2,27,5,44,21,2,3,0,0,0,0,0,0,0,0],"split_type":[0,0,0,0,0,0,0,0,0,0,0,0,0,0,0],"sum_hessian":[3.0736055E3,1.2634723E3,1.8101332E3,2.2401547E2,1.0394569E3,1.200551E3,6.0958215E2,2.1700616E2,7.009312E0,1.7344876E2,8.660081E2,1.1114312E3,8.911992E1,3.8003726E2,2.2954489E2],"tree_param":{"num_deleted":"0","num_feature":"56","num_nodes":"15","size_leaf_vector":"0"}},{"base_weights":[-1.0738391E-2,-7.0268476E-1,4.2085167E-2,-9.6063334E-1,8.640874E-1,1.9879297E-3,6.545211E-1,8.4611464E-1,-1.0912172E0,-1.480374E0,1.4771765E0,2.1890949E-1,-1.0750915E-1,7.370384E-1,-1.6190286E0],"categories":[],"categories_nodes":[],"categories_segments":[],"categories_sizes":[],"default_left":[1,1,1,1,1,1,1,0,0,0,0,0,0,0,0],"id":10,"left_children":[1,3,5,7,9,11,13,-1,-1,-1,-1,-1,-1,-1,-1],"loss_changes":[1.100261E2,8.7115685E1,6.868196E1,4.428595E1,4.6324814E1,6.239773E1,3.3435814E1,0E0,0E0,0E0,0E0,0E0,0E0,0E0,0E0],"parents":[2147483647,0,0,1,1,2,2,3,3,4,4,5,5,6,6],"right_children":[2,4,6,8,10,12,14,-1,-1,-1,-1,-1,-1,-1,-1],"split_conditions":[5.95E2,8.04E2,7.75E1,3.05E1,4.3E2,4.35E1,3.795E2,2.538344E-1,-3.2736516E-1,-4.441122E-1,4.43153E-1,6.567285E-2,-3.2252748E-2,2.2111152E-1,-4.857086E-1],"split_indices":[20,21,42,42,12,42,41,0,0,0,0,0,0,0,0],"split_type":[0,0,0,0,0,0,0,0,0,0,0,0,0,0,0],"sum_hessian":[3.008393E3,2.1250073E2,2.7958923E3,1.827931E2,2.9707628E1,2.6250303E3,1.70862E2,1.1951635E1,1.7084148E2,5.865036E0,2.3842592E1,8.8023083E2,1.7447994E3,1.6553E2,5.3320026E0],"tree_param":{"num_deleted":"0","num_feature":"56","num_nodes":"15","size_leaf_vector":"0"}},{"base_weights":[1.2247992E-3,4.525852E-2,-9.431379E-1,9.422831E-3,9.479785E-1,6.545249E-1,-1.2201031E0,7.076325E-1,-4.7962192E-2,-1.7084731E0,1.0456228E0,1.5366563E0,-1.4267095E0,-1.4828129E0,-3.35175E-2],"categories":[],"categories_nodes":[],"categories_segments":[],"categories_sizes":[],"default_left":[1,1,1,1,1,1,1,0,0,0,0,0,0,0,0],"id":11,"left_children":[1,3,5,7,9,11,13,-1,-1,-1,-1,-1,-1,-1,-1],"loss_changes":[1.24253265E2,9.234514E1,5.9703094E1,1.1009265E2,3.0058098E1,3.9495193E1,3.5424942E1,0E0,0E0,0E0,0E0,0E0,0E0,0E0,0E0],"parents":[2147483647,0,0,1,1,2,2,3,3,4,4,5,5,6,6],"right_children":[2,4,6,8,10,12,14,-1,-1,-1,-1,-1,-1,-1,-1],"split_conditions":[2.1865E0,1.31E2,5.3967752E0,1.0734999E0,1.53E2,4.075E2,2.6885E0,2.1228975E-1,-1.4388658E-2,-5.1254195E-1,3.1368685E-1,4.609969E-1,-4.2801288E-1,-4.448439E-1,-1.005525E-2],"split_indices":[2,11,34,2,9,13,2,0,0,0,0,0,0,0,0],"split_type":[0,0,0,0,0,0,0,0,0,0,0,0,0,0,0],"sum_hessian":[2.9859946E3,2.8538762E3,1.321184E2,2.745882E3,1.07994095E2,1.9318308E1,1.1280008E2,2.076805E2,2.5382017E3,3.2439604E0,1.0475014E2,1.3751427E1,5.5668817E0,9.214873E1,2.0651354E1],"tree_param":{"num_deleted":"0","num_feature":"56","num_nodes":"15","size_leaf_vector":"0"}},{"base_weights":[-6.9817207E-3,3.8005602E-1,-5.9573945E-2,-1.2074211E0,5.0901294E-1,-9.498542E-2,5.577754E-1,-1.5947585E0,7.455077E-1,-1.2826321E0,5.886613E-1,3.6592585E-1,-1.4427112E-1,1.0920523E0,-3.7226852E-2],"categories":[],"categories_nodes":[],"categories_segments":[],"categories_sizes":[],"default_left":[1,1,1,1,1,1,1,0,0,0,0,0,0,0,0],"id":12,"left_children":[1,3,5,7,9,11,13,-1,-1,-1,-1,-1,-1,-1,-1],"loss_changes":[5.9933475E1,7.272267E1,5.6718178E1,2.1431446E1,4.734346E1,5.5759552E1,4.4787834E1,0E0,0E0,0E0,0E0,0E0,0E0,0E0,0E0],"parents":[2147483647,0,0,1,1,2,2,3,3,4,4,5,5,6,6],"right_children":[2,4,6,8,10,12,14,-1,-1,-1,-1,-1,-1,-1,-1],"split_conditions":[9.425E1,1.33E2,5.75E1,8.835E2,5.075E2,1.195E2,4.55E1,-4.7842756E-1,2.2365232E-1,-3.8478965E-1,1.765984E-1,1.09777756E-1,-4.328134E-2,3.276157E-1,-1.1168056E-2],"split_indices":[49,9,30,25,23,35,36,0,0,0,0,0,0,0,0],"split_type":[0,0,0,0,0,0,0,0,0,0,0,0,0,0,0],"sum_hessian":[2.9422727E3,3.512345E2,2.5910383E3,2.576018E1,3.254743E2,2.4512778E3,1.3976044E2,2.1649658E1,4.1105204E0,1.3210394E1,3.1226392E2,2.3617606E2,2.2151018E3,7.319776E1,6.656267E1],"tree_param":{"num_deleted":"0","num_feature":"56","num_nodes":"15","size_leaf_vector":"0"}},{"base_weights":[-8.528076E-3,5.326659E-1,-6.893286E-2,-1.5711327E0,6.0533285E-1,-9.762791E-2,7.785562E-1,6.4671123E-1,-2.0282836E0,-2.2722316E-1,1.403368E-1,-1.3081579E0,8.6871755E-1],"categories":[],"categories_nodes":[],"categories_segments":[],"categories_sizes":[],"default_left":[1,1,1,0,1,1,1,0,0,0,0,0,0],"id":13,"left_children":[1,3,5,-1,7,9,11,-1,-1,-1,-1,-1,-1],"loss_changes":[9.60857E1,4.6068336E1,6.437454E1,0E0,3.2477432E1,7.8927216E1,1.7448647E1,0E0,0E0,0E0,0E0,0E0,0E0],"parents":[2147483647,0,0,1,1,2,2,4,4,5,5,6,6],"right_children":[2,4,6,-1,8,10,12,-1,-1,-1,-1,-1,-1],"split_conditions":[4.3075E0,2.07372E1,1.31E2,-4.7133982E-1,1.1625E2,1.925E1,1.53E2,1.9401337E-1,-6.084851E-1,-6.816695E-2,4.210104E-2,-3.9244738E-1,2.606153E-1],"split_indices":[3,4,11,0,51,45,9,0,0,0,0,0,0],"split_type":[0,0,0,0,0,0,0,0,0,0,0,0,0],"sum_hessian":[2.937113E3,2.9412198E2,2.6429912E3,9.131542E0,2.8499042E2,2.5572888E3,8.570218E1,2.813248E2,3.665626E0,1.6556625E3,9.016264E2,2.9900777E0,8.2712105E1],"tree_param":{"num_deleted":"0","num_feature":"56","num_nodes":"13","size_leaf_vector":"0"}},{"base_weights":[-1.1183632E-2,3.061538E-1,-1.1939204E-1,1.4098738E-1,7.801906E-1,-4.6868998E-1,-2.2094605E-2,4.8073822E-1,-4.544402E-1,-1.4779965E0,8.755829E-1,-3.461577E-1,-1.5153913E0,2.8367862E-1,-1.313348E-1],"categories":[],"categories_nodes":[],"categories_segments":[],"categories_sizes":[],"default_left":[1,1,1,1,1,1,1,0,0,0,0,0,0,0,0],"id":14,"left_children":[1,3,5,7,9,11,13,-1,-1,-1,-1,-1,-1,-1,-1],"loss_changes":[1.0076309E2,5.8311607E1,7.435605E1,1.12409744E2,4.2779785E1,6.061113E1,5.723901E1,0E0,0E0,0E0,0E0,0E0,0E0,0E0,0E0],"parents":[2147483647,0,0,1,1,2,2,3,3,4,4,5,5,6,6],"right_children":[2,4,6,8,10,12,14,-1,-1,-1,-1,-1,-1,-1,-1],"split_conditions":[6.25E1,1.0625E2,2.05E1,1.6055E0,5.83E2,8.15E1,1.3015001E0,1.4422147E-1,-1.3633206E-1,-4.4339895E-1,2.6267487E-1,-1.0384732E-1,-4.546174E-1,8.510359E-2,-3.940044E-2],"split_indices":[33,51,32,2,22,43,2,0,0,0,0,0,0,0,0],"split_type":[0,0,0,0,0,0,0,0,0,0,0,0,0,0,0],"sum_hessian":[2.9323347E3,7.4517316E2,2.1871616E3,5.5358685E2,1.9158626E2,4.75674E2,1.7114875E3,3.525911E2,2.0099579E2,7.177682E0,1.8440857E2,4.2701602E2,4.8657993E1,4.5007892E2,1.2614087E3],"tree_param":{"num_deleted":"0","num_feature":"56","num_nodes":"15","size_leaf_vector":"0"}},{"base_weights":[2.8798007E-4,3.645883E-2,-4.3581393E-1,-4.509816E-2,2.8465727E-1,-8.189432E-1,7.0997113E-1,-1.9045845E-2,-1.2543803E0,1.8578382E-1,9.6001655E-1,-1.1919653E0,1.4296639E-1,-1.3199562E0,1.0198145E0],"categories":[],"categories_nodes":[],"categories_segments":[],"categories_sizes":[],"default_left":[1,1,1,1,1,1,1,0,0,0,0,0,0,0,0],"id":15,"left_children":[1,3,5,7,9,11,13,-1,-1,-1,-1,-1,-1,-1,-1],"loss_changes":[4.490719E1,5.322652E1,9.629721E1,6.2340042E1,4.3246475E1,5.8967567E1,3.604828E1,0E0,0E0,0E0,0E0,0E0,0E0,0E0,0E0],"parents":[2147483647,0,0,1,1,2,2,3,3,4,4,5,5,6,6],"right_children":[2,4,6,8,10,12,14,-1,-1,-1,-1,-1,-1,-1,-1],"split_conditions":[8.05E1,7.45E1,1.13E2,3.55E0,3.15E0,1.605E2,6.55E1,-5.7137534E-3,-3.7631413E-1,5.573515E-2,2.8800496E-1,-3.575896E-1,4.288992E-2,-3.9598688E-1,3.0594435E-1],"split_indices":[36,36,7,38,38,55,53,0,0,0,0,0,0,0,0],"split_type":[0,0,0,0,0,0,0,0,0,0,0,0,0,0,0],"sum_hessian":[2.8448726E3,2.627833E3,2.1703944E2,1.9785184E3,6.493147E2,1.628655E2,5.4173943E1,1.9377872E3,4.07312E1,5.6750616E2,8.180854E1,1.17183395E2,4.568211E1,6.742251E0,4.743169E1],"tree_param":{"num_deleted":"0","num_feature":"56","num_nodes":"15","size_leaf_vector":"0"}},{"base_weights":[-1.484161E-3,3.911799E-1,-4.624895E-2,5.006297E-1,-1.0374609E0,-7.195585E-2,5.266363E-1,5.6815857E-1,-1.5174547E0,-2.1027572E0,1.682886E0,1.7366911E-1,-1.4697579E-1,6.9063807E-1,-1.0136366E0],"categories":[],"categories_nodes":[],"categories_segments":[],"categories_sizes":[],"default_left":[1,1,1,1,1,1,1,0,0,0,0,0,0,0,0],"id":16,"left_children":[1,3,5,7,9,11,13,-1,-1,-1,-1,-1,-1,-1,-1],"loss_changes":[5.0202587E1,4.6221493E1,3.7794632E1,3.7951195E1,6.4755424E1,4.5254692E1,2.854305E1,0E0,0E0,0E0,0E0,0E0,0E0,0E0,0E0],"parents":[2147483647,0,0,1,1,2,2,3,3,4,4,5,5,6,6],"right_children":[2,4,6,8,10,12,14,-1,-1,-1,-1,-1,-1,-1,-1],"split_conditions":[3.05E0,1.475E1,9.15E1,6.95E1,1.4E2,1.95E1,7.05E1,1.7044757E-1,-4.5523643E-1,-6.308272E-1,5.048658E-1,5.2100737E-2,-4.4092737E-2,2.0719142E-1,-3.0409098E-1],"split_indices":[39,52,17,16,37,17,37,0,0,0,0,0,0,0,0],"split_type":[0,0,0,0,0,0,0,0,0,0,0,0,0,0,0],"sum_hessian":[2.8540376E3,2.9127933E2,2.5627583E3,2.711554E2,2.0123957E1,2.453536E3,1.0922236E2,2.63071E2,8.084378E0,1.4624128E1,5.499828E0,5.737358E2,1.8798002E3,9.921046E1,1.0011899E1],"tree_param":{"num_deleted":"0","num_feature":"56","num_nodes":"15","size_leaf_vector":"0"}},{"base_weights":[-1.8073047E-4,-6.894893E-2,3.0177423E-1,-3.513436E-1,6.1126832E-2,8.0573153E-1,3.6085855E-2,-8.0456845E-2,-7.7171504E-1,8.9957285E-1,2.0775808E-2,-1.7839423E0,9.1049653E-1,1.2140986E-1,-2.0137782E0],"categories":[],"categories_nodes":[],"categories_segments":[],"categories_sizes":[],"default_left":[1,1,1,1,1,1,1,0,0,0,0,0,0,0,0],"id":17,"left_children":[1,3,5,7,9,11,13,-1,-1,-1,-1,-1,-1,-1,-1],"loss_changes":[5.8254005E1,8.395605E1,6.964965E1,8.2011215E1,5.2937626E1,5.035061E1,6.0025806E1,0E0,0E0,0E0,0E0,0E0,0E0,0E0,0E0],"parents":[2147483647,0,0,1,1,2,2,3,3,4,4,5,5,6,6],"right_children":[2,4,6,8,10,12,14,-1,-1,-1,-1,-1,-1,-1,-1],"split_conditions":[2.595E2,6.65E1,2.725E2,1.5745001E0,7.29E2,1.95E0,1.93E2,-2.4137056E-2,-2.3151453E-1,2.6987186E-1,6.2327427E-3,-5.351827E-1,2.7314898E-1,3.642296E-2,-6.041335E-1],"split_indices":[35,36,35,2,14,38,9,0,0,0,0,0,0,0,0],"split_type":[0,0,0,0,0,0,0,0,0,0,0,0,0,0,0],"sum_hessian":[2.8034055E3,2.2840095E3,5.19396E2,7.197437E2,1.5642657E3,1.7859836E2,3.4079767E2,4.3841873E2,2.8132498E2,7.084741E1,1.4934183E3,6.3210497E0,1.722773E2,3.2808224E2,1.2715398E1],"tree_param":{"num_deleted":"0","num_feature":"56","num_nodes":"15","size_leaf_vector":"0"}},{"base_weights":[6.384068E-3,-4.983673E-1,4.106016E-2,-8.5326445E-1,4.9157184E-1,3.9700156E-1,-1.630216E-2,5.003816E-1,-1.0293598E0,-1.2571774E0,1.0112138E0,2.8463227E-1,1.3735212E0,2.432481E-2,-6.112679E-1],"categories":[],"categories_nodes":[],"categories_segments":[],"categories_sizes":[],"default_left":[1,1,1,1,1,1,1,0,0,0,0,0,0,0,0],"id":18,"left_children":[1,3,5,7,9,11,13,-1,-1,-1,-1,-1,-1,-1,-1],"loss_changes":[4.89122E1,6.35326E1,5.339291E1,3.2123283E1,4.492764E1,3.9434345E1,5.446846E1,0E0,0E0,0E0,0E0,0E0,0E0,0E0,0E0],"parents":[2147483647,0,0,1,1,2,2,3,3,4,4,5,5,6,6],"right_children":[2,4,6,8,10,12,14,-1,-1,-1,-1,-1,-1,-1,-1],"split_conditions":[5.95E2,7.85E1,5.435E2,4.545E2,6.15E1,7.75E1,7.75E1,1.5011448E-1,-3.0880797E-1,-3.7715322E-1,3.0336416E-1,8.538968E-2,4.120564E-1,7.297443E-3,-1.8338038E-1],"split_indices":[20,48,23,23,5,15,37,0,0,0,0,0,0,0,0],"split_type":[0,0,0,0,0,0,0,0,0,0,0,0,0,0,0],"sum_hessian":[2.7923657E3,1.7864244E2,2.6137234E3,1.3160101E2,4.7041428E1,3.6193625E2,2.251787E3,1.4937195E1,1.1666382E2,1.045109E1,3.6590336E1,3.25744E2,3.6192272E1,2.108751E3,1.4303601E2],"tree_param":{"num_deleted":"0","num_feature":"56","num_nodes":"15","size_leaf_vector":"0"}},{"base_weights":[-9.263466E-3,3.4831077E-1,-4.6740793E-2,4.2314875E-1,-1.2743433E0,-3.6398064E-2,-1.8881234E0,5.303329E-1,-7.8813875E-1,-2.4904497E0,8.79742E-1,-8.219712E-1,-1.8688526E-2],"categories":[],"categories_nodes":[],"categories_segments":[],"categories_sizes":[],"default_left":[1,1,1,1,1,1,0,0,0,0,0,0,0],"id":19,"left_children":[1,3,5,7,9,11,-1,-1,-1,-1,-1,-1,-1],"loss_changes":[3.710361E1,3.2436195E1,4.7655083E1,3.3113926E1,3.317939E1,3.466592E1,0E0,0E0,0E0,0E0,0E0,0E0,0E0],"parents":[2147483647,0,0,1,1,2,2,3,3,4,4,5,5],"right_children":[2,4,6,8,10,12,-1,-1,-1,-1,-1,-1,-1],"split_conditions":[4.3075E0,8.195E2,1.236E3,1.1572599E1,1.0545E3,4.935E2,-5.6643707E-1,1.5909988E-1,-2.3644163E-1,-7.471349E-1,2.6392263E-1,-2.4659136E-1,-5.606558E-3],"split_indices":[3,22,19,34,23,24,0,0,0,0,0,0,0],"split_type":[0,0,0,0,0,0,0,0,0,0,0,0,0],"sum_hessian":[2.76652E3,2.6166443E2,2.5048555E3,2.5083495E2,1.0829468E1,2.491879E3,1.2976685E1,2.3095998E2,1.9874968E1,6.821936E0,4.007531E0,5.393589E1,2.4379429E3],"tree_param":{"num_deleted":"0","num_feature":"56","num_nodes":"13","size_leaf_vector":"0"}},{"base_weights":[-1.2270781E-3,1.524801E-1,-9.7041726E-2,1.9139308E-1,-1.404502E0,-2.6720598E-2,-7.4126095E-1,2.4779308E-1,-5.4374933E-1,6.1757517E-1,-1.9027004E0,-1.0344124E-1,5.0640917E-1,-1.4631819E0,-1.8115018E-1],"categories":[],"categories_nodes":[],"categories_segments":[],"categories_sizes":[],"default_left":[1,1,1,1,1,1,1,0,0,0,0,0,0,0,0],"id":20,"left_children":[1,3,5,7,9,11,13,-1,-1,-1,-1,-1,-1,-1,-1],"loss_changes":[4.07491E1,6.4640465E1,7.719402E1,4.314925E1,2.7393845E1,6.2948055E1,6.754613E1,0E0,0E0,0E0,0E0,0E0,0E0,0E0,0E0],"parents":[2147483647,0,0,1,1,2,2,3,3,4,4,5,5,6,6],"right_children":[2,4,6,8,10,12,14,-1,-1,-1,-1,-1,-1,-1,-1],"split_conditions":[6.65E1,6.55E1,1.067E3,8.585E2,4.105E0,3.3757698E1,4.155E2,7.433793E-2,-1.631248E-1,1.8527256E-1,-5.7081014E-1,-3.1032372E-2,1.5192276E-1,-4.3895456E-1,-5.4345056E-2],"split_indices":[33,40,14,22,3,4,13,0,0,0,0,0,0,0,0],"split_type":[0,0,0,0,0,0,0,0,0,0,0,0,0,0,0],"sum_hessian":[2.7648857E3,1.0614698E3,1.7034159E3,1.0364435E3,2.5026306E1,1.5367141E3,1.6670184E2,9.6320917E2,7.3234314E1,4.899738E0,2.0126568E1,1.3440963E3,1.9261772E2,7.212647E1,9.457537E1],"tree_param":{"num_deleted":"0","num_feature":"56","num_nodes":"15","size_leaf_vector":"0"}},{"base_weights":[1.6357617E-2,-8.718262E-2,1.3368888E-1,2.288101E-1,-2.9729155E-1,-2.442706E-1,2.337983E-1,3.017282E-1,-6.836263E-1,9.041627E-2,-5.093518E-1,2.8695586E-1,-6.220791E-1,6.3008785E-1,8.1386775E-2],"categories":[],"categories_nodes":[],"categories_segments":[],"categories_sizes":[],"default_left":[1,1,1,1,1,1,1,0,0,0,0,0,0,0,0],"id":21,"left_children":[1,3,5,7,9,11,13,-1,-1,-1,-1,-1,-1,-1,-1],"loss_changes":[3.296293E1,9.577141E1,4.8182446E1,3.854561E1,7.126494E1,5.37318E1,6.071453E1,0E0,0E0,0E0,0E0,0E0,0E0,0E0,0E0],"parents":[2147483647,0,0,1,1,2,2,3,3,4,4,5,5,6,6],"right_children":[2,4,6,8,10,12,14,-1,-1,-1,-1,-1,-1,-1,-1],"split_conditions":[7.95E2,2.25E0,2.5E0,7.72E2,7.9E1,6.35E1,3.99E2,9.051846E-2,-2.050879E-1,2.7124882E-2,-1.5280554E-1,8.6086765E-2,-1.8662372E-1,1.8902637E-1,2.4416033E-2],"split_indices":[21,38,16,23,11,33,12,0,0,0,0,0,0,0,0],"split_type":[0,0,0,0,0,0,0,0,0,0,0,0,0,0,0],"sum_hessian":[2.7113723E3,1.4404706E3,1.2709017E3,5.752444E2,8.652262E2,2.6583005E2,1.0050717E3,5.33295E2,4.1949383E1,3.0612125E2,5.591049E2,1.1058288E2,1.5524716E2,2.7830606E2,7.267657E2],"tree_param":{"num_deleted":"0","num_feature":"56","num_nodes":"15","size_leaf_vector":"0"}},{"base_weights":[3.836217E-3,2.9649006E-2,-6.489166E-1,3.64978E-2,-1.7228577E0,-9.57297E-1,3.4721392E-1,-2.0615926E-2,2.1378748E-1,-1.1216215E0,1.3432574E0,-1.2403789E0,1.1200314E0],"categories":[],"categories_nodes":[],"categories_segments":[],"categories_sizes":[],"default_left":[1,1,1,1,0,1,1,0,0,0,0,0,0],"id":22,"left_children":[1,3,5,7,-1,9,11,-1,-1,-1,-1,-1,-1],"loss_changes":[4.571881E1,3.1389843E1,3.2039635E1,2.6339695E1,0E0,3.1403305E1,3.222678E1,0E0,0E0,0E0,0E0,0E0,0E0],"parents":[2147483647,0,0,1,1,2,2,3,3,5,5,6,6],"right_children":[2,4,6,8,-1,10,12,-1,-1,-1,-1,-1,-1],"split_conditions":[2.1865E0,3.35E1,2.6690001E0,5.85E1,-5.168573E-1,1.22E2,7.35E1,-6.184778E-3,6.4136244E-2,-3.3648646E-1,4.0297726E-1,-3.7211367E-1,3.360094E-1],"split_indices":[2,32,2,17,0,46,48,0,0,0,0,0,0],"split_type":[0,0,0,0,0,0,0,0,0,0,0,0,0],"sum_hessian":[2.7112422E3,2.6090242E3,1.02218E2,2.599843E3,9.18101E0,7.80839E1,2.41341E1,1.9670449E3,6.327982E2,7.335662E1,4.7272763E0,7.7036157E0,1.6430485E1],"tree_param":{"num_deleted":"0","num_feature":"56","num_nodes":"13","size_leaf_vector":"0"}},{"base_weights":[-2.0207291E-2,-1.5671767E0,-1.1871949E-2,7.411162E-1,-2.9900022E-2,1.985986E0,4.6883103E-2,-7.997167E-3,-5.9716886E-1],"categories":[],"categories_nodes":[],"categories_segments":[],"categories_sizes":[],"default_left":[1,0,1,1,1,0,0,0,0],"id":23,"left_children":[1,-1,3,5,7,-1,-1,-1,-1],"loss_changes":[3.4475502E1,0E0,3.6155483E1,5.3728405E1,3.230584E1,0E0,0E0,0E0,0E0],"parents":[2147483647,0,0,2,2,3,3,4,4],"right_children":[2,-1,4,6,8,-1,-1,-1,-1],"split_conditions":[1.11E2,-4.7015303E-1,-1.15E1,8.25E2,2.1725001E0,5.957958E-1,1.4064931E-2,-2.3991503E-3,-1.7915067E-1],"split_indices":[9,0,15,8,2,0,0,0,0],"split_type":[0,0,0,0,0,0,0,0,0],"sum_hessian":[2.6740984E3,1.3329017E1,2.6607693E3,6.1276855E1,2.5994924E3,2.127204E1,4.0004818E1,2.503831E3,9.5661476E1],"tree_param":{"num_deleted":"0","num_feature":"56","num_nodes":"9","size_leaf_vector":"0"}},{"base_weights":[3.6785516E-3,2.5685415E-2,-4.8627236E-1,-1.5302287E-1,9.173094E-2,-9.424309E-2,-1.2881209E0,2.6065066E-1,-3.1038684E-1,-4.0720265E-2,2.574745E-1,3.7000683E-1,-8.5030836E-1,3.9554003E-1,-1.5425102E0],"categories":[],"categories_nodes":[],"categories_segments":[],"categories_sizes":[],"default_left":[1,1,1,1,1,1,1,0,0,0,0,0,0,0,0],"id":24,"left_children":[1,3,5,7,9,11,13,-1,-1,-1,-1,-1,-1,-1,-1],"loss_changes":[2.8893654E1,3.0281176E1,3.6088554E1,4.515171E1,4.1128872E1,2.7849012E1,1.6776848E1,0E0,0E0,0E0,0E0,0E0,0E0,0E0,0E0],"parents":[2147483647,0,0,1,1,2,2,3,3,4,4,5,5,6,6],"right_children":[2,4,6,8,10,12,14,-1,-1,-1,-1,-1,-1,-1,-1],"split_conditions":[8.25E1,6.575E-1,1.255E2,9.575E1,7.15E1,6.05E1,4.1E2,7.81952E-2,-9.311605E-2,-1.221608E-2,7.724236E-2,1.1100205E-1,-2.5509253E-1,1.18662015E-1,-4.6275306E-1],"split_indices":[36,50,41,49,36,37,27,0,0,0,0,0,0,0,0],"split_type":[0,0,0,0,0,0,0,0,0,0,0,0,0,0,0],"sum_hessian":[2.677576E3,2.5633853E3,1.1419063E2,6.9136066E2,1.8720247E3,7.744484E1,3.674579E1,1.9034119E2,5.0101944E2,1.040934E3,8.310907E2,4.8298515E1,2.9146324E1,4.7504377E0,3.199535E1],"tree_param":{"num_deleted":"0","num_feature":"56","num_nodes":"15","size_leaf_vector":"0"}},{"base_weights":[-8.056247E-4,-1.1705456E0,9.3007125E-3,5.3381664E-1,-1.6062849E0,1.6734661E-1,-7.296702E-2,-8.1283426E-1,1.0556223E0,-9.584757E-2,3.2649264E-1,-7.0856434E-1,-2.6547346E-2],"categories":[],"categories_nodes":[],"categories_segments":[],"categories_sizes":[],"default_left":[1,1,1,1,0,1,1,0,0,0,0,0,0],"id":25,"left_children":[1,3,5,7,-1,9,11,-1,-1,-1,-1,-1,-1],"loss_changes":[3.176124E1,1.7948608E1,3.4646313E1,4.678059E0,0E0,3.8239704E1,5.168859E1,0E0,0E0,0E0,0E0,0E0,0E0],"parents":[2147483647,0,0,1,1,2,2,3,3,5,5,6,6],"right_children":[2,4,6,8,-1,10,12,-1,-1,-1,-1,-1,-1],"split_conditions":[3.795E2,4.899525E0,7.545875E0,5.8E1,-4.8188546E-1,2.05E1,6.025E-1,-2.4385029E-1,3.1668672E-1,-2.8754272E-2,9.79478E-2,-2.1256931E-1,-7.964204E-3],"split_indices":[13,34,34,6,0,31,50,0,0,0,0,0,0],"split_type":[0,0,0,0,0,0,0,0,0,0,0,0,0],"sum_hessian":[2.6847495E3,2.2013498E1,2.6627358E3,4.43627E0,1.7577229E1,9.111933E2,1.7515426E3,1.0831625E0,3.3531075E0,3.4350528E2,5.67688E2,1.1824323E2,1.6332994E3],"tree_param":{"num_deleted":"0","num_feature":"56","num_nodes":"13","size_leaf_vector":"0"}},{"base_weights":[-1.2323719E-3,-3.2055065E-2,3.8657337E-1,-1.3078942E-2,-1.9315346E0,-1.6125378E-1,7.088612E-1,3.9183227E-3,-8.974475E-1,6.678671E-1,-7.1316934E-1,8.19644E-1,-1.4626728E0],"categories":[],"categories_nodes":[],"categories_segments":[],"categories_sizes":[],"default_left":[1,1,1,1,0,1,1,0,0,0,0,0,0],"id":26,"left_children":[1,3,5,7,-1,9,11,-1,-1,-1,-1,-1,-1],"loss_changes":[3.1815756E1,8.884952E1,3.4715187E1,3.6715736E1,0E0,3.406588E1,3.0926304E1,0E0,0E0,0E0,0E0,0E0,0E0],"parents":[2147483647,0,0,1,1,2,2,3,3,5,5,6,6],"right_children":[2,4,6,8,-1,10,12,-1,-1,-1,-1,-1,-1],"split_conditions":[1.9475E2,1.7575E2,6.35E1,1.8425E2,-5.7946044E-1,-5E-1,3.05E0,1.1754968E-3,-2.6923427E-1,2.0036015E-1,-2.1395081E-1,2.458932E-1,-4.3880185E-1],"split_indices":[54,47,48,54,0,16,38,0,0,0,0,0,0],"split_type":[0,0,0,0,0,0,0,0,0,0,0,0,0],"sum_hessian":[2.6596528E3,2.4646782E3,1.949746E2,2.4412961E3,2.3382078E1,7.240304E1,1.22571556E2,2.3962368E3,4.505929E1,2.8851095E1,4.3551945E1,1.1721431E2,5.357243E0],"tree_param":{"num_deleted":"0","num_feature":"56","num_nodes":"13","size_leaf_vector":"0"}},{"base_weights":[-3.061502E-3,9.788535E-2,-1.11413054E-1,1.7231055E-1,-4.0794188E-1,-1.9693764E-1,4.807473E-1,-1.5003357E0,2.110966E-1,-1.4941342E0,1.4290033E-1,3.3990648E-1,-2.8466213E-1,6.1937255E-1,-1.5078889E0],"categories":[],"categories_nodes":[],"categories_segments":[],"categories_sizes":[],"default_left":[1,1,1,1,1,1,1,0,0,0,0,0,0,0,0],"id":27,"left_children":[1,3,5,7,9,11,13,-1,-1,-1,-1,-1,-1,-1,-1],"loss_changes":[2.882486E1,5.1431564E1,6.446593E1,7.751989E1,1.0509212E2,5.2435047E1,4.5234432E1,0E0,0E0,0E0,0E0,0E0,0E0,0E0,0E0],"parents":[2147483647,0,0,1,1,2,2,3,3,4,4,5,5,6,6],"right_children":[2,4,6,8,10,12,14,-1,-1,-1,-1,-1,-1,-1,-1],"split_conditions":[5.35E1,1.81E2,1.95E2,6.9E1,8.5E1,5.709155E0,6.25E1,-4.5010072E-1,6.332898E-2,-4.4824028E-1,4.28701E-2,1.0197195E-1,-8.5398644E-2,1.8581177E-1,-4.5236668E-1],"split_indices":[15,9,9,11,11,34,16,0,0,0,0,0,0,0,0],"split_type":[0,0,0,0,0,0,0,0,0,0,0,0,0,0,0],"sum_hessian":[2.633359E3,1.3633118E3,1.270047E3,1.1890234E3,1.7428833E2,1.1103489E3,1.5969814E2,2.6092749E1,1.1629307E3,5.8069687E1,1.16218636E2,1.5555157E2,9.5479736E2,1.499349E2,9.763223E0],"tree_param":{"num_deleted":"0","num_feature":"56","num_nodes":"15","size_leaf_vector":"0"}},{"base_weights":[2.586358E-3,-1.2957214E-1,1.2100473E-1,-5.866307E-1,-5.2848365E-2,3.6744317E-1,-2.9873101E-2,-1.4653542E0,-2.5299597E-1,-1.1579073E-1,4.777698E-1,-1.546795E0,4.0379494E-1,-1.2835535E-1,5.8096504E-1],"categories":[],"categories_nodes":[],"categories_segments":[],"categories_sizes":[],"default_left":[1,1,1,1,1,1,1,0,0,0,0,0,0,0,0],"id":28,"left_children":[1,3,5,7,9,11,13,-1,-1,-1,-1,-1,-1,-1,-1],"loss_changes":[4.08681E1,4.3245644E1,5.122097E1,5.160475E1,3.53847E1,3.7023964E1,5.1520023E1,0E0,0E0,0E0,0E0,0E0,0E0,0E0,0E0],"parents":[2147483647,0,0,1,1,2,2,3,3,4,4,5,5,6,6],"right_children":[2,4,6,8,10,12,14,-1,-1,-1,-1,-1,-1,-1,-1],"split_conditions":[4.45E1,8.3E1,7.9E1,6.15E1,1.9375E2,6.2E1,8.685E2,-4.3960628E-1,-7.58988E-2,-3.4737222E-2,1.4333095E-1,-4.6403852E-1,1.2113849E-1,-3.850661E-2,1.7428952E-1],"split_indices":[30,7,11,5,54,54,25,0,0,0,0,0,0,0,0],"split_type":[0,0,0,0,0,0,0,0,0,0,0,0,0,0,0],"sum_hessian":[2.6093796E3,1.233104E3,1.3762756E3,1.7628622E2,1.0568177E3,5.2208514E2,8.541905E2,4.757958E1,1.2870665E2,9.454495E2,1.1136824E2,8.9553795E0,5.1312976E2,7.362746E2,1.17915855E2],"tree_param":{"num_deleted":"0","num_feature":"56","num_nodes":"15","size_leaf_vector":"0"}},{"base_weights":[-4.888013E-3,-2.4657063E-2,6.542143E-1,-4.242606E-3,-7.049281E-1,8.054997E-1,-1.3000417E0,-2.5933314E-2,4.5907548E-1,2.2567575E-1,-1.1035596E0,-3.1557998E-1,9.0255606E-1,6.926233E-1,-2.2794998E0],"categories":[],"categories_nodes":[],"categories_segments":[],"categories_sizes":[],"default_left":[1,1,1,1,1,1,1,0,0,0,0,0,0,0,0],"id":29,"left_children":[1,3,5,7,9,11,13,-1,-1,-1,-1,-1,-1,-1,-1],"loss_changes":[3.3939014E1,3.5112995E1,2.3472507E1,2.469359E1,2.757658E1,8.012188E0,1.2962357E1,0E0,0E0,0E0,0E0,0E0,0E0,0E0,0E0],"parents":[2147483647,0,0,1,1,2,2,3,3,4,4,5,5,6,6],"right_children":[2,4,6,8,10,12,14,-1,-1,-1,-1,-1,-1,-1,-1],"split_conditions":[1.31E2,1.01E2,9.045E2,1.1915E3,5.65E1,3.75E0,4.8765E0,-7.7799945E-3,1.3772266E-1,6.7702726E-2,-3.310679E-1,-9.4674E-2,2.7076682E-1,2.07787E-1,-6.8384993E-1],"split_indices":[11,11,20,20,43,39,3,0,0,0,0,0,0,0,0],"split_type":[0,0,0,0,0,0,0,0,0,0,0,0,0,0,0],"sum_hessian":[2.6024792E3,2.5276284E3,7.4850845E1,2.454963E3,7.266548E1,7.0018326E1,4.8325243E0,2.3460732E3,1.0888978E2,2.1922153E1,5.0743324E1,5.3994E0,6.461893E1,1.6890584E0,3.1434658E0],"tree_param":{"num_deleted":"0","num_feature":"56","num_nodes":"15","size_leaf_vector":"0"}},{"base_weights":[6.0977163E-3,5.942036E-1,-1.1459523E-2,1.0078149E0,-2.5548074E-1,-1.6523392E-3,-1.1069897E0,-1.7948682E0,1.1266881E0,-1.8421668E0,5.0059575E-1,-3.593497E-2,3.0190626E-1,-1.5550019E0,1.040545E0],"categories":[],"categories_nodes":[],"categories_segments":[],"categories_sizes":[],"default_left":[1,1,1,1,1,1,1,0,0,0,0,0,0,0,0],"id":30,"left_children":[1,3,5,7,9,11,13,-1,-1,-1,-1,-1,-1,-1,-1],"loss_changes":[2.658578E1,2.6488281E1,2.6863358E1,1.8814865E1,3.1195301E1,2.5812223E1,2.296183E1,0E0,0E0,0E0,0E0,0E0,0E0,0E0,0E0],"parents":[2147483647,0,0,1,1,2,2,3,3,4,4,5,5,6,6],"right_children":[2,4,6,8,10,12,14,-1,-1,-1,-1,-1,-1,-1,-1],"split_conditions":[-3.85E1,1.685E2,3.25E1,4.75E1,4.45E1,7.65E1,1.0745E3,-5.384605E-1,3.3800644E-1,-5.5265003E-1,1.5017873E-1,-1.0780491E-2,9.057188E-2,-4.6650058E-1,3.121635E-1],"split_indices":[16,35,31,40,30,6,24,0,0,0,0,0,0,0,0],"split_type":[0,0,0,0,0,0,0,0,0,0,0,0,0,0,0],"sum_hessian":[2.5731057E3,7.3638275E1,2.4994675E3,4.9403446E1,2.4234833E1,2.4782834E3,2.1184076E1,1.4364773E0,4.796697E1,7.35768E0,1.6877151E1,2.2275903E3,2.5069307E2,1.7755825E1,3.4282522E0],"tree_param":{"num_deleted":"0","num_feature":"56","num_nodes":"15","size_leaf_vector":"0"}},{"base_weights":[-4.5592757E-3,5.151562E-2,-1.8486226E-1,1.5431264E-1,-1.8414775E-1,-5.201589E-1,3.4604914E-2,2.5541252E-1,-3.0325684E-1,2.954481E-1,-4.0473938E-1,4.2513824E-1,-8.343628E-1,-5.4200625E-1,3.0088317E-1],"categories":[],"categories_nodes":[],"categories_segments":[],"categories_sizes":[],"default_left":[1,1,1,1,1,1,1,0,0,0,0,0,0,0,0],"id":31,"left_children":[1,3,5,7,9,11,13,-1,-1,-1,-1,-1,-1,-1,-1],"loss_changes":[2.6206568E1,4.792686E1,4.5265568E1,6.378816E1,6.369886E1,7.262327E1,5.736764E1,0E0,0E0,0E0,0E0,0E0,0E0,0E0,0E0],"parents":[2147483647,0,0,1,1,2,2,3,3,4,4,5,5,6,6],"right_children":[2,4,6,8,10,12,14,-1,-1,-1,-1,-1,-1,-1,-1],"split_conditions":[1.7855E0,1.0127001E1,4.35E1,7.575E2,1.195E2,8.91E2,1.9305E0,7.662376E-2,-9.097706E-2,8.863443E-2,-1.2142182E-1,1.2754148E-1,-2.5030884E-1,-1.6260189E-1,9.026495E-2],"split_indices":[2,34,30,23,35,14,2,0,0,0,0,0,0,0,0],"split_type":[0,0,0,0,0,0,0,0,0,0,0,0,0,0,0],"sum_hessian":[2.5900806E3,1.9761919E3,6.138887E2,1.3762241E3,5.999677E2,2.4231525E2,3.7157346E2,1.1275369E3,2.4868724E2,1.8891083E2,4.1105685E2,6.036158E1,1.8195367E2,1.1705712E2,2.5451633E2],"tree_param":{"num_deleted":"0","num_feature":"56","num_nodes":"15","size_leaf_vector":"0"}},{"base_weights":[-7.797629E-3,-4.6070885E-2,2.2526035E-1,-1.3481504E-2,-4.678871E-1,2.7489793E-1,-1.6411012E0,-3.7067153E-2,8.17115E-1,-1.8837864E-2,-1.3846686E0,3.3575916E-1,-1.1643417E0],"categories":[],"categories_nodes":[],"categories_segments":[],"categories_sizes":[],"default_left":[1,1,1,1,1,1,0,0,0,0,0,0,0],"id":32,"left_children":[1,3,5,7,9,11,-1,-1,-1,-1,-1,-1,-1],"loss_changes":[2.2722336E1,3.0069935E1,3.3740265E1,3.983751E1,6.455931E1,3.1125835E1,0E0,0E0,0E0,0E0,0E0,0E0,0E0],"parents":[2147483647,0,0,1,1,2,2,3,3,4,4,5,5],"right_children":[2,4,6,8,10,12,-1,-1,-1,-1,-1,-1,-1],"split_conditions":[1.13E2,8.595E2,3.025E1,9.095E2,6.965E2,1.01E2,-4.923304E-1,-1.1120146E-2,2.4513452E-1,-5.6513594E-3,-4.154006E-1,1.0072775E-1,-3.4930253E-1],"split_indices":[7,22,45,23,29,11,0,0,0,0,0,0,0],"split_type":[0,0,0,0,0,0,0,0,0,0,0,0,0],"sum_hessian":[2.5452156E3,2.1868835E3,3.5833215E2,2.0310011E3,1.558825E2,3.498795E2,8.452651E0,1.9758501E3,5.515094E1,1.0531746E2,5.0565052E1,3.3641998E2,1.3459505E1],"tree_param":{"num_deleted":"0","num_feature":"56","num_nodes":"13","size_leaf_vector":"0"}},{"base_weights":[9.6072466E-4,-2.3975256E-1,4.8438873E-2,1.6487496E-2,-5.109148E-1,8.183043E-1,2.51542E-2,-6.310554E-1,3.4468326E-1,-1.3992182E0,-1.3434872E-1,1.4541118E0,-7.0580393E-1,1.6541363E-1,-6.671289E-2],"categories":[],"categories_nodes":[],"categories_segments":[],"categories_sizes":[],"default_left":[1,1,1,1,1,1,1,0,0,0,0,0,0,0,0],"id":33,"left_children":[1,3,5,7,9,11,13,-1,-1,-1,-1,-1,-1,-1,-1],"loss_changes":[2.8990294E1,2.9045204E1,3.7959793E1,4.608602E1,6.773967E1,6.1269657E1,2.6523106E1,0E0,0E0,0E0,0E0,0E0,0E0,0E0,0E0],"parents":[2147483647,0,0,1,1,2,2,3,3,4,4,5,5,6,6],"right_children":[2,4,6,8,10,12,14,-1,-1,-1,-1,-1,-1,-1,-1],"split_conditions":[5.75E1,1.255E2,4.875E2,1.0275E2,1.385E2,6.05E1,6.65E1,-1.8931663E-1,1.03404984E-1,-4.1976547E-1,-4.0304616E-2,4.3623355E-1,-2.117412E-1,4.9624093E-2,-2.0013869E-2],"split_indices":[5,41,25,54,41,37,33,0,0,0,0,0,0,0,0],"split_type":[0,0,0,0,0,0,0,0,0,0,0,0,0,0,0],"sum_hessian":[2.5346235E3,4.168998E2,2.1177236E3,2.1483063E2,2.0206918E2,6.1168106E1,2.0565554E3,7.194923E1,1.4288141E2,5.9349804E1,1.4271939E2,4.3194653E1,1.7973454E1,8.1359174E2,1.2429637E3],"tree_param":{"num_deleted":"0","num_feature":"56","num_nodes":"15","size_leaf_vector":"0"}},{"base_weights":[-1.161998E-2,-9.59305E-2,1.231409E-1,-2.4763033E-1,1.6622849E-1,2.8610542E-1,-2.2097981E-1,-2.0450705E-1,-1.4440721E0,2.0236501E-1,-1.738196E0,-4.298188E-1,3.894948E-1,-9.001663E-1,1.18640974E-1],"categories":[],"categories_nodes":[],"categories_segments":[],"categories_sizes":[],"default_left":[1,1,1,1,1,1,1,0,0,0,0,0,0,0,0],"id":34,"left_children":[1,3,5,7,9,11,13,-1,-1,-1,-1,-1,-1,-1,-1],"loss_changes":[2.8615778E1,6.1653286E1,5.442289E1,5.0358223E1,3.947336E1,4.889033E1,7.209382E1,0E0,0E0,0E0,0E0,0E0,0E0,0E0,0E0],"parents":[2147483647,0,0,1,1,2,2,3,3,4,4,5,5,6,6],"right_children":[2,4,6,8,10,12,14,-1,-1,-1,-1,-1,-1,-1,-1],"split_conditions":[5E-1,4.365E2,4.325E2,1.075E2,3.225E1,4.95E2,1.675E2,-6.135212E-2,-4.3322167E-1,6.0709506E-2,-5.214588E-1,-1.2894565E-1,1.1684845E-1,-2.700499E-1,3.5592295E-2],"split_indices":[1,13,13,53,45,26,35,0,0,0,0,0,0,0,0],"split_type":[0,0,0,0,0,0,0,0,0,0,0,0,0,0,0],"sum_hessian":[2.5165645E3,1.5482316E3,9.683328E2,9.807629E2,5.6746875E2,6.5724927E2,3.1108356E2,9.477733E2,3.2989594E1,5.577786E2,9.690129E0,8.254002E1,5.747093E2,1.03149925E2,2.0793364E2],"tree_param":{"num_deleted":"0","num_feature":"56","num_nodes":"15","size_leaf_vector":"0"}},{"base_weights":[9.870729E-3,5.5254847E-1,-7.4291755E-3,8.8537157E-1,-4.0112197E-1,6.9542364E-3,-7.8633934E-1,1.7212299E-1,1.3470721E0,2.5316575E-1,-1.8019098E0,-9.758184E-4,1.4064928E0,-1.7467915E0,4.4696417E-1],"categories":[],"categories_nodes":[],"categories_segments":[],"categories_sizes":[],"default_left":[1,1,1,1,1,1,1,0,0,0,0,0,0,0,0],"id":35,"left_children":[1,3,5,7,9,11,13,-1,-1,-1,-1,-1,-1,-1,-1],"loss_changes":[2.3473658E1,2.4872768E1,2.7158386E1,1.8727211E1,1.940222E1,2.6423182E1,5.284355E1,0E0,0E0,0E0,0E0,0E0,0E0,0E0,0E0],"parents":[2147483647,0,0,1,1,2,2,3,3,4,4,5,5,6,6],"right_children":[2,4,6,8,10,12,14,-1,-1,-1,-1,-1,-1,-1,-1],"split_conditions":[2.85E1,1.575E1,3.76445E1,7.555E2,7.07E2,3.7416298E1,8.625E1,5.1636897E-2,4.0412167E-1,7.594973E-2,-5.4057294E-1,-2.9274554E-4,4.2194787E-1,-5.240375E-1,1.3408926E-1],"split_indices":[42,45,4,24,24,4,46,0,0,0,0,0,0,0,0],"split_type":[0,0,0,0,0,0,0,0,0,0,0,0,0,0,0],"sum_hessian":[2.4988794E3,7.624434E1,2.422635E3,5.6572594E1,1.967175E1,2.3796826E3,4.2952324E1,2.2769854E1,3.380274E1,1.396716E1,5.7045894E0,2.3672686E3,1.2414097E1,2.3913221E1,1.90391E1],"tree_param":{"num_deleted":"0","num_feature":"56","num_nodes":"15","size_leaf_vector":"0"}},{"base_weights":[-6.2456615E-3,-2.3571996E-2,5.933833E-1,-9.8105185E-3,-9.1759056E-1,6.786699E-1,-1.7127446E0,-3.705572E-2,4.4490594E-1,9.091564E-1,-1.3477213E0,8.115346E-1,-4.0567625E-1],"categories":[],"categories_nodes":[],"categories_segments":[],"categories_sizes":[],"default_left":[1,1,1,1,1,1,0,0,0,0,0,0,0],"id":36,"left_children":[1,3,5,7,9,11,-1,-1,-1,-1,-1,-1,-1],"loss_changes":[2.5695002E1,2.9560038E1,1.4823278E1,2.9352942E1,2.9844658E1,1.0082262E1,0E0,0E0,0E0,0E0,0E0,0E0,0E0],"parents":[2147483647,0,0,1,1,2,2,3,3,4,4,5,5],"right_children":[2,4,6,8,10,12,-1,-1,-1,-1,-1,-1,-1],"split_conditions":[1.31E2,1.05E2,8.49E2,1.079E3,3.75E1,8.66E2,-5.138234E-1,-1.1116716E-2,1.3347179E-1,2.7274692E-1,-4.0431643E-1,2.4346039E-1,-1.2170288E-1],"split_indices":[11,11,23,19,36,20,0,0,0,0,0,0,0],"split_type":[0,0,0,0,0,0,0,0,0,0,0,0,0],"sum_hessian":[2.4708542E3,2.4023975E3,6.84568E1,2.3669739E3,3.542346E1,6.669592E1,1.7608781E0,2.234036E3,1.32938E2,6.538986E0,2.8884472E1,5.963986E1,7.056067E0],"tree_param":{"num_deleted":"0","num_feature":"56","num_nodes":"13","size_leaf_vector":"0"}},{"base_weights":[4.654849E-3,1.4058328E-1,-5.2279525E-2,-3.7548013E-2,4.001234E-1,-1.368193E0,-2.2599116E-2,1.2670034E-1,-1.2415884E0,-3.4224138E-1,5.7943517E-1,-1.6248924E0,1.203303E0,1.3015732E0,-3.831483E-2],"categories":[],"categories_nodes":[],"categories_segments":[],"categories_sizes":[],"default_left":[1,1,1,1,1,1,1,0,0,0,0,0,0,0,0],"id":37,"left_children":[1,3,5,7,9,11,13,-1,-1,-1,-1,-1,-1,-1,-1],"loss_changes":[1.9041817E1,3.3595654E1,6.770165E1,8.5519066E1,3.9561325E1,2.7194473E1,3.536433E1,0E0,0E0,0E0,0E0,0E0,0E0,0E0,0E0],"parents":[2147483647,0,0,1,1,2,2,3,3,4,4,5,5,6,6],"right_children":[2,4,6,8,10,12,14,-1,-1,-1,-1,-1,-1,-1,-1],"split_conditions":[5.1385E0,6.885E2,5.2205E0,6.455E2,1.2390001E0,1.015E2,5.2255E0,3.8010105E-2,-3.7247652E-1,-1.0267242E-1,1.7383055E-1,-4.8746774E-1,3.609909E-1,3.9047197E-1,-1.1494449E-2],"split_indices":[3,23,3,23,2,6,3,0,0,0,0,0,0,0,0],"split_type":[0,0,0,0,0,0,0,0,0,0,0,0,0,0,0],"sum_hessian":[2.4585518E3,7.25347E2,1.7332047E3,4.306396E2,2.947074E2,3.7235386E1,1.6959692E3,3.797333E2,5.0906296E1,5.7158413E1,2.3754898E2,3.419044E1,3.0449436E0,1.893256E1,1.6770367E3],"tree_param":{"num_deleted":"0","num_feature":"56","num_nodes":"15","size_leaf_vector":"0"}},{"base_weights":[-3.3846253E-4,3.764563E-1,-2.9503431E-2,5.559243E-1,-8.44414E-1,2.007894E-1,-8.162372E-2,6.671063E-1,-1.2484366E0,9.069482E-1,-1.3250034E0,4.1587487E-1,-2.744157E-1,-3.8483512E-1,-2.6433304E-2],"categories":[],"categories_nodes":[],"categories_segments":[],"categories_sizes":[],"default_left":[1,1,1,1,1,1,1,0,0,0,0,0,0,0,0],"id":38,"left_children":[1,3,5,7,9,11,13,-1,-1,-1,-1,-1,-1,-1,-1],"loss_changes":[2.70393E1,3.920094E1,2.74281E1,3.1871128E1,2.0604156E1,4.32224E1,3.1165758E1,0E0,0E0,0E0,0E0,0E0,0E0,0E0,0E0],"parents":[2147483647,0,0,1,1,2,2,3,3,4,4,5,5,6,6],"right_children":[2,4,6,8,10,12,14,-1,-1,-1,-1,-1,-1,-1,-1],"split_conditions":[7.725E1,5.95E1,1.2225001E0,1.948E0,4.25E1,5.785E2,8.741667E1,2.001319E-1,-3.7453097E-1,2.7208447E-1,-3.9750102E-1,1.2476247E-1,-8.232471E-2,-1.1545054E-1,-7.929992E-3],"split_indices":[51,16,2,2,6,29,51,0,0,0,0,0,0,0,0],"split_type":[0,0,0,0,0,0,0,0,0,0,0,0,0,0,0],"sum_hessian":[2.4585217E3,1.7576968E2,2.282752E3,1.537178E2,2.205188E1,4.2076306E2,1.8619889E3,1.4538942E2,8.32839E0,4.5572405E0,1.7494638E1,2.8974478E2,1.3101828E2,2.858085E2,1.5761804E3],"tree_param":{"num_deleted":"0","num_feature":"56","num_nodes":"15","size_leaf_vector":"0"}},{"base_weights":[4.5506363E-3,-1.1241218E-1,8.252083E-2,-1.4444252E0,-7.919738E-2,-1.4535717E0,1.0146233E-1,3.1010738E-1,-1.7420363E-1,-1.5796129E0,-3.4526882E-1,2.6664257E-1,-6.3241646E-2],"categories":[],"categories_nodes":[],"categories_segments":[],"categories_sizes":[],"default_left":[1,1,1,0,1,1,1,0,0,0,0,0,0],"id":39,"left_children":[1,3,5,-1,7,9,11,-1,-1,-1,-1,-1,-1],"loss_changes":[2.2345884E1,4.3247852E1,4.292399E1,0E0,3.5461678E1,1.9653282E0,3.9552864E1,0E0,0E0,0E0,0E0,0E0,0E0],"parents":[2147483647,0,0,1,1,2,2,4,4,5,5,6,6],"right_children":[2,4,6,-1,8,10,12,-1,-1,-1,-1,-1,-1],"split_conditions":[2.35E1,4.15E2,1.75E0,-4.333276E-1,9.85E1,8.825E-1,6.925E-1,9.303222E-2,-5.226109E-2,-4.7388387E-1,-1.03580646E-1,7.999277E-2,-1.8972494E-2],"split_indices":[32,28,45,0,41,50,50,0,0,0,0,0,0],"split_type":[0,0,0,0,0,0,0,0,0,0,0,0,0],"sum_hessian":[2.4482935E3,9.7910284E2,1.4691904E3,2.2787033E1,9.5631586E2,1.6973288E1,1.4522172E3,1.8715431E2,7.6916156E2,1.4858283E1,2.1150045E0,7.247513E2,7.2746594E2],"tree_param":{"num_deleted":"0","num_feature":"56","num_nodes":"13","size_leaf_vector":"0"}},{"base_weights":[8.615997E-3,-5.3240913E-1,2.4456026E-2,7.309605E-1,-1.2351941E0,-6.065599E-1,3.658058E-2,1.0994685E0,-1.0396383E0,-1.4480958E0,9.046671E-1,-9.505363E-1,9.935082E-1,5.8689946E-1,1.6814703E-2],"categories":[],"categories_nodes":[],"categories_segments":[],"categories_sizes":[],"default_left":[1,1,1,1,1,1,1,0,0,0,0,0,0,0,0],"id":40,"left_children":[1,3,5,7,9,11,13,-1,-1,-1,-1,-1,-1,-1,-1],"loss_changes":[2.071518E1,6.1951878E1,1.798576E1,1.7589012E1,2.1607529E1,2.5337711E1,2.5058685E1,0E0,0E0,0E0,0E0,0E0,0E0,0E0,0E0],"parents":[2147483647,0,0,1,1,2,2,3,3,4,4,5,5,6,6],"right_children":[2,4,6,8,10,12,14,-1,-1,-1,-1,-1,-1,-1,-1],"split_conditions":[6.9E1,8.325E1,1.19E2,2.05E0,1.405E3,1.4575E2,1.25E2,3.2984054E-1,-3.118915E-1,-4.3442875E-1,2.7140012E-1,-2.851609E-1,2.980525E-1,1.7606984E-1,5.044411E-3],"split_indices":[11,51,9,38,21,49,9,0,0,0,0,0,0,0,0],"split_type":[0,0,0,0,0,0,0,0,0,0,0,0,0,0,0],"sum_hessian":[2.4146958E3,6.775838E1,2.3469373E3,2.4205317E1,4.3553062E1,4.3320457E1,2.303617E3,2.0349163E1,3.856153E0,3.9905968E1,3.6470973E0,3.598951E1,7.3309445E0,7.887578E1,2.2247412E3],"tree_param":{"num_deleted":"0","num_feature":"56","num_nodes":"15","size_leaf_vector":"0"}},{"base_weights":[-1.0441558E-2,-3.054256E-1,2.0472128E-2,4.1744128E-1,-5.714876E-1,3.4234595E-1,-1.7595872E-2,6.545112E-1,-1.2951269E0,-8.9855087E-1,-5.8250185E-2,-9.5219946E-1,4.665235E-1,3.0192432E-1,-6.329898E-2],"categories":[],"categories_nodes":[],"categories_segments":[],"categories_sizes":[],"default_left":[1,1,1,1,1,1,1,0,0,0,0,0,0,0,0],"id":41,"left_children":[1,3,5,7,9,11,13,-1,-1,-1,-1,-1,-1,-1,-1],"loss_changes":[2.193375E1,4.411889E1,2.6686253E1,2.6003601E1,2.8012981E1,3.747171E1,2.8467213E1,0E0,0E0,0E0,0E0,0E0,0E0,0E0,0E0],"parents":[2147483647,0,0,1,1,2,2,3,3,4,4,5,5,6,6],"right_children":[2,4,6,8,10,12,14,-1,-1,-1,-1,-1,-1,-1,-1],"split_conditions":[5.35E1,6.75E0,9.616667E1,2.78963E1,7.35E1,8.3E1,5.25E1,1.9635338E-1,-3.885381E-1,-2.6956528E-1,-1.7475056E-2,-2.8565985E-1,1.3995706E-1,9.05773E-2,-1.8989693E-2],"split_indices":[48,45,49,4,36,7,37,0,0,0,0,0,0,0,0],"split_type":[0,0,0,0,0,0,0,0,0,0,0,0,0,0,0],"sum_hessian":[2.4035825E3,2.2715433E2,2.1764282E3,6.0960648E1,1.6619368E2,2.2933705E2,1.9470912E3,5.4090717E1,6.869931E0,1.0104894E2,6.514474E1,1.9489708E1,2.0984734E2,2.4295244E2,1.7041388E3],"tree_param":{"num_deleted":"0","num_feature":"56","num_nodes":"15","size_leaf_vector":"0"}},{"base_weights":[9.120301E-3,-1.1235473E0,1.7123682E-2,-1.3949097E0,2.9748648E-1,1.3865389E-1,-5.550977E-2,2.2461371E-1,-3.6910856E-1,-1.622004E0,-3.7317034E-2],"categories":[],"categories_nodes":[],"categories_segments":[],"categories_sizes":[],"default_left":[1,1,1,0,0,1,1,0,0,0,0],"id":42,"left_children":[1,3,5,-1,-1,7,9,-1,-1,-1,-1],"loss_changes":[2.1589506E1,6.858694E0,2.0872946E1,0E0,0E0,3.8690067E1,4.2124203E1,0E0,0E0,0E0,0E0],"parents":[2147483647,0,0,1,1,2,2,5,5,6,6],"right_children":[2,4,6,-1,-1,8,10,-1,-1,-1,-1],"split_conditions":[3.795E2,2.625E1,6.65E1,-4.1847295E-1,8.9245945E-2,3.175E1,3.65E1,6.738412E-2,-1.1073257E-1,-4.8660123E-1,-1.119511E-2],"split_indices":[13,45,33,0,0,44,30,0,0,0,0],"split_type":[0,0,0,0,0,0,0,0,0,0,0],"sum_hessian":[2.378466E3,1.5710252E1,2.3627559E3,1.3206672E1,2.5035794E0,8.835283E2,1.4792275E3,7.560869E2,1.2744138E2,1.5969956E1,1.4632576E3],"tree_param":{"num_deleted":"0","num_feature":"56","num_nodes":"11","size_leaf_vector":"0"}},{"base_weights":[-1.7432997E-2,-8.888127E-2,9.63961E-2,-5.9662245E-2,-8.9374244E-1,1.6548821E-1,-3.7675393E-1,-1.1909259E-1,3.2401776E-1,-1.7255516E0,-1.4074402E-1,2.9638466E-1,-2.8533855E-1,-1.7037424E0,-2.7705297E-2],"categories":[],"categories_nodes":[],"categories_segments":[],"categories_sizes":[],"default_left":[1,1,1,1,1,1,1,0,0,0,0,0,0,0,0],"id":43,"left_children":[1,3,5,7,9,11,13,-1,-1,-1,-1,-1,-1,-1,-1],"loss_changes":[1.9371367E1,3.4357502E1,3.0091743E1,3.225881E1,3.1818188E1,4.7425713E1,5.4307674E1,0E0,0E0,0E0,0E0,0E0,0E0,0E0,0E0],"parents":[2147483647,0,0,1,1,2,2,3,3,4,4,5,5,6,6],"right_children":[2,4,6,8,10,12,14,-1,-1,-1,-1,-1,-1,-1,-1],"split_conditions":[5E-1,1.075E2,6.35E1,1.9905E0,3.35E1,1.7705E0,6.45E1,-3.572778E-2,9.720533E-2,-5.176655E-1,-4.2223208E-2,8.89154E-2,-8.560157E-2,-5.1112276E-1,-8.311589E-3],"split_indices":[1,53,42,2,16,2,36,0,0,0,0,0,0,0,0],"split_type":[0,0,0,0,0,0,0,0,0,0,0,0,0,0,0],"sum_hessian":[2.379801E3,1.4622162E3,9.175849E2,1.4120292E3,5.0187023E1,8.0123425E2,1.1635063E2,1.2232437E3,1.8878546E2,2.3231964E1,2.6955057E1,6.2121E2,1.8002422E2,2.3422712E1,9.292792E1],"tree_param":{"num_deleted":"0","num_feature":"56","num_nodes":"15","size_leaf_vector":"0"}},{"base_weights":[-2.6255946E-3,-2.1669003E-1,3.8861662E-2,-1.8392537E-2,-9.6381027E-1,-8.6074835E-1,5.6806E-2,1.21484734E-1,-8.174093E-1,-1.3875413E0,1.2579095E-1,1.9147818E-1,-1.4417738E0,-1.2246748E0,6.582211E-2],"categories":[],"categories_nodes":[],"categories_segments":[],"categories_sizes":[],"default_left":[1,1,1,1,1,1,1,0,0,0,0,0,0,0,0],"id":44,"left_children":[1,3,5,7,9,11,13,-1,-1,-1,-1,-1,-1,-1,-1],"loss_changes":[2.1077955E1,5.7065804E1,3.2143246E1,3.4244095E1,3.7478058E1,2.4084883E1,2.2613096E1,0E0,0E0,0E0,0E0,0E0,0E0,0E0,0E0],"parents":[2147483647,0,0,1,1,2,2,3,3,4,4,5,5,6,6],"right_children":[2,4,6,8,10,12,14,-1,-1,-1,-1,-1,-1,-1,-1],"split_conditions":[6.3416666E-1,6.28E2,6.9E1,4.445E2,1.0675E2,4.025E2,6.6E2,3.644542E-2,-2.4522279E-1,-4.1626242E-1,3.7737288E-2,5.7443455E-2,-4.3253216E-1,-3.6740246E-1,1.9746633E-2],"split_indices":[50,26,11,13,51,13,8,0,0,0,0,0,0,0,0],"split_type":[0,0,0,0,0,0,0,0,0,0,0,0,0,0,0],"sum_hessian":[2.3714424E3,3.843036E2,1.9871389E3,3.045072E2,7.9796394E1,3.794336E1,1.9491956E3,2.5986307E2,4.4644127E1,5.7256634E1,2.2539762E1,1.3736768E1,2.4206593E1,1.2676117E1,1.9365194E3],"tree_param":{"num_deleted":"0","num_feature":"56","num_nodes":"15","size_leaf_vector":"0"}},{"base_weights":[-8.477573E-3,-3.2239728E-2,3.1585848E-1,-2.0458847E-2,-1.71059E0,4.3749464E-1,-1.5386696E0,2.5287667E-1,-5.3508904E-2,-5.0113565E-1,5.534875E-1],"categories":[],"categories_nodes":[],"categories_segments":[],"categories_sizes":[],"default_left":[1,1,1,1,0,1,0,0,0,0,0],"id":45,"left_children":[1,3,5,7,-1,9,-1,-1,-1,-1,-1],"loss_changes":[1.824462E1,4.357076E1,3.7126747E1,1.9806662E1,0E0,1.6873415E1,0E0,0E0,0E0,0E0,0E0],"parents":[2147483647,0,0,1,1,2,2,3,3,5,5],"right_children":[2,4,6,8,-1,10,-1,-1,-1,-1,-1],"split_conditions":[3.725E1,3.6166664E1,5.25E1,4.95E1,-5.1317704E-1,6.765E2,-4.616009E-1,7.5863004E-2,-1.6052673E-2,-1.503407E-1,1.6604625E-1],"split_indices":[44,44,16,43,0,18,0,0,0,0,0],"split_type":[0,0,0,0,0,0,0,0,0,0,0],"sum_hessian":[2.364981E3,2.20438E3,1.6060107E2,2.1900195E3,1.4360263E1,1.5143288E2,9.168197E0,2.3552168E2,1.9544979E3,1.6290173E1,1.3514272E2],"tree_param":{"num_deleted":"0","num_feature":"56","num_nodes":"11","size_leaf_vector":"0"}},{"base_weights":[-1.3100193E-2,2.828933E-1,-3.797852E-2,-1.1585396E-1,8.7445325E-1,-4.828018E-1,-1.5896311E-2,-6.2134814E-1,5.0081855E-1,1.1568255E0,-5.74413E-1,-1.1920218E0,-1.31716905E-2,9.2288023E-1,-4.2079467E-2],"categories":[],"categories_nodes":[],"categories_segments":[],"categories_sizes":[],"default_left":[1,1,1,1,1,1,1,0,0,0,0,0,0,0,0],"id":46,"left_children":[1,3,5,7,9,11,13,-1,-1,-1,-1,-1,-1,-1,-1],"loss_changes":[1.7192646E1,4.2802307E1,2.1143105E1,3.429508E1,3.0533192E1,3.3892258E1,5.0488464E1,0E0,0E0,0E0,0E0,0E0,0E0,0E0,0E0],"parents":[2147483647,0,0,1,1,2,2,3,3,4,4,5,5,6,6],"right_children":[2,4,6,8,10,12,14,-1,-1,-1,-1,-1,-1,-1,-1],"split_conditions":[7.57E2,9.22E2,5.95E2,1.0813101E1,4.6499996E0,6.05E1,5.155E2,-1.8640445E-1,1.5024558E-1,3.470477E-1,-1.7232391E-1,-3.5760656E-1,-3.951507E-3,2.7686408E-1,-1.2623841E-2],"split_indices":[14,20,20,34,39,5,24,0,0,0,0,0,0,0,0],"split_type":[0,0,0,0,0,0,0,0,0,0,0,0,0,0,0],"sum_hessian":[2.332286E3,1.8002628E2,2.1522598E3,1.0801905E2,7.2007225E1,1.0080396E2,2.0514558E3,5.935633E1,4.8662716E1,6.0431232E1,1.1575991E1,3.954547E1,6.1258495E1,5.473481E1,1.996721E3],"tree_param":{"num_deleted":"0","num_feature":"56","num_nodes":"15","size_leaf_vector":"0"}},{"base_weights":[-1.3615083E-3,-6.853746E-2,1.10203624E-1,-1.2611419E-1,4.0844545E-1,-8.04298E-2,3.523453E-1,-2.1505862E-1,2.59244E-1,5.863392E-1,-1.1849867E0,5.026607E-1,-2.592984E-1,-9.599623E-1,4.276607E-1],"categories":[],"categories_nodes":[],"categories_segments":[],"categories_sizes":[],"default_left":[1,1,1,1,1,1,1,0,0,0,0,0,0,0,0],"id":47,"left_children":[1,3,5,7,9,11,13,-1,-1,-1,-1,-1,-1,-1,-1],"loss_changes":[1.7528847E1,4.014385E1,4.060454E1,4.4729877E1,4.53331E1,5.1510864E1,3.8698963E1,0E0,0E0,0E0,0E0,0E0,0E0,0E0,0E0],"parents":[2147483647,0,0,1,1,2,2,3,3,4,4,5,5,6,6],"right_children":[2,4,6,8,10,12,14,-1,-1,-1,-1,-1,-1,-1,-1],"split_conditions":[5.45E1,2.95E1,6.895E2,2.85E0,3.15E1,5.65E1,6.175E-1,-6.451759E-2,7.77732E-2,1.7590176E-1,-3.5549602E-1,1.5079822E-1,-7.778953E-2,-2.879887E-1,1.2829822E-1],"split_indices":[42,31,23,38,32,42,50,0,0,0,0,0,0,0,0],"split_type":[0,0,0,0,0,0,0,0,0,0,0,0,0,0,0],"sum_hessian":[2.336889E3,1.4588608E3,8.780282E2,1.3023851E3,1.5647566E2,4.9163858E2,3.8638962E2,1.0585122E3,2.4387299E2,1.413294E2,1.5146248E1,1.1498638E2,3.766522E2,2.0334377E1,3.6605524E2],"tree_param":{"num_deleted":"0","num_feature":"56","num_nodes":"15","size_leaf_vector":"0"}},{"base_weights":[-7.256458E-3,5.839228E-1,-2.0128349E-2,1.0542686E0,-1.8379154E0,-8.333386E-3,-9.9886495E-1,1.2582592E0,-1.3646868E0,-6.791549E-2,1.3163078E-1,-1.5453373E0,1.7413524E-1],"categories":[],"categories_nodes":[],"categories_segments":[],"categories_sizes":[],"default_left":[1,1,1,1,0,1,1,0,0,0,0,0,0],"id":48,"left_children":[1,3,5,7,-1,9,11,-1,-1,-1,-1,-1,-1],"loss_changes":[1.7598703E1,5.807524E1,2.6114637E1,2.239402E1,0E0,1.8663546E1,1.7536184E1,0E0,0E0,0E0,0E0,0E0,0E0],"parents":[2147483647,0,0,1,1,2,2,3,3,5,5,6,6],"right_children":[2,4,6,8,-1,10,12,-1,-1,-1,-1,-1,-1],"split_conditions":[-1.45E1,5.965E2,9.35E1,5.965E2,-5.513747E-1,2.86983E1,6.15E1,3.7747777E-1,-4.0940607E-1,-2.0374648E-2,3.9489236E-2,-4.636012E-1,5.2240573E-2],"split_indices":[15,27,48,29,0,4,40,0,0,0,0,0,0],"split_type":[0,0,0,0,0,0,0,0,0,0,0,0,0],"sum_hessian":[2.3101545E3,4.8282345E1,2.261872E3,4.0903206E1,7.3791385E0,2.2359348E3,2.5937214E1,3.8164616E1,2.7385888E0,1.5686729E3,6.672621E2,1.7477463E1,8.45975E0],"tree_param":{"num_deleted":"0","num_feature":"56","num_nodes":"13","size_leaf_vector":"0"}},{"base_weights":[9.228613E-3,2.3794183E-1,-1.9740041E-2,-1.1495361E0,2.93439E-1,7.084455E-2,-1.677136E-1,1.9444788E-1,-1.3321406E0,-4.5493484E-1,4.537557E-1,1.8834981E-1,-1.1544524E-1,-3.0655628E-1,2.1021013E-1],"categories":[],"categories_nodes":[],"categories_segments":[],"categories_sizes":[],"default_left":[1,1,1,1,1,1,1,0,0,0,0,0,0,0,0],"id":49,"left_children":[1,3,5,7,9,11,13,-1,-1,-1,-1,-1,-1,-1,-1],"loss_changes":[1.5291196E1,2.0315607E1,2.747375E1,2.757883E0,3.0233316E1,2.785526E1,4.0900578E1,0E0,0E0,0E0,0E0,0E0,0E0,0E0,0E0],"parents":[2147483647,0,0,1,1,2,2,3,3,4,4,5,5,6,6],"right_children":[2,4,6,8,10,12,14,-1,-1,-1,-1,-1,-1,-1,-1],"split_conditions":[9.425E1,4.25E1,5.85E2,-1.5E0,6.675E1,1.01E2,1.09E2,5.8334365E-2,-3.996422E-1,-1.3648045E-1,1.3612671E-1,5.6504946E-2,-3.4633573E-2,-9.196689E-2,6.306304E-2],"split_indices":[49,36,26,15,54,7,7,0,0,0,0,0,0,0,0],"split_type":[0,0,0,0,0,0,0,0,0,0,0,0,0,0,0],"sum_hessian":[2.306217E3,2.5845447E2,2.0477626E3,9.182042E0,2.4927243E2,1.2705155E3,7.77247E2,1.0905615E0,8.09148E0,4.365393E1,2.056185E2,7.790845E2,4.9143106E2,5.6855756E2,2.0868944E2],"tree_param":{"num_deleted":"0","num_feature":"56","num_nodes":"15","size_leaf_vector":"0"}},{"base_weights":[7.894829E-3,-4.935212E-3,5.382763E-1,-2.3657463E-2,3.641141E-1,-1.2828299E0,6.975564E-1,-1.5745319E0,-1.7105512E-2,-4.2730352E-1,6.386091E-1,7.812537E-1,-1.2646388E0],"categories":[],"categories_nodes":[],"categories_segments":[],"categories_sizes":[],"default_left":[1,1,1,1,1,0,1,0,0,0,0,0,0],"id":50,"left_children":[1,3,5,7,9,-1,11,-1,-1,-1,-1,-1,-1],"loss_changes":[1.5647931E1,1.5526063E1,1.6649002E1,2.1701298E1,2.3842058E1,0E0,9.2967205E0,0E0,0E0,0E0,0E0,0E0,0E0],"parents":[2147483647,0,0,1,1,2,2,3,3,4,4,6,6],"right_children":[2,4,6,8,10,-1,12,-1,-1,-1,-1,-1,-1],"split_conditions":[1.155E2,2.0225E2,6.15E1,9.5E0,6.975E2,-3.8484898E-1,5.25E0,-4.723596E-1,-5.131654E-3,-1.2819107E-1,1.9158274E-1,2.3437612E-1,-3.7939164E-1],"split_indices":[17,54,48,32,25,0,39,0,0,0,0,0,0],"split_type":[0,0,0,0,0,0,0,0,0,0,0,0,0],"sum_hessian":[2.2981472E3,2.244835E3,5.3312336E1,2.1373413E3,1.0749363E2,3.7205071E0,4.9591827E1,7.9848247E0,2.1293564E3,2.753852E1,7.995511E1,4.814026E1,1.4515718E0],"tree_param":{"num_deleted":"0","num_feature":"56","num_nodes":"13","size_leaf_vector":"0"}},{"base_weights":[2.1060118E-3,4.1258335E-2,-1.7148615E-1,-1.3023679E0,5.282494E-2,3.7011856E-1,-4.227818E-1,-1.6949196E0,6.260974E-1,6.367145E-2,-1.194951E0,4.6885273E-1,-8.728189E-1,3.7636322E-1,-6.7392653E-1],"categories":[],"categories_nodes":[],"categories_segments":[],"categories_sizes":[],"default_left":[1,1,1,1,1,1,1,0,0,0,0,0,0,0,0],"id":51,"left_children":[1,3,5,7,9,11,13,-1,-1,-1,-1,-1,-1,-1,-1],"loss_changes":[1.55003805E1,2.8988962E1,5.7281155E1,1.3114159E1,2.505918E1,1.6799149E1,5.7887318E1,0E0,0E0,0E0,0E0,0E0,0E0,0E0,0E0],"parents":[2147483647,0,0,1,1,2,2,3,3,4,4,5,5,6,6],"right_children":[2,4,6,8,10,12,14,-1,-1,-1,-1,-1,-1,-1,-1],"split_conditions":[8.05E1,7.33E2,7.57E2,9.5E1,3.81964E1,5E-1,4.95E1,-5.084759E-1,1.8782923E-1,1.9101435E-2,-3.5848534E-1,1.4065583E-1,-2.6184568E-1,1.1290897E-1,-2.0217797E-1],"split_indices":[33,14,14,17,4,0,43,0,0,0,0,0,0,0,0],"split_type":[0,0,0,0,0,0,0,0,0,0,0,0,0,0,0],"sum_hessian":[2.2785881E3,1.8598713E3,4.187168E2,1.4921563E1,1.8449498E3,1.3255498E2,2.8616183E2,1.2498514E1,2.423049E0,1.8299913E3,1.4958534E1,1.2337716E2,9.177822E0,6.830763E1,2.1785419E2],"tree_param":{"num_deleted":"0","num_feature":"56","num_nodes":"15","size_leaf_vector":"0"}},{"base_weights":[-2.1768073E-3,-1.4541643E0,2.2575515E-3,4.4140962E-1,-1.5734676E-2,9.532761E-1,-2.4082737E-1,4.126548E-3,-5.602522E-1],"categories":[],"categories_nodes":[],"categories_segments":[],"categories_sizes":[],"default_left":[1,0,1,1,1,0,0,0,0],"id":52,"left_children":[1,-1,3,5,7,-1,-1,-1,-1],"loss_changes":[1.4638881E1,0E0,1.792058E1,3.1402306E1,2.3566679E1,0E0,0E0,0E0,0E0],"parents":[2147483647,0,0,2,2,3,3,4,4],"right_children":[2,-1,4,6,8,-1,-1,-1,-1],"split_conditions":[3.3E2,-4.362493E-1,4.955E2,2.25E0,1.7166668E1,2.8598285E-1,-7.224821E-2,1.2379644E-3,-1.6807567E-1],"split_indices":[29,0,25,38,52,0,0,0,0],"split_type":[0,0,0,0,0,0,0,0,0],"sum_hessian":[2.2720908E3,5.922416E0,2.2661685E3,8.826535E1,2.177903E3,5.0202393E1,3.806296E1,2.1022173E3,7.568575E1],"tree_param":{"num_deleted":"0","num_feature":"56","num_nodes":"9","size_leaf_vector":"0"}},{"base_weights":[-2.0524126E-2,-2.7697258E-2,9.638688E-1,-3.339578E-2,1.1055851E0,1.2596695E0,-8.6835897E-1,-2.6241258E-2,-1.1882563E0,-7.6406944E-1,1.4830698E0],"categories":[],"categories_nodes":[],"categories_segments":[],"categories_sizes":[],"default_left":[1,1,1,1,0,1,0,0,0,0,0],"id":53,"left_children":[1,3,5,7,-1,9,-1,-1,-1,-1,-1],"loss_changes":[1.6046453E1,1.4588602E1,1.0003957E1,1.8501259E1,0E0,7.7171307E0,0E0,0E0,0E0,0E0,0E0],"parents":[2147483647,0,0,1,1,2,2,3,3,5,5],"right_children":[2,4,6,8,-1,10,-1,-1,-1,-1,-1],"split_conditions":[1.0005E3,1.1765E3,6.1995E0,9.81E2,3.3167553E-1,4.2E2,-2.605077E-1,-7.8723775E-3,-3.564769E-1,-2.2922084E-1,4.4492096E-1],"split_indices":[27,28,3,28,0,12,0,0,0,0,0],"split_type":[0,0,0,0,0,0,0,0,0,0,0],"sum_hessian":[2.2677078E3,2.2522678E3,1.5440094E1,2.2419648E3,1.03028145E1,1.3562942E1,1.8771523E0,2.2291775E3,1.2787342E1,1.1077619E0,1.2455179E1],"tree_param":{"num_deleted":"0","num_feature":"56","num_nodes":"11","size_leaf_vector":"0"}},{"base_weights":[3.8854908E-3,3.6849028E-1,-1.997037E-2,1.6825779E-1,1.1924406E0,-1.893046E0,-1.3184616E-2,7.478665E-1,-4.7848326E-1,-1.1851536E0,1.4875616E0,-3.4106147E-2,3.730949E-1],"categories":[],"categories_nodes":[],"categories_segments":[],"categories_sizes":[],"default_left":[1,1,1,1,1,0,1,0,0,0,0,0,0],"id":54,"left_children":[1,3,5,7,9,-1,11,-1,-1,-1,-1,-1,-1],"loss_changes":[1.9751148E1,2.2806198E1,2.706667E1,4.2848557E1,2.0777752E1,0E0,1.718438E1,0E0,0E0,0E0,0E0,0E0,0E0],"parents":[2147483647,0,0,1,1,2,2,3,3,4,4,6,6],"right_children":[2,4,6,8,10,-1,12,-1,-1,-1,-1,-1,-1],"split_conditions":[3.95E1,3.377625E1,1.25E0,6.85E1,8.35E1,-5.6791383E-1,7.75E1,2.2435996E-1,-1.4354499E-1,-3.555461E-1,4.462685E-1,-1.0231844E-2,1.1192847E-1],"split_indices":[36,4,38,33,33,0,42,0,0,0,0,0,0],"split_type":[0,0,0,0,0,0,0,0,0,0,0,0,0],"sum_hessian":[2.268933E3,1.3845088E2,2.1304822E3,1.12351875E2,2.6099005E1,6.687018E0,2.1237952E3,5.9168636E1,5.318324E1,2.5488422E0,2.3550163E1,2.0155419E3,1.08253334E2],"tree_param":{"num_deleted":"0","num_feature":"56","num_nodes":"13","size_leaf_vector":"0"}},{"base_weights":[3.0370604E-3,-1.4578851E-2,4.270749E-1,7.844719E-3,-4.8624915E-1,-1.297694E0,6.227916E-1,-3.7924722E-1,3.4495298E-2,-1.1572269E0,6.581231E-2,1.5896578E0,3.4214804E-1],"categories":[],"categories_nodes":[],"categories_segments":[],"categories_sizes":[],"default_left":[1,1,1,1,1,0,1,0,0,0,0,0,0],"id":55,"left_children":[1,3,5,7,9,-1,11,-1,-1,-1,-1,-1,-1],"loss_changes":[1.6867247E1,2.2935383E1,3.1211103E1,2.1375328E1,3.6530693E1,0E0,2.158759E1,0E0,0E0,0E0,0E0,0E0,0E0],"parents":[2147483647,0,0,1,1,2,2,3,3,4,4,6,6],"right_children":[2,4,6,8,10,-1,12,-1,-1,-1,-1,-1,-1],"split_conditions":[9.45E1,8.75E1,1.0875E2,1.35E1,1.5833334E1,-3.893082E-1,1E0,-1.1377417E-1,1.034859E-2,-3.471681E-1,1.9743694E-2,4.7689736E-1,1.0264441E-1],"split_indices":[33,33,49,15,52,0,15,0,0,0,0,0,0],"split_type":[0,0,0,0,0,0,0,0,0,0,0,0,0],"sum_hessian":[2.256221E3,2.167156E3,8.906509E1,2.0697422E3,9.741377E1,8.502819E0,8.056226E1,1.32467E2,1.9372751E3,4.3476303E1,5.3937473E1,1.7074228E1,6.3488037E1],"tree_param":{"num_deleted":"0","num_feature":"56","num_nodes":"13","size_leaf_vector":"0"}},{"base_weights":[5.490657E-3,2.541104E-1,-2.4571393E-2,-7.996068E-2,8.704884E-1,-1.0181168E0,3.0656427E-3,1.7458522E-1,-1.175568E0,-1.2832365E0,1.0467542E0,1.0543226E0,-1.1954519E0,-7.385763E-2,1.2237228E-1],"categories":[],"categories_nodes":[],"categories_segments":[],"categories_sizes":[],"default_left":[1,1,1,1,1,1,1,0,0,0,0,0,0,0,0],"id":56,"left_children":[1,3,5,7,9,11,13,-1,-1,-1,-1,-1,-1,-1,-1],"loss_changes":[1.6598347E1,4.93987E1,5.4409946E1,4.378744E1,3.334097E1,2.0969326E1,1.7710352E1,0E0,0E0,0E0,0E0,0E0,0E0,0E0,0E0],"parents":[2147483647,0,0,1,1,2,2,3,3,4,4,5,5,6,6],"right_children":[2,4,6,8,10,12,14,-1,-1,-1,-1,-1,-1,-1,-1],"split_conditions":[4.825E1,7.285E2,5.175E1,6.47E2,9.3E1,-5.4E1,5E-1,5.237557E-2,-3.526704E-1,-3.8497096E-1,3.140263E-1,3.162968E-1,-3.5863557E-1,-2.215729E-2,3.6711685E-2],"split_indices":[46,23,46,23,7,16,1,0,0,0,0,0,0,0,0],"split_type":[0,0,0,0,0,0,0,0,0,0,0,0,0,0,0],"sum_hessian":[2.218971E3,2.3856158E2,1.9804094E3,1.5527452E2,8.3287056E1,5.2627388E1,1.927782E3,1.266826E2,2.859192E1,5.8256416E0,7.746141E1,3.7584634E0,4.8868923E1,1.1723118E3,7.554702E2],"tree_param":{"num_deleted":"0","num_feature":"56","num_nodes":"15","size_leaf_vector":"0"}},{"base_weights":[-2.992607E-3,-1.6216107E-2,5.265696E-1,6.046043E-2,-9.931678E-2,2.742898E-2,7.519014E-1,-8.935519E-2,2.0720886E-1,-6.998784E-2,-1.4405471E0,8.64957E-1,-1.301149E0,9.738707E-1,2.789762E-1],"categories":[],"categories_nodes":[],"categories_segments":[],"categories_sizes":[],"default_left":[1,1,1,1,1,1,1,0,0,0,0,0,0,0,0],"id":57,"left_children":[1,3,5,7,9,11,13,-1,-1,-1,-1,-1,-1,-1,-1],"loss_changes":[1.5537359E1,1.3797946E1,6.0590277E0,2.4782377E1,4.077476E1,2.0987976E1,3.6338196E0,0E0,0E0,0E0,0E0,0E0,0E0,0E0,0E0],"parents":[2147483647,0,0,1,1,2,2,3,3,4,4,5,5,6,6],"right_children":[2,4,6,8,10,12,14,-1,-1,-1,-1,-1,-1,-1,-1],"split_conditions":[1.31E2,5.35E1,6.35E1,4.275E2,4.75E2,5.55E1,1.39E2,-2.680656E-2,6.216266E-2,-2.0996353E-2,-4.3216416E-1,2.594871E-1,-3.903447E-1,2.9216123E-1,8.369286E-2],"split_indices":[11,15,42,13,12,36,11,0,0,0,0,0,0,0,0],"split_type":[0,0,0,0,0,0,0,0,0,0,0,0,0,0,0],"sum_hessian":[2.2165583E3,2.1635037E3,5.305466E1,1.1253873E3,1.0381163E3,1.6850418E1,3.6204243E1,5.5706757E2,5.6831976E2,1.016931E3,2.1185246E1,1.0549214E1,6.301204E0,2.3918673E1,1.2285572E1],"tree_param":{"num_deleted":"0","num_feature":"56","num_nodes":"15","size_leaf_vector":"0"}},{"base_weights":[-7.616638E-3,1.5408555E-2,-3.2288194E-1,1.903327E-1,-2.5063531E-2,-5.214286E-1,7.376011E-1,-7.0792925E-1,2.6563892E-1,1.353842E-2,-3.9204457E-1,-6.778113E-1,7.765984E-1,9.0026414E-1,-1.0215709E0],"categories":[],"categories_nodes":[],"categories_segments":[],"categories_sizes":[],"default_left":[1,1,1,1,1,1,1,0,0,0,0,0,0,0,0],"id":58,"left_children":[1,3,5,7,9,11,13,-1,-1,-1,-1,-1,-1,-1,-1],"loss_changes":[1.5948928E1,1.4502857E1,3.1871403E1,2.6224876E1,2.3577534E1,2.6213654E1,7.7863626E0,0E0,0E0,0E0,0E0,0E0,0E0,0E0,0E0],"parents":[2147483647,0,0,1,1,2,2,3,3,4,4,5,5,6,6],"right_children":[2,4,6,8,10,12,14,-1,-1,-1,-1,-1,-1,-1,-1],"split_conditions":[8.05E1,9.166666E0,6.45E1,4.65E1,9.66E2,9.15E1,6.735E2,-2.1237879E-1,7.969168E-2,4.061526E-3,-1.17613375E-1,-2.033434E-1,2.3297952E-1,2.7007926E-1,-3.064713E-1],"split_indices":[36,45,40,36,18,17,28,0,0,0,0,0,0,0,0],"split_type":[0,0,0,0,0,0,0,0,0,0,0,0,0,0,0],"sum_hessian":[2.1954258E3,2.046884E3,1.485417E2,3.8390555E2,1.6629785E3,1.25545105E2,2.2996597E1,2.9045576E1,3.5485995E2,1.5055736E3,1.5740495E2,1.12472534E2,1.3072569E1,2.1497099E1,1.499498E0],"tree_param":{"num_deleted":"0","num_feature":"56","num_nodes":"15","size_leaf_vector":"0"}},{"base_weights":[-2.3222747E-3,-5.078941E-2,1.8435618E-1,-1.2648097E-1,1.4977814E-1,-1.0165175E0,2.524805E-1,-8.4168024E-2,-1.2515632E0,2.153818E-1,-7.800619E-1,-1.8178484E0,1.4906524E-1,4.5052662E-1,-6.6451095E-2],"categories":[],"categories_nodes":[],"categories_segments":[],"categories_sizes":[],"default_left":[1,1,1,1,1,1,1,0,0,0,0,0,0,0,0],"id":59,"left_children":[1,3,5,7,9,11,13,-1,-1,-1,-1,-1,-1,-1,-1],"loss_changes":[1.9892532E1,2.6516438E1,3.7329952E1,6.0245586E1,2.9367775E1,2.317941E1,2.71676E1,0E0,0E0,0E0,0E0,0E0,0E0,0E0,0E0],"parents":[2147483647,0,0,1,1,2,2,3,3,4,4,5,5,6,6],"right_children":[2,4,6,8,10,12,14,-1,-1,-1,-1,-1,-1,-1,-1],"split_conditions":[7.15E1,1.5075E2,6.62E2,1.4825E2,1.7625E2,8.55E1,1.2225E2,-2.5250409E-2,-3.7546897E-1,6.461454E-2,-2.3401858E-1,-5.4535455E-1,4.4719573E-2,1.3515799E-1,-1.9935329E-2],"split_indices":[5,47,19,47,47,46,49,0,0,0,0,0,0,0,0],"split_type":[0,0,0,0,0,0,0,0,0,0,0,0,0,0,0],"sum_hessian":[2.1965771E3,1.7444065E3,4.5217053E2,1.266729E3,4.7767752E2,2.3526772E1,4.2864377E2,1.2218516E3,4.4877514E1,4.4691443E2,3.0763098E1,1.3610222E1,9.916549E0,2.6418246E2,1.6446129E2],"tree_param":{"num_deleted":"0","num_feature":"56","num_nodes":"15","size_leaf_vector":"0"}},{"base_weights":[-1.1493917E-2,-3.5086077E-2,2.3537596E-1,-4.7259326E-3,-3.839244E-1,8.0744934E-1,-5.65637E-2,-8.2668014E-2,1.7244858E-1,-7.6623476E-1,2.1596955E-1,-1.3598317E0,9.394513E-1,-1.7213345E0,6.34173E-2],"categories":[],"categories_nodes":[],"categories_segments":[],"categories_sizes":[],"default_left":[1,1,1,1,1,1,1,0,0,0,0,0,0,0,0],"id":60,"left_children":[1,3,5,7,9,11,13,-1,-1,-1,-1,-1,-1,-1,-1],"loss_changes":[1.2667658E1,2.1019388E1,3.1732634E1,2.5243319E1,3.6609253E1,1.9636433E1,2.5387764E1,0E0,0E0,0E0,0E0,0E0,0E0,0E0,0E0],"parents":[2147483647,0,0,1,1,2,2,3,3,4,4,5,5,6,6],"right_children":[2,4,6,8,10,12,14,-1,-1,-1,-1,-1,-1,-1,-1],"split_conditions":[1.0395E3,8.115E2,9.025E1,2.8718899E1,1.07E2,5.195E2,3.75E1,-2.4800405E-2,5.1734574E-2,-2.2987044E-1,6.479087E-2,-4.0794954E-1,2.818354E-1,-5.1640034E-1,1.9025192E-2],"split_indices":[20,24,51,4,7,26,30,0,0,0,0,0,0,0,0],"split_type":[0,0,0,0,0,0,0,0,0,0,0,0,0,0,0],"sum_hessian":[2.1725884E3,1.9838585E3,1.887299E2,1.8259552E3,1.5790324E2,6.3172924E1,1.2555697E2,1.268468E3,5.5748724E2,9.627209E1,6.1631157E1,3.0927556E0,6.008017E1,7.543401E0,1.1801357E2],"tree_param":{"num_deleted":"0","num_feature":"56","num_nodes":"15","size_leaf_vector":"0"}},{"base_weights":[8.2518766E-4,-1.5202152E-2,3.723868E-1,6.0648482E-2,-1.5908805E-1,5.4170245E-1,-1.0501801E0,-3.3576038E-2,1.9147119E-1,-8.954001E-1,-8.066372E-2,3.4333745E-1,1.3452287E0,4.2897776E-1,-1.4742296E0],"categories":[],"categories_nodes":[],"categories_segments":[],"categories_sizes":[],"default_left":[1,1,1,1,1,1,1,0,0,0,0,0,0,0,0],"id":61,"left_children":[1,3,5,7,9,11,13,-1,-1,-1,-1,-1,-1,-1,-1],"loss_changes":[1.2972275E1,2.280105E1,2.226506E1,1.6871435E1,4.1569576E1,1.2473684E1,6.8552475E0,0E0,0E0,0E0,0E0,0E0,0E0,0E0,0E0],"parents":[2147483647,0,0,1,1,2,2,3,3,4,4,5,5,6,6],"right_children":[2,4,6,8,10,12,14,-1,-1,-1,-1,-1,-1,-1,-1],"split_conditions":[1.785E2,1.3583334E1,1.065E3,6.995E2,6.45E1,1.048E3,1.3E1,-1.00728115E-2,5.7441358E-2,-2.6862004E-1,-2.4199117E-2,1.0300124E-1,4.0356863E-1,1.2869333E-1,-4.4226888E-1],"split_indices":[55,52,14,23,37,14,44,0,0,0,0,0,0,0,0],"split_type":[0,0,0,0,0,0,0,0,0,0,0,0,0,0,0],"sum_hessian":[2.1763804E3,2.0873035E3,8.9076904E1,1.367168E3,7.201354E2,8.015587E1,8.921041E0,7.9518365E2,5.719844E2,6.831554E1,6.518198E2,6.543046E1,1.4725405E1,1.985088E0,6.935952E0],"tree_param":{"num_deleted":"0","num_feature":"56","num_nodes":"15","size_leaf_vector":"0"}},{"base_weights":[9.378197E-5,1.8669705E-1,-3.8177453E-2,-4.9742544E-1,2.9275653E-1,-2.8419524E-2,-1.4867157E0,1.234427E0,-1.0525094E0,-1.1572497E0,3.493872E-1,-1.3223892E0,-1.7481094E-2],"categories":[],"categories_nodes":[],"categories_segments":[],"categories_sizes":[],"default_left":[1,1,1,1,1,1,0,0,0,0,0,0,0],"id":62,"left_children":[1,3,5,7,9,11,-1,-1,-1,-1,-1,-1,-1],"loss_changes":[1.538057E1,2.674039E1,2.521859E1,4.8949272E1,2.6514027E1,2.5117327E1,0E0,0E0,0E0,0E0,0E0,0E0,0E0],"parents":[2147483647,0,0,1,1,2,2,3,3,4,4,5,5],"right_children":[2,4,6,8,10,12,-1,-1,-1,-1,-1,-1,-1],"split_conditions":[4.045E2,2.22563E1,1.315E3,4.35E1,5.385E2,3.75E2,-4.4601473E-1,3.703281E-1,-3.1575283E-1,-3.471749E-1,1.0481616E-1,-3.967168E-1,-5.2443286E-3],"split_indices":[13,4,8,43,24,29,0,0,0,0,0,0,0],"split_type":[0,0,0,0,0,0,0,0,0,0,0,0,0],"sum_hessian":[2.1516797E3,3.655328E2,1.7861469E3,4.8567104E1,3.169657E2,1.775208E3,1.0938885E1,1.1491127E1,3.7075977E1,1.1183425E1,3.057823E2,1.3875719E1,1.7613323E3],"tree_param":{"num_deleted":"0","num_feature":"56","num_nodes":"13","size_leaf_vector":"0"}},{"base_weights":[-2.2361053E-3,1.6587211E-1,-3.9473828E-2,2.2736104E-1,-8.603981E-1,7.400615E-2,-1.3506642E-1,-1.438571E0,2.580655E-1,-1.4073323E0,1.0152318E0,-5.1053536E-1,1.4305496E-1,-9.184721E-2,-7.93975E-1],"categories":[],"categories_nodes":[],"categories_segments":[],"categories_sizes":[],"default_left":[1,1,1,1,1,1,1,0,0,0,0,0,0,0,0],"id":63,"left_children":[1,3,5,7,9,11,13,-1,-1,-1,-1,-1,-1,-1,-1],"loss_changes":[1.3489227E1,2.4854507E1,1.9145918E1,1.927001E1,2.4303255E1,3.2653133E1,2.7203703E1,0E0,0E0,0E0,0E0,0E0,0E0,0E0,0E0],"parents":[2147483647,0,0,1,1,2,2,3,3,4,4,5,5,6,6],"right_children":[2,4,6,8,10,12,14,-1,-1,-1,-1,-1,-1,-1,-1],"split_conditions":[4.7215004E0,8.19E2,1.55E2,3.71E2,4.7065E0,5.525E2,1.6166668E1,-4.315713E-1,7.741965E-2,-4.221997E-1,3.0456957E-1,-1.5316062E-1,4.291649E-2,-2.7554164E-2,-2.3819251E-1],"split_indices":[3,22,9,12,3,22,52,0,0,0,0,0,0,0,0],"split_type":[0,0,0,0,0,0,0,0,0,0,0,0,0,0,0],"sum_hessian":[2.1527942E3,3.8976428E2,1.7630298E3,3.6846613E2,2.129817E1,8.061994E2,9.568304E2,5.8384256E0,3.626277E2,1.668306E1,4.61511E0,8.449578E1,7.217037E2,8.990023E2,5.7828083E1],"tree_param":{"num_deleted":"0","num_feature":"56","num_nodes":"15","size_leaf_vector":"0"}},{"base_weights":[-2.268431E-3,2.0821327E-1,-4.388241E-2,-1.2615604E0,2.753223E-1,-5.959307E-1,-1.5352137E-2,5.2871215E-1,-5.950993E-3,-1.2802641E0,-2.7595085E-1,-4.2794812E-3,-1.2900283E0],"categories":[],"categories_nodes":[],"categories_segments":[],"categories_sizes":[],"default_left":[1,1,1,0,1,1,1,0,0,0,0,0,0],"id":64,"left_children":[1,3,5,-1,7,9,11,-1,-1,-1,-1,-1,-1],"loss_changes":[1.879499E1,3.5285168E1,2.8207764E1,0E0,2.4204702E1,1.8918913E1,2.4052279E1,0E0,0E0,0E0,0E0,0E0,0E0],"parents":[2147483647,0,0,1,1,2,2,4,4,5,5,6,6],"right_children":[2,4,6,-1,8,10,12,-1,-1,-1,-1,-1,-1],"split_conditions":[5.515E2,4.75E0,4.55E2,-3.7846816E-1,4.13E2,4.11E2,8.15E1,1.5861365E-1,-1.785298E-3,-3.8407925E-1,-8.2785256E-2,-1.2838445E-3,-3.8700852E-1],"split_indices":[23,45,28,0,12,12,16,0,0,0,0,0,0],"split_type":[0,0,0,0,0,0,0,0,0,0,0,0,0],"sum_hessian":[2.1437532E3,3.532131E2,1.79054E3,1.4646095E1,3.3856702E2,8.701182E1,1.7035282E3,1.7764906E2,1.6091794E2,2.6766293E1,6.0245525E1,1.6898524E3,1.3675786E1],"tree_param":{"num_deleted":"0","num_feature":"56","num_nodes":"13","size_leaf_vector":"0"}},{"base_weights":[5.2563683E-4,1.2435871E-1,-5.78508E-2,4.512377E-1,-7.802367E-3,-3.8272822E-1,2.1786312E-2,1.0573281E0,7.365727E-2,-5.5818415E-1,1.14209056E-1,-6.2241244E-1,1.9142747E-1,-1.3076301E-1,1.5212859E-1],"categories":[],"categories_nodes":[],"categories_segments":[],"categories_sizes":[],"default_left":[1,1,1,1,1,1,1,0,0,0,0,0,0,0,0],"id":65,"left_children":[1,3,5,7,9,11,13,-1,-1,-1,-1,-1,-1,-1,-1],"loss_changes":[1.5329426E1,2.9353508E1,3.7295055E1,4.4688805E1,3.261741E1,3.917194E1,2.3053127E1,0E0,0E0,0E0,0E0,0E0,0E0,0E0,0E0],"parents":[2147483647,0,0,1,1,2,2,3,3,4,4,5,5,6,6],"right_children":[2,4,6,8,10,12,14,-1,-1,-1,-1,-1,-1,-1,-1],"split_conditions":[4.35E1,5.65E1,4.85E1,8.9E1,1.0025E2,9.17E2,6.95E1,3.1719846E-1,2.2097182E-2,-1.6745526E-1,3.4262717E-2,-1.8672374E-1,5.7428245E-2,-3.9228905E-2,4.563858E-2],"split_indices":[42,36,42,7,54,21,36,0,0,0,0,0,0,0,0],"split_type":[0,0,0,0,0,0,0,0,0,0,0,0,0,0,0],"sum_hessian":[2.11857E3,6.7838715E2,1.4401829E3,1.9461765E2,4.8376947E2,2.8278073E2,1.1574021E3,7.401263E1,1.2060502E2,8.713537E1,3.966341E2,1.9943959E2,8.334113E1,5.332714E2,6.241307E2],"tree_param":{"num_deleted":"0","num_feature":"56","num_nodes":"15","size_leaf_vector":"0"}},{"base_weights":[3.7479356E-3,1.8027945E-1,-4.4788E-2,2.9634643E-1,-4.6345815E-1,2.3929465E-1,-1.070857E-1,5.3772134E-1,-8.094322E-2,2.4544938E-1,-1.2763044E0,-1.514879E0,3.118123E-1,-2.1766269E-1,1.0663162E-1],"categories":[],"categories_nodes":[],"categories_segments":[],"categories_sizes":[],"default_left":[1,1,1,1,1,1,1,0,0,0,0,0,0,0,0],"id":66,"left_children":[1,3,5,7,9,11,13,-1,-1,-1,-1,-1,-1,-1,-1],"loss_changes":[1.8141916E1,3.425364E1,2.941836E1,3.532952E1,4.073088E1,3.850949E1,3.2229412E1,0E0,0E0,0E0,0E0,0E0,0E0,0E0,0E0],"parents":[2147483647,0,0,1,1,2,2,3,3,4,4,5,5,6,6],"right_children":[2,4,6,8,10,12,14,-1,-1,-1,-1,-1,-1,-1,-1],"split_conditions":[5.825E2,7.95E2,3.85E1,3.95E1,5.05E2,5.735E2,4.85E1,1.6131641E-1,-2.4282968E-2,7.363482E-2,-3.8289133E-1,-4.5446372E-1,9.354369E-2,-6.529881E-2,3.198949E-2],"split_indices":[24,19,30,17,26,25,30,0,0,0,0,0,0,0,0],"split_type":[0,0,0,0,0,0,0,0,0,0,0,0,0,0,0],"sum_hessian":[2.1154316E3,4.5560876E2,1.6598228E3,3.8646762E2,6.914113E1,2.9801385E2,1.361809E3,2.3542615E2,1.5104149E2,3.7304657E1,3.183647E1,1.1041225E1,2.8697263E2,8.974508E2,4.6435806E2],"tree_param":{"num_deleted":"0","num_feature":"56","num_nodes":"15","size_leaf_vector":"0"}},{"base_weights":[-1.2705783E-2,-7.513334E-1,-4.3744044E-3,1.2868541E-1,-1.3578604E0,4.0707242E-1,-2.2144116E-2,-1.1102514E0,8.610924E-1,6.970571E-1,-1.1816072E0,3.3947688E-2,-1.8790466E-1],"categories":[],"categories_nodes":[],"categories_segments":[],"categories_sizes":[],"default_left":[1,1,1,1,0,1,1,0,0,0,0,0,0],"id":67,"left_children":[1,3,5,7,-1,9,11,-1,-1,-1,-1,-1,-1],"loss_changes":[1.2883032E1,1.2638229E1,1.515579E1,1.0430008E1,0E0,4.0360554E1,1.8479967E1,0E0,0E0,0E0,0E0,0E0,0E0],"parents":[2147483647,0,0,1,1,2,2,3,3,5,5,6,6],"right_children":[2,4,6,8,-1,10,12,-1,-1,-1,-1,-1,-1],"split_conditions":[1.17E2,1.75E1,1.25E2,7.09E2,-4.0735814E-1,7.225E-1,1.4416666E1,-3.3307543E-1,2.5832772E-1,2.0911714E-1,-3.5448217E-1,1.0184307E-2,-5.63714E-2],"split_indices":[9,17,9,24,0,50,52,0,0,0,0,0,0],"split_type":[0,0,0,0,0,0,0,0,0,0,0,0,0],"sum_hessian":[2.093047E3,2.235058E1,2.0706965E3,9.440726E0,1.2909853E1,8.482054E1,1.985876E3,3.315814E0,6.1249123E0,7.2202515E1,1.2618027E1,1.4843732E3,5.0150272E2],"tree_param":{"num_deleted":"0","num_feature":"56","num_nodes":"13","size_leaf_vector":"0"}},{"base_weights":[-1.6023418E-2,-9.94479E-2,5.9470568E-2,-1.8093915E-1,2.8526726E-1,2.585008E-1,-6.391448E-2,-3.9779982E-1,9.995128E-3,-4.7803798E-1,5.148521E-1,6.058176E-1,1.0529553E-1,-1.2203343E-1,6.078795E-1],"categories":[],"categories_nodes":[],"categories_segments":[],"categories_sizes":[],"default_left":[1,1,1,1,1,1,1,0,0,0,0,0,0,0,0],"id":68,"left_children":[1,3,5,7,9,11,13,-1,-1,-1,-1,-1,-1,-1,-1],"loss_changes":[1.3170429E1,3.1193933E1,2.6978226E1,3.3970444E1,3.074223E1,2.2303688E1,2.6567514E1,0E0,0E0,0E0,0E0,0E0,0E0,0E0,0E0],"parents":[2147483647,0,0,1,1,2,2,3,3,4,4,5,5,6,6],"right_children":[2,4,6,8,10,12,14,-1,-1,-1,-1,-1,-1,-1,-1],"split_conditions":[4.45E1,1.1625E3,7.9E1,7.95E2,6.15E1,1.2835E0,3.725E1,-1.1933995E-1,2.9985385E-3,-1.434114E-1,1.5445563E-1,1.8174529E-1,3.1588662E-2,-3.661003E-2,1.8236387E-1],"split_indices":[30,8,11,21,5,2,44,0,0,0,0,0,0,0,0],"split_type":[0,0,0,0,0,0,0,0,0,0,0,0,0,0,0],"sum_hessian":[2.0892537E3,9.923461E2,1.0969075E3,8.193246E2,1.7302156E2,4.1935626E2,6.775513E2,3.8310992E2,4.3621466E2,3.975734E1,1.3326422E2,1.27456856E2,2.9189938E2,6.2435474E2,5.31965E1],"tree_param":{"num_deleted":"0","num_feature":"56","num_nodes":"15","size_leaf_vector":"0"}},{"base_weights":[1.6489642E-2,-1.0311931E-1,9.5640056E-2,-3.9407387E-1,3.660028E-2,3.0346796E-1,-4.0968027E-2,-2.4977794E-1,-1.2809552E0,-5.847952E-2,5.914513E-1,2.0973422E-1,8.3986986E-1,3.239239E-2,-6.247863E-1],"categories":[],"categories_nodes":[],"categories_segments":[],"categories_sizes":[],"default_left":[1,1,1,1,1,1,1,0,0,0,0,0,0,0,0],"id":69,"left_children":[1,3,5,7,9,11,13,-1,-1,-1,-1,-1,-1,-1,-1],"loss_changes":[1.9506815E1,3.3373394E1,3.521286E1,3.3759834E1,2.9329176E1,2.4554005E1,3.2098713E1,0E0,0E0,0E0,0E0,0E0,0E0,0E0,0E0],"parents":[2147483647,0,0,1,1,2,2,3,3,4,4,5,5,6,6],"right_children":[2,4,6,8,10,12,14,-1,-1,-1,-1,-1,-1,-1,-1],"split_conditions":[2.05E1,1.3885E0,1.4105E0,1.3364999E0,1.0245E3,9.5E1,9.27E2,-7.493339E-2,-3.8428658E-1,-1.7543858E-2,1.774354E-1,6.2920265E-2,2.5196096E-1,9.717718E-3,-1.874359E-1],"split_indices":[16,2,2,2,19,11,19,0,0,0,0,0,0,0,0],"split_type":[0,0,0,0,0,0,0,0,0,0,0,0,0,0,0],"sum_hessian":[2.0584434E3,8.195975E2,1.2388458E3,2.6530377E2,5.542937E2,4.90859E2,7.479869E2,2.2928125E2,3.6022507E1,4.739686E2,8.032511E1,4.1902698E2,7.1832016E1,6.653287E2,8.2658195E1],"tree_param":{"num_deleted":"0","num_feature":"56","num_nodes":"15","size_leaf_vector":"0"}},{"base_weights":[6.6196886E-3,-4.2598855E-2,1.2850043E-1,2.278953E-2,-2.9539287E-1,-1.2895571E-2,4.9980643E-1,2.3727232E-1,-1.0021404E-1,2.4535988E-1,-4.8584655E-1,5.395916E-1,-1.3953955E-1,-9.285323E-1,6.444366E-1],"categories":[],"categories_nodes":[],"categories_segments":[],"categories_sizes":[],"default_left":[1,1,1,1,1,1,1,0,0,0,0,0,0,0,0],"id":70,"left_children":[1,3,5,7,9,11,13,-1,-1,-1,-1,-1,-1,-1,-1],"loss_changes":[1.2271284E1,2.409528E1,3.089986E1,3.0593542E1,3.096952E1,2.9960955E1,3.4127815E1,0E0,0E0,0E0,0E0,0E0,0E0,0E0,0E0],"parents":[2147483647,0,0,1,1,2,2,3,3,4,4,5,5,6,6],"right_children":[2,4,6,8,10,12,14,-1,-1,-1,-1,-1,-1,-1,-1],"split_conditions":[5.55E1,4.55E1,7.55E1,2.4925499E1,2.231625E1,1.0583334E1,2.22182E1,7.11817E-2,-3.0064214E-2,7.360797E-2,-1.4575396E-1,1.6187748E-1,-4.186187E-2,-2.785597E-1,1.9333099E-1],"split_indices":[17,17,48,4,4,52,4,0,0,0,0,0,0,0,0],"split_type":[0,0,0,0,0,0,0,0,0,0,0,0,0,0,0],"sum_hessian":[2.0437133E3,1.4562806E3,5.874327E2,1.1577291E3,2.9855148E2,4.2612607E2,1.613066E2,4.2161865E2,7.361105E2,7.7687126E1,2.2086436E2,7.885568E1,3.472704E2,1.433334E1,1.4697327E2],"tree_param":{"num_deleted":"0","num_feature":"56","num_nodes":"15","size_leaf_vector":"0"}},{"base_weights":[4.3503803E-4,5.068149E-1,-1.1689947E-2,6.8156445E-1,-1.3387097E0,2.2972687E-1,-3.875042E-2,9.882663E-1,-3.1537792E-1,-5.12819E-1,4.2191103E-1,-3.0289762E-2,-1.3830895E0],"categories":[],"categories_nodes":[],"categories_segments":[],"categories_sizes":[],"default_left":[1,1,1,1,0,1,1,0,0,0,0,0,0],"id":71,"left_children":[1,3,5,7,-1,9,11,-1,-1,-1,-1,-1,-1],"loss_changes":[1.2447769E1,1.6202082E1,1.2943951E1,1.3756424E1,0E0,2.871656E1,2.0218449E1,0E0,0E0,0E0,0E0,0E0,0E0],"parents":[2147483647,0,0,1,1,2,2,3,3,5,5,6,6],"right_children":[2,4,6,8,-1,10,12,-1,-1,-1,-1,-1,-1],"split_conditions":[-2.25E1,7.65E1,3.05E0,1.4890001E0,-4.0161294E-1,3.55E1,8.592E0,2.964799E-1,-9.461338E-2,-1.538457E-1,1.2657331E-1,-9.086929E-3,-4.149269E-1],"split_indices":[17,48,39,2,0,17,3,0,0,0,0,0,0],"split_type":[0,0,0,0,0,0,0,0,0,0,0,0,0],"sum_hessian":[2.025409E3,4.6409138E1,1.9789999E3,4.297098E1,3.4381547E0,1.9871329E2,1.7802866E3,3.286807E1,1.0102913E1,4.051321E1,1.5820009E2,1.7701685E3,1.0118104E1],"tree_param":{"num_deleted":"0","num_feature":"56","num_nodes":"13","size_leaf_vector":"0"}},{"base_weights":[1.17644835E-2,-9.39409E-1,1.8302716E-2,7.392128E-1,-1.2705506E0,-2.8258601E-2,1.5636021E-1,8.132154E-2,-1.4611673E-1,2.1491162E-1,-1.0863187E0],"categories":[],"categories_nodes":[],"categories_segments":[],"categories_sizes":[],"default_left":[1,1,1,0,0,1,1,0,0,0,0],"id":72,"left_children":[1,3,5,-1,-1,7,9,-1,-1,-1,-1],"loss_changes":[1.2561789E1,8.604538E0,1.2888672E1,0E0,0E0,1.9380331E1,3.7025265E1,0E0,0E0,0E0,0E0],"parents":[2147483647,0,0,1,1,2,2,5,5,6,6],"right_children":[2,4,6,-1,-1,8,10,-1,-1,-1,-1],"split_conditions":[1.87692E1,1.59755E1,2.75E0,2.2176385E-1,-3.811652E-1,3.85E0,7.351E0,2.4396462E-2,-4.383502E-2,6.447349E-2,-3.2589564E-1],"split_indices":[4,4,38,0,0,39,3,0,0,0,0],"split_type":[0,0,0,0,0,0,0,0,0,0,0],"sum_hessian":[2.0161422E3,1.2790004E1,2.0033522E3,1.9043193E0,1.0885685E1,1.4986967E3,5.046556E2,7.767828E2,7.219138E2,4.8273746E2,2.1918125E1],"tree_param":{"num_deleted":"0","num_feature":"56","num_nodes":"11","size_leaf_vector":"0"}},{"base_weights":[-5.691573E-3,6.7273486E-1,-1.4850114E-2,7.779802E-1,-8.343045E-1,4.412004E-2,-1.3228942E-1,-2.6171747E-1,8.891861E-1,-1.2802218E-1,1.3657221E-1,2.8752893E-1,-2.1745168E-1],"categories":[],"categories_nodes":[],"categories_segments":[],"categories_sizes":[],"default_left":[1,1,1,1,0,1,1,0,0,0,0,0,0],"id":73,"left_children":[1,3,5,7,-1,9,11,-1,-1,-1,-1,-1,-1],"loss_changes":[1.2478345E1,4.8919277E0,1.3724657E1,3.183546E0,0E0,2.1017233E1,2.374646E1,0E0,0E0,0E0,0E0,0E0,0E0],"parents":[2147483647,0,0,1,1,2,2,3,3,5,5,6,6],"right_children":[2,4,6,8,-1,10,12,-1,-1,-1,-1,-1,-1],"split_conditions":[3.23228E0,5.65E1,1.0158333E2,7.7E1,-2.5029138E-1,9.5E0,6.75E1,-7.851525E-2,2.6675585E-1,-3.8406655E-2,4.0971667E-2,8.625868E-2,-6.52355E-2],"split_indices":[34,16,51,11,0,10,48,0,0,0,0,0,0],"split_type":[0,0,0,0,0,0,0,0,0,0,0,0,0],"sum_hessian":[2.0056892E3,2.575043E1,1.9799387E3,2.4521706E1,1.228725E0,1.3185005E3,6.6143823E2,2.2386281E0,2.2283077E1,4.6056406E2,8.5793646E2,1.1114723E2,5.50291E2],"tree_param":{"num_deleted":"0","num_feature":"56","num_nodes":"13","size_leaf_vector":"0"}},{"base_weights":[-5.064172E-3,2.5144863E-1,-3.2458868E-2,-8.772684E-1,3.778813E-1,-5.2650803E-1,-1.2759555E-2,1.4162351E-1,-1.2174544E0,-9.073177E-2,5.92046E-1,-1.0022861E0,2.8260982E-1,1.0996853E0,-2.0430164E-2],"categories":[],"categories_nodes":[],"categories_segments":[],"categories_sizes":[],"default_left":[1,1,1,1,1,1,1,0,0,0,0,0,0,0,0],"id":74,"left_children":[1,3,5,7,9,11,13,-1,-1,-1,-1,-1,-1,-1,-1],"loss_changes":[1.4161138E1,2.8081413E1,1.7712189E1,7.066084E0,1.767354E1,2.7147705E1,1.4970975E1,0E0,0E0,0E0,0E0,0E0,0E0,0E0,0E0],"parents":[2147483647,0,0,1,1,2,2,3,3,4,4,5,5,6,6],"right_children":[2,4,6,8,10,12,14,-1,-1,-1,-1,-1,-1,-1,-1],"split_conditions":[4.265E2,8.75E0,5.075E2,4.2415E0,9.275E2,7.925E1,5.095E2,4.2487055E-2,-3.6523634E-1,-2.7219532E-2,1.7761381E-1,-3.0068582E-1,8.478295E-2,3.299056E-1,-6.1290497E-3],"split_indices":[29,45,23,3,8,46,23,0,0,0,0,0,0,0,0],"split_type":[0,0,0,0,0,0,0,0,0,0,0,0,0,0,0],"sum_hessian":[2.0130591E3,1.9345416E2,1.819605E3,1.8888655E1,1.745655E2,6.878494E1,1.75082E3,4.874055E0,1.40146E1,5.4936188E1,1.1962932E2,4.316455E1,2.5620392E1,1.1014793E1,1.7398052E3],"tree_param":{"num_deleted":"0","num_feature":"56","num_nodes":"15","size_leaf_vector":"0"}},{"base_weights":[-3.964698E-3,-2.5260394E-2,2.8580308E-1,-1.0101739E-2,-9.035608E-1,7.4977964E-1,-1.28629E-1,-3.2685458E-4,-1.0889112E0,-1.2558744E0,5.5171555E-1,1.1377321E0,-1.2934365E-2,-4.4472742E-1,7.8593916E-1],"categories":[],"categories_nodes":[],"categories_segments":[],"categories_sizes":[],"default_left":[1,1,1,1,1,1,1,0,0,0,0,0,0,0,0],"id":75,"left_children":[1,3,5,7,9,11,13,-1,-1,-1,-1,-1,-1,-1,-1],"loss_changes":[1.236019E1,2.4830683E1,2.6464552E1,1.9350882E1,1.6916594E1,1.9201782E1,2.1535847E1,0E0,0E0,0E0,0E0,0E0,0E0,0E0,0E0],"parents":[2147483647,0,0,1,1,2,2,3,3,4,4,5,5,6,6],"right_children":[2,4,6,8,10,12,14,-1,-1,-1,-1,-1,-1,-1,-1],"split_conditions":[1.6833332E1,1.6166668E1,1.7166668E1,3.81977E1,1.1E2,1.275E1,3.379205E1,-9.805638E-5,-3.2667336E-1,-3.7676233E-1,1.6551468E-1,3.4131965E-1,-3.8803096E-3,-1.3341823E-1,2.3578176E-1],"split_indices":[52,52,52,4,11,45,4,0,0,0,0,0,0,0,0],"split_type":[0,0,0,0,0,0,0,0,0,0,0,0,0,0,0],"sum_hessian":[2.0008407E3,1.8647115E3,1.3612909E2,1.8340687E3,3.064283E1,6.3843765E1,7.228533E1,1.8185912E3,1.5477603E1,2.4780615E1,5.862215E0,4.199263E1,2.1851135E1,5.4100517E1,1.818481E1],"tree_param":{"num_deleted":"0","num_feature":"56","num_nodes":"15","size_leaf_vector":"0"}},{"base_weights":[5.3852904E-3,9.6567553E-1,-5.330831E-4,3.4148636E-1,1.2136916E0,-3.5862125E-2,1.3674909E-1,9.179473E-1,-8.265315E-1,1.826636E-1,-9.318168E-2,-7.613886E-2,4.1560692E-1],"categories":[],"categories_nodes":[],"categories_segments":[],"categories_sizes":[],"default_left":[1,1,1,1,0,1,1,0,0,0,0,0,0],"id":76,"left_children":[1,3,5,7,-1,9,11,-1,-1,-1,-1,-1,-1],"loss_changes":[1.1358815E1,1.4807425E0,9.643295E0,4.0395503E0,0E0,1.9824385E1,2.419054E1,0E0,0E0,0E0,0E0,0E0,0E0],"parents":[2147483647,0,0,1,1,2,2,3,3,5,5,6,6],"right_children":[2,4,6,8,-1,10,12,-1,-1,-1,-1,-1,-1],"split_conditions":[5.97E2,7.025E-1,7.15E1,1.245E2,3.641075E-1,9.166666E0,1.175E2,2.753842E-1,-2.4795946E-1,5.4799084E-2,-2.7954504E-2,-2.2841658E-2,1.2468208E-1],"split_indices":[14,50,5,55,0,45,41,0,0,0,0,0,0],"split_type":[0,0,0,0,0,0,0,0,0,0,0,0,0],"sum_hessian":[1.9975197E3,1.12422E1,1.9862775E3,3.8726525E0,7.3695474E0,1.5803256E3,4.0595197E2,2.736289E0,1.1363636E0,3.2793097E2,1.2523945E3,2.3061835E2,1.753336E2],"tree_param":{"num_deleted":"0","num_feature":"56","num_nodes":"13","size_leaf_vector":"0"}},{"base_weights":[-9.4567705E-3,1.2713657E-1,-4.654885E-2,-1.3070151E-1,3.0655873E-1,-1.3570121E-1,9.360685E-2,-1.0861447E0,1.0800117E-1,-1.3674439E0,3.3972946E-1,-1.0417573E0,-8.029811E-2,-2.2535163E-1,2.0071031E-1],"categories":[],"categories_nodes":[],"categories_segments":[],"categories_sizes":[],"default_left":[1,1,1,1,1,1,1,0,0,0,0,0,0,0,0],"id":77,"left_children":[1,3,5,7,9,11,13,-1,-1,-1,-1,-1,-1,-1,-1],"loss_changes":[1.0116519E1,1.976794E1,1.9631777E1,4.0184776E1,1.4444056E1,4.8111153E1,2.0919289E1,0E0,0E0,0E0,0E0,0E0,0E0,0E0,0E0],"parents":[2147483647,0,0,1,1,2,2,3,3,4,4,5,5,6,6],"right_children":[2,4,6,8,10,12,14,-1,-1,-1,-1,-1,-1,-1,-1],"split_conditions":[1.95E1,9.725E2,6.55E1,2.5E0,4.215E2,2.55E1,5.45E1,-3.2584342E-1,3.2400355E-2,-4.102332E-1,1.0191884E-1,-3.125272E-1,-2.4089435E-2,-6.7605495E-2,6.0213096E-2],"split_indices":[17,8,37,17,29,17,40,0,0,0,0,0,0,0,0],"split_type":[0,0,0,0,0,0,0,0,0,0,0,0,0,0,0],"sum_hessian":[1.9945667E3,4.2543918E2,1.5691274E3,1.7468301E2,2.5075618E2,9.59088E2,6.100394E2,3.4208435E1,1.4047458E2,4.0906777E0,2.466655E2,5.424057E1,9.048475E2,1.5307419E2,4.569652E2],"tree_param":{"num_deleted":"0","num_feature":"56","num_nodes":"15","size_leaf_vector":"0"}},{"base_weights":[1.3225966E-2,-2.3819985E-2,1.5539037E-1,4.1276764E-2,-4.0567505E-1,4.4336283E-1,-7.6284535E-2,5.2063324E-2,-1.1982583E0,-5.558416E-1,3.1432304E-1,-1.1251645E0,5.1276004E-1,-1.5143843E0,4.891539E-2],"categories":[],"categories_nodes":[],"categories_segments":[],"categories_sizes":[],"default_left":[1,1,1,1,1,1,1,0,0,0,0,0,0,0,0],"id":78,"left_children":[1,3,5,7,9,11,13,-1,-1,-1,-1,-1,-1,-1,-1],"loss_changes":[1.0364441E1,3.8830532E1,2.7173752E1,1.7910944E1,2.4773155E1,2.0334545E1,4.0817226E1,0E0,0E0,0E0,0E0,0E0,0E0,0E0,0E0],"parents":[2147483647,0,0,1,1,2,2,3,3,4,4,5,5,6,6],"right_children":[2,4,6,8,10,12,14,-1,-1,-1,-1,-1,-1,-1,-1],"split_conditions":[1.0841667E2,1.0225E2,6.405E2,3.55E0,6.75E1,9.725E1,1.37E2,1.5618998E-2,-3.594775E-1,-1.6675249E-1,9.429692E-2,-3.3754936E-1,1.5382802E-1,-4.543153E-1,1.4674618E-2],"split_indices":[51,51,23,38,42,54,9,0,0,0,0,0,0,0,0],"split_type":[0,0,0,0,0,0,0,0,0,0,0,0,0,0,0],"sum_hessian":[1.9662482E3,1.5604502E3,4.057979E2,1.3339388E3,2.2651135E2,1.8050992E2,2.2528801E2,1.3233806E3,1.0558194E1,1.8761035E2,3.8901E1,7.0034447E0,1.7350647E2,1.7154009E1,2.08134E2],"tree_param":{"num_deleted":"0","num_feature":"56","num_nodes":"15","size_leaf_vector":"0"}},{"base_weights":[-7.696789E-3,-1.5586091E-2,7.2044E-1,-2.6767695E-2,5.393358E-1,1.0277873E0,-1.0790911E0,-1.4456518E-2,-1.1102457E0,-1.1334585E0,7.363188E-1,1.2191372E0,-8.58668E-1],"categories":[],"categories_nodes":[],"categories_segments":[],"categories_sizes":[],"default_left":[1,1,1,1,1,1,0,0,0,0,0,0,0],"id":79,"left_children":[1,3,5,7,9,11,-1,-1,-1,-1,-1,-1,-1],"loss_changes":[1.117967E1,1.19548025E1,1.2646699E1,2.515821E1,1.3374694E1,7.6633606E0,0E0,0E0,0E0,0E0,0E0,0E0,0E0],"parents":[2147483647,0,0,1,1,2,2,3,3,4,4,5,5],"right_children":[2,4,6,8,10,12,-1,-1,-1,-1,-1,-1,-1],"split_conditions":[9.51E2,1.231E3,1.106E3,9.565E2,7.12E2,2.85E1,-3.2372734E-1,-4.3369555E-3,-3.3307374E-1,-3.4003755E-1,2.2089566E-1,3.6574116E-1,-2.5760043E-1],"split_indices":[27,18,23,23,26,31,0,0,0,0,0,0,0],"split_type":[0,0,0,0,0,0,0,0,0,0,0,0,0],"sum_hessian":[1.9432003E3,1.9233397E3,1.9860634E1,1.8862831E3,3.7056595E1,1.73297E1,2.5309336E0,1.8660927E3,2.0190407E1,3.403103E0,3.3653492E1,1.6054934E1,1.2747676E0],"tree_param":{"num_deleted":"0","num_feature":"56","num_nodes":"13","size_leaf_vector":"0"}},{"base_weights":[4.46853E-4,-7.4108995E-2,8.084313E-2,-2.5869753E-2,-7.397517E-1,-6.1824906E-1,1.288376E-1,-4.9879372E-1,5.650296E-2,1.0526481E-1,-1.2302562E0,-1.1159797E0,3.941097E-1,3.936823E-1,3.9902583E-2],"categories":[],"categories_nodes":[],"categories_segments":[],"categories_sizes":[],"default_left":[1,1,1,1,1,1,1,0,0,0,0,0,0,0,0],"id":80,"left_children":[1,3,5,7,9,11,13,-1,-1,-1,-1,-1,-1,-1,-1],"loss_changes":[1.1651861E1,3.2366993E1,3.1462065E1,3.6704456E1,2.8363255E1,3.0803497E1,2.0619015E1,0E0,0E0,0E0,0E0,0E0,0E0,0E0,0E0],